{"learner":{"attributes":{"scikit_learn":"{\"_estimator_type\": \"regressor\"}"},"feature_names":["tensor_size","num_workers","batch_size","num_ps","tensor_per_worker","comm_intensity","dataset_size","log_tensor_size","log_batch_size","log_comm_intensity","model_alexnet","model_bert","model_densenet100_k12","model_densenet40_k12","model_googlenet","model_gpt2","model_inception3","model_resnet110","model_resnet44","model_resnet50","model_resnet56","model_vgg16"],"feature_types":["float","int","int","int","float","float","int","float","float","float","i","i","i","i","i","i","i","i","i","i","i","i"],"gradient_booster":{"model":{"gbtree_model_param":{"num_parallel_tree":"1","num_trees":"100"},"iteration_indptr":[0,1,2,3,4,5,6,7,8,9,10,11,12,13,14,15,16,17,18,19,20,21,22,23,24,25,26,27,28,29,30,31,32,33,34,35,36,37,38,39,40,41,42,43,44,45,46,47,48,49,50,51,52,53,54,55,56,57,58,59,60,61,62,63,64,65,66,67,68,69,70,71,72,73,74,75,76,77,78,79,80,81,82,83,84,85,86,87,88,89,90,91,92,93,94,95,96,97,98,99,100],"tree_info":[0,0,0,0,0,0,0,0,0,0,0,0,0,0,0,0,0,0,0,0,0,0,0,0,0,0,0,0,0,0,0,0,0,0,0,0,0,0,0,0,0,0,0,0,0,0,0,0,0,0,0,0,0,0,0,0,0,0,0,0,0,0,0,0,0,0,0,0,0,0,0,0,0,0,0,0,0,0,0,0,0,0,0,0,0,0,0,0,0,0,0,0,0,0,0,0,0,0,0,0],"trees":[{"base_weights":[-1.5717944E2,-1.4815397E3,1.679179E3,-1.662123E2,-5.1226665E1,4.1415378E2,3.3198508E2,8.280759E0,1.0618744E2,-1.8864038E1,3.0161728E1],"categories":[],"categories_nodes":[],"categories_segments":[],"categories_sizes":[],"default_left":[0,0,0,0,0,0,0,0,0,0,0],"id":0,"left_children":[1,3,5,-1,-1,7,-1,9,-1,-1,-1],"loss_changes":[1.2165575E8,4.224332E6,4.2210012E7,0E0,0E0,3.4087E6,0E0,5.7678594E5,0E0,0E0,0E0],"parents":[2147483647,0,0,1,1,2,2,5,5,7,7],"right_children":[2,4,6,-1,-1,8,-1,10,-1,-1,-1],"split_conditions":[4.520701E0,5E0,5.12E2,-1.662123E2,-5.1226665E1,4E0,3.3198508E2,1.6E4,1.0618744E2,-1.8864038E1,3.0161728E1],"split_indices":[7,6,2,0,0,1,0,5,0,0,0],"split_type":[0,0,0,0,0,0,0,0,0,0,0],"sum_hessian":[4.8E1,2.8E1,2E1,2.3E1,5E0,1.2E1,8E0,8E0,4E0,5E0,3E0],"tree_param":{"num_deleted":"0","num_feature":"22","num_nodes":"11","size_leaf_vector":"1"}},{"base_weights":[6.147086E1,-1.281599E3,2.1081895E3,-1.4946329E2,-2.1584717E1,7.001779E2,3.9566708E2,8.802261E2,2.7204533E1,3.0609577E1,1.1634651E2],"categories":[],"categories_nodes":[],"categories_segments":[],"categories_sizes":[],"default_left":[0,0,0,0,0,0,0,0,0,0,0],"id":1,"left_children":[1,3,5,-1,-1,7,-1,9,-1,-1,-1],"loss_changes":[1.3189957E8,6.261412E6,4.6680136E7,0E0,0E0,6.85437E5,0E0,9.4465E5,0E0,0E0,0E0],"parents":[2147483647,0,0,1,1,2,2,5,5,7,7],"right_children":[2,4,6,-1,-1,8,-1,10,-1,-1,-1],"split_conditions":[4.520701E0,5E0,5.12E2,-1.4946329E2,-2.1584717E1,2E0,3.9566708E2,3.2E1,2.7204533E1,3.0609577E1,1.1634651E2],"split_indices":[7,6,2,0,0,3,0,2,0,0,0],"split_type":[0,0,0,0,0,0,0,0,0,0,0],"sum_hessian":[4.6E1,2.8E1,1.8E1,2.3E1,5E0,1.1E1,7E0,7E0,4E0,3E0,4E0],"tree_param":{"num_deleted":"0","num_feature":"22","num_nodes":"11","size_leaf_vector":"1"}},{"base_weights":[2.1786201E1,-1.1160249E3,1.9404869E3,-1.3233641E2,6.092075E0,7.692991E2,3.7642337E2,3.9718147E1,1.1363839E2],"categories":[],"categories_nodes":[],"categories_segments":[],"categories_sizes":[],"default_left":[0,0,0,0,0,0,0,0,0],"id":2,"left_children":[1,3,5,-1,-1,7,-1,-1,-1],"loss_changes":[9.38567E7,6.66948E6,3.1278924E7,0E0,0E0,1.051082E6,0E0,0E0,0E0],"parents":[2147483647,0,0,1,1,2,2,5,5],"right_children":[2,4,6,-1,-1,8,-1,-1,-1],"split_conditions":[9.09E1,2.67E1,5.12E2,-1.3233641E2,6.092075E0,1.56E3,3.7642337E2,3.9718147E1,1.1363839E2],"split_indices":[0,0,2,0,0,0,0,0,0],"split_type":[0,0,0,0,0,0,0,0,0],"sum_hessian":[4.1E1,2.6E1,1.5E1,2.2E1,4E0,1E1,5E0,6E0,4E0],"tree_param":{"num_deleted":"0","num_feature":"22","num_nodes":"9","size_leaf_vector":"1"}},{"base_weights":[-3.9234043E1,-1.1177054E3,1.6292733E3,-1.2187443E2,-4.4305046E1,8.2862213E2,4.185743E2,1.1641499E0,1.0612065E3,1.4299255E2,6.059141E2,1.014477E0,9.613268E1],"categories":[],"categories_nodes":[],"categories_segments":[],"categories_sizes":[],"default_left":[0,0,0,0,0,0,0,0,0,0,0,0,0],"id":3,"left_children":[1,3,5,-1,-1,7,-1,-1,9,-1,11,-1,-1],"loss_changes":[1.00790056E8,1.777524E6,4.156159E7,0E0,0E0,3.407844E6,0E0,0E0,1.483634E6,0E0,1.6841022E6,0E0,0E0],"parents":[2147483647,0,0,1,1,2,2,5,5,8,8,10,10],"right_children":[2,4,6,-1,-1,8,-1,-1,10,-1,12,-1,-1],"split_conditions":[4.520701E0,5E0,1.024E3,-1.2187443E2,-4.4305046E1,3.2E1,4.185743E2,1.1641499E0,2E0,1.4299255E2,4E0,1.014477E0,9.613268E1],"split_indices":[7,6,2,0,0,2,0,0,3,0,3,0,0],"split_type":[0,0,0,0,0,0,0,0,0,0,0,0,0],"sum_hessian":[5.4E1,3.3E1,2.1E1,2.8E1,5E0,1.7E1,4E0,4E0,1.3E1,6E0,7E0,3E0,4E0],"tree_param":{"num_deleted":"0","num_feature":"22","num_nodes":"13","size_leaf_vector":"1"}},{"base_weights":[6.7498825E1,-9.5555005E2,1.6498546E3,-1.111995E2,-1.1834685E1,9.7139844E2,4.1208047E2,6.404866E2,1.6374698E2,8.147629E2,1.986719E1,1.9703672E1,1.0907698E2],"categories":[],"categories_nodes":[],"categories_segments":[],"categories_sizes":[],"default_left":[0,0,0,0,0,0,0,0,0,0,0,0,0],"id":4,"left_children":[1,3,5,-1,-1,7,-1,9,-1,11,-1,-1,-1],"loss_changes":[8.251795E7,3.928538E6,2.9525172E7,0E0,0E0,2.697981E6,0E0,8.39E5,0E0,1.31942E6,0E0,0E0,0E0],"parents":[2147483647,0,0,1,1,2,2,5,5,7,7,9,9],"right_children":[2,4,6,-1,-1,8,-1,10,-1,12,-1,-1,-1],"split_conditions":[9.09E1,2.67E1,1.024E3,-1.111995E2,-1.1834685E1,5.12E2,4.1208047E2,2E0,1.6374698E2,3.2E1,1.986719E1,1.9703672E1,1.0907698E2],"split_indices":[0,0,2,0,0,2,0,3,0,2,0,0,0],"split_type":[0,0,0,0,0,0,0,0,0,0,0,0,0],"sum_hessian":[4.9E1,3E1,1.9E1,2.5E1,5E0,1.6E1,3E0,1.2E1,4E0,8E0,4E0,3E0,5E0],"tree_param":{"num_deleted":"0","num_feature":"22","num_nodes":"13","size_leaf_vector":"1"}},{"base_weights":[-2.0450024E1,-8.812423E2,1.4151729E3,-1.0065844E2,-2.3606205E1,4.5754477E2,2.914113E2,-2.829322E2,1.0482815E2,-4.017208E1,-9.338555E0],"categories":[],"categories_nodes":[],"categories_segments":[],"categories_sizes":[],"default_left":[0,0,0,0,0,0,0,0,0,0,0],"id":5,"left_children":[1,3,5,-1,-1,7,-1,9,-1,-1,-1],"loss_changes":[6.921458E7,2.592648E6,2.88103E7,0E0,0E0,6.420646E6,0E0,1.2004744E5,0E0,0E0,0E0],"parents":[2147483647,0,0,1,1,2,2,5,5,7,7],"right_children":[2,4,6,-1,-1,8,-1,10,-1,-1,-1],"split_conditions":[9.09E1,2.67E1,8E0,-1.0065844E2,-2.3606205E1,4E0,2.914113E2,5.278E2,1.0482815E2,-4.017208E1,-9.338555E0],"split_indices":[0,0,1,0,0,1,0,0,0,0,0],"split_type":[0,0,0,0,0,0,0,0,0,0,0],"sum_hessian":[5.4E1,3.4E1,2E1,2.8E1,6E0,1.3E1,7E0,6E0,7E0,3E0,3E0],"tree_param":{"num_deleted":"0","num_feature":"22","num_nodes":"11","size_leaf_vector":"1"}},{"base_weights":[4.655561E1,-8.3388214E2,1.4342755E3,-9.102717E1,-3.7659546E1,4.1062857E2,2.790449E3,-4.3361163E-1,7.076656E1,1.5901498E2,3.5931857E2],"categories":[],"categories_nodes":[],"categories_segments":[],"categories_sizes":[],"default_left":[0,0,0,0,0,0,0,0,0,0,0],"id":6,"left_children":[1,3,5,-1,-1,7,9,-1,-1,-1,-1],"loss_changes":[5.9842524E7,7.05026E5,2.5230452E7,0E0,0E0,1.4822574E6,1.993976E6,0E0,0E0,0E0,0E0],"parents":[2147483647,0,0,1,1,2,2,5,5,6,6],"right_children":[2,4,6,-1,-1,8,10,-1,-1,-1,-1],"split_conditions":[9.09E1,2.67E1,8E0,-9.102717E1,-3.7659546E1,4E0,6.931472E0,-4.3361163E-1,7.076656E1,1.5901498E2,3.5931857E2],"split_indices":[0,0,1,0,0,1,8,0,0,0,0],"split_type":[0,0,0,0,0,0,0,0,0,0,0],"sum_hessian":[4.7E1,2.9E1,1.8E1,2.4E1,5E0,1.1E1,7E0,5E0,6E0,4E0,3E0],"tree_param":{"num_deleted":"0","num_feature":"22","num_nodes":"11","size_leaf_vector":"1"}},{"base_weights":[1.09746346E2,-7.3307184E2,1.2684169E3,-8.426879E1,-1.7241241E1,3.3220682E2,2.479774E3,-3.5757473E1,8.080296E1,1.462938E2,3.0006354E2],"categories":[],"categories_nodes":[],"categories_segments":[],"categories_sizes":[],"default_left":[0,0,0,0,0,0,0,0,0,0,0],"id":7,"left_children":[1,3,5,-1,-1,7,9,-1,-1,-1,-1],"loss_changes":[4.8780776E7,1.63687E6,2.29917E7,0E0,0E0,4.555755E6,3.76484E5,0E0,0E0,0E0,0E0],"parents":[2147483647,0,0,1,1,2,2,5,5,6,6],"right_children":[2,4,6,-1,-1,8,10,-1,-1,-1,-1],"split_conditions":[9.09E1,2.67E1,8E0,-8.426879E1,-1.7241241E1,4E0,1.024E3,-3.5757473E1,8.080296E1,1.462938E2,3.0006354E2],"split_indices":[0,0,1,0,0,1,2,0,0,0,0],"split_type":[0,0,0,0,0,0,0,0,0,0,0],"sum_hessian":[4.8E1,2.8E1,2E1,2.3E1,5E0,1.2E1,8E0,5E0,7E0,4E0,4E0],"tree_param":{"num_deleted":"0","num_feature":"22","num_nodes":"11","size_leaf_vector":"1"}},{"base_weights":[9.988001E1,-7.210143E1,1.111474E3,5.6105475E2,2.7605844E2,1.9922539E2,1.0494788E3,-6.8173647E0,5.6152954E1,1.3701822E2,4.6638077E1,2.8477848E1,-2.3875055E1],"categories":[],"categories_nodes":[],"categories_segments":[],"categories_sizes":[],"default_left":[0,0,0,0,0,0,0,0,0,0,0,0,0],"id":8,"left_children":[1,-1,3,5,-1,7,9,11,-1,-1,-1,-1,-1],"loss_changes":[3.900037E7,0E0,1.7512576E7,2.7951375E6,0E0,8.250351E5,6.698E5,6.0903244E5,0E0,0E0,0E0,0E0,0E0],"parents":[2147483647,0,0,2,2,3,3,5,5,6,6,7,7],"right_children":[2,-1,4,6,-1,8,10,12,-1,-1,-1,-1,-1],"split_conditions":[9.09E1,-7.210143E1,1.024E3,5.12E2,2.7605844E2,1.6E4,2E0,9.75E1,5.6152954E1,1.3701822E2,4.6638077E1,2.8477848E1,-2.3875055E1],"split_indices":[0,0,2,2,0,5,3,0,0,0,0,0,0],"split_type":[0,0,0,0,0,0,0,0,0,0,0,0,0],"sum_hessian":[4.5E1,2.5E1,2E1,1.6E1,4E0,1E1,6E0,7E0,3E0,3E0,3E0,3E0,4E0],"tree_param":{"num_deleted":"0","num_feature":"22","num_nodes":"13","size_leaf_vector":"1"}},{"base_weights":[-1.3336934E2,-6.766326E1,4.3695517E2,-2.7497186E2,7.8816034E2,-4.6092033E1,-3.4009004E0,2.2144566E1,9.454921E2,1.0745745E3,3.8638836E1,1.2308052E2,5.325019E1],"categories":[],"categories_nodes":[],"categories_segments":[],"categories_sizes":[],"default_left":[0,0,0,0,0,0,0,0,0,0,0,0,0],"id":9,"left_children":[1,-1,3,5,7,-1,-1,-1,9,11,-1,-1,-1],"loss_changes":[1.5787499E7,0E0,6.4675845E6,3.8753506E5,1.306266E6,0E0,0E0,0E0,5.22867E5,1.91301E5,0E0,0E0,0E0],"parents":[2147483647,0,0,2,2,3,3,4,4,8,8,9,9],"right_children":[2,-1,4,6,8,-1,-1,-1,10,12,-1,-1,-1],"split_conditions":[5E0,-6.766326E1,4E0,1.248E4,1.13625E1,-4.6092033E1,-3.4009004E0,2.2144566E1,1E0,2.639E2,3.8638836E1,1.2308052E2,5.325019E1],"split_indices":[6,0,1,5,4,0,0,0,19,4,0,0,0],"split_type":[0,0,0,0,0,0,0,0,0,0,0,0,0],"sum_hessian":[4.9E1,2.5E1,2.4E1,8E0,1.6E1,4E0,4E0,4E0,1.2E1,9E0,3E0,6E0,3E0],"tree_param":{"num_deleted":"0","num_feature":"22","num_nodes":"13","size_leaf_vector":"1"}},{"base_weights":[8.670704E1,-5.145599E2,9.979129E2,-6.4615555E1,-2.4214758E2,2.9903058E2,2.0518264E3,-4.8146988E1,2.3704206E1,-1.1214029E2,6.728351E2,2.5009575E2,8.651482E1,-2.6609694E1,1.0831557E1,8.8744995E1,2.3633274E1],"categories":[],"categories_nodes":[],"categories_segments":[],"categories_sizes":[],"default_left":[0,0,0,0,0,0,0,0,0,0,0,0,0,0,0,0,0],"id":10,"left_children":[1,3,5,-1,7,9,11,-1,-1,13,15,-1,-1,-1,-1,-1,-1],"loss_changes":[3.1742576E7,1.098136E6,1.6327122E7,0E0,1.6050029E6,2.3809708E6,2.632728E6,0E0,0E0,3.0036338E5,5.395935E5,0E0,0E0,0E0,0E0,0E0,0E0],"parents":[2147483647,0,0,1,1,2,2,4,4,5,5,6,6,9,9,10,10],"right_children":[2,4,6,-1,8,10,12,-1,-1,14,16,-1,-1,-1,-1,-1,-1],"split_conditions":[4.520701E0,8E0,8E0,-6.4615555E1,1.0625E0,4E0,2E0,-4.8146988E1,2.3704206E1,9.680407E0,2E0,2.5009575E2,8.651482E1,-2.6609694E1,1.0831557E1,8.8744995E1,2.3633274E1],"split_indices":[7,1,1,0,4,1,3,0,0,9,3,0,0,0,0,0,0],"split_type":[0,0,0,0,0,0,0,0,0,0,0,0,0,0,0,0,0],"sum_hessian":[5.6E1,3.4E1,2.2E1,2.2E1,1.2E1,1.4E1,8E0,8E0,4E0,7E0,7E0,5E0,3E0,4E0,3E0,4E0,3E0],"tree_param":{"num_deleted":"0","num_feature":"22","num_nodes":"17","size_leaf_vector":"1"}},{"base_weights":[1.3394435E1,-2.146719E2,2.0633325E2,-5.495626E2,1.942252E2,-5.7356503E1,-2.801338E1,-2.0628003E2,1.02471855E2,-3.849688E2,5.291699E1,-4.526666E1,-1.8715498E1,1.6636778E1,-7.373803E0],"categories":[],"categories_nodes":[],"categories_segments":[],"categories_sizes":[],"default_left":[0,0,0,0,0,0,0,0,0,0,0,0,0,0,0],"id":11,"left_children":[1,3,-1,5,7,-1,-1,9,-1,11,13,-1,-1,-1,-1],"loss_changes":[2.3351698E7,6.268887E6,0E0,9.13E2,7.196416E6,0E0,0E0,7.151386E5,0E0,3.5741125E4,1.1286067E5,0E0,0E0,0E0,0E0],"parents":[2147483647,0,0,1,1,3,3,4,4,7,7,9,9,10,10],"right_children":[2,4,-1,6,8,-1,-1,10,-1,12,14,-1,-1,-1,-1],"split_conditions":[6.75584E4,5E0,2.0633325E2,1.6384E4,8E0,-5.7356503E1,-2.801338E1,4E0,1.02471855E2,1.248E4,5.12E2,-4.526666E1,-1.8715498E1,1.6636778E1,-7.373803E0],"split_indices":[5,6,0,2,1,0,0,1,0,5,2,0,0,0,0],"split_type":[0,0,0,0,0,0,0,0,0,0,0,0,0,0,0],"sum_hessian":[4.8E1,4.4E1,4E0,2.4E1,2E1,2.1E1,3E0,1.4E1,6E0,8E0,6E0,5E0,3E0,3E0,3E0],"tree_param":{"num_deleted":"0","num_feature":"22","num_nodes":"15","size_leaf_vector":"1"}},{"base_weights":[1.10198265E2,-4.1146353E2,8.253456E2,-5.4795918E1,-1.3828348E2,1.0794149E2,1.7698798E3,-3.601973E1,2.0003256E1,-1.0045793E2,3.6783382E1,2.1898412E2,6.9744286E1,-1.7442558E1,1.709112E0],"categories":[],"categories_nodes":[],"categories_segments":[],"categories_sizes":[],"default_left":[0,0,0,0,0,0,0,0,0,0,0,0,0,0,0],"id":12,"left_children":[1,3,5,-1,7,9,11,-1,-1,13,-1,-1,-1,-1,-1],"loss_changes":[1.8619826E7,1.0055065E6,1.4038634E7,0E0,8.9791425E5,7.410769E5,2.525862E6,0E0,0E0,7.255547E4,0E0,0E0,0E0,0E0,0E0],"parents":[2147483647,0,0,1,1,2,2,4,4,5,5,6,6,9,9],"right_children":[2,4,6,-1,8,10,12,-1,-1,14,-1,-1,-1,-1,-1],"split_conditions":[9.09E1,8E0,8E0,-5.4795918E1,8.5E0,4E0,2E0,-3.601973E1,2.0003256E1,2E0,3.6783382E1,2.1898412E2,6.9744286E1,-1.7442558E1,1.709112E0],"split_indices":[0,1,1,0,0,1,3,0,0,3,0,0,0,0,0],"split_type":[0,0,0,0,0,0,0,0,0,0,0,0,0,0,0],"sum_hessian":[4.8E1,2.8E1,2E1,1.8E1,1E1,1.2E1,8E0,6E0,4E0,7E0,5E0,5E0,3E0,4E0,3E0],"tree_param":{"num_deleted":"0","num_feature":"22","num_nodes":"15","size_leaf_vector":"1"}},{"base_weights":[2.501206E1,-3.969907E2,6.778707E2,-4.7408005E1,-6.494426E1,4.844928E1,1.8398606E3,-1.5412806E0,-9.8214655E0,-2.154185E2,3.431054E2,8.382388E1,2.3814922E2,-3.57337E1,1.580926E0,4.968942E1,1.0351528E1],"categories":[],"categories_nodes":[],"categories_segments":[],"categories_sizes":[],"default_left":[0,0,0,0,0,0,0,0,0,0,0,0,0,0,0,0,0],"id":13,"left_children":[1,3,5,-1,7,9,11,-1,-1,13,15,-1,-1,-1,-1,-1,-1],"loss_changes":[1.4044544E7,7.626725E5,1.4538298E7,0E0,1.0010391E4,1.1624278E6,1.800988E6,0E0,0E0,2.682074E5,2.0642769E5,0E0,0E0,0E0,0E0,0E0,0E0],"parents":[2147483647,0,0,1,1,2,2,4,4,5,5,6,6,9,9,10,10],"right_children":[2,4,6,-1,8,10,12,-1,-1,14,16,-1,-1,-1,-1,-1,-1],"split_conditions":[9.09E1,2.67E1,8E0,-4.7408005E1,2E0,4E0,1.024E3,-1.5412806E0,-9.8214655E0,2E0,5.12E2,8.382388E1,2.3814922E2,-3.57337E1,1.580926E0,4.968942E1,1.0351528E1],"split_indices":[0,0,1,0,3,1,2,0,0,3,2,0,0,0,0,0,0],"split_type":[0,0,0,0,0,0,0,0,0,0,0,0,0,0,0,0,0],"sum_hessian":[4.9E1,3E1,1.9E1,2.4E1,6E0,1.3E1,6E0,3E0,3E0,7E0,6E0,3E0,3E0,4E0,3E0,3E0,3E0],"tree_param":{"num_deleted":"0","num_feature":"22","num_nodes":"17","size_leaf_vector":"1"}},{"base_weights":[6.640384E1,-1.5223634E2,1.4312416E3,-2.5044353E2,6.638484E1,2.2975633E2,2.070845E1,-4.0840782E1,-1.2697286E1,-1.5127415E2,2.66556E1,-2.566184E0,-2.3731696E2,-2.9531713E1,-1.1996255E1],"categories":[],"categories_nodes":[],"categories_segments":[],"categories_sizes":[],"default_left":[0,0,0,0,0,0,0,0,0,0,0,0,0,0,0],"id":14,"left_children":[1,3,5,7,-1,-1,-1,-1,9,11,-1,-1,13,-1,-1],"loss_changes":[1.5138433E7,3.6926122E6,6.947557E6,1.4969885E6,0E0,0E0,0E0,0E0,6.981782E5,1.2358019E5,0E0,0E0,1.21775E4,0E0,0E0],"parents":[2147483647,0,0,1,1,2,2,3,3,8,8,9,9,12,12],"right_children":[2,4,6,8,-1,-1,-1,-1,10,12,-1,-1,14,-1,-1],"split_conditions":[6.75584E4,1E0,2E0,5E0,6.638484E1,2.2975633E2,2.070845E1,-4.0840782E1,1.024E3,1.28E2,2.66556E1,-2.566184E0,2E0,-2.9531713E1,-1.1996255E1],"split_indices":[5,16,3,6,0,0,0,0,2,2,0,0,3,0,0],"split_type":[0,0,0,0,0,0,0,0,0,0,0,0,0,0,0],"sum_hessian":[4.9E1,4.3E1,6E0,3.9E1,4E0,3E0,3E0,2.3E1,1.6E1,1.1E1,5E0,5E0,6E0,3E0,3E0],"tree_param":{"num_deleted":"0","num_feature":"22","num_nodes":"15","size_leaf_vector":"1"}},{"base_weights":[3.0988646E1,-1.6212697E2,1.8400978E2,-3.5408493E2,1.9744499E2,-4.013599E1,-1.9391725E2,6.857031E1,-6.3129482E1,-4.0558758E1,5.651653E0,-2.1992187E-1,-1.5113889E1,-5.512485E0,6.8441215E0],"categories":[],"categories_nodes":[],"categories_segments":[],"categories_sizes":[],"default_left":[0,0,0,0,0,0,0,0,0,0,0,0,0,0,0],"id":15,"left_children":[1,3,-1,5,7,-1,9,-1,11,-1,-1,13,-1,-1,-1],"loss_changes":[1.8116224E7,3.3139948E6,0E0,1.56839E5,2.2062195E6,0E0,5.0004184E5,0E0,6.639122E4,0E0,0E0,3.393016E4,0E0,0E0,0E0],"parents":[2147483647,0,0,1,1,3,3,4,4,6,6,8,8,11,11],"right_children":[2,4,-1,6,8,-1,10,-1,12,-1,-1,14,-1,-1,-1],"split_conditions":[6.75584E4,9.09E1,1.8400978E2,8.5E0,2.4375E1,-4.013599E1,6.931472E0,6.857031E1,2.639E2,-4.0558758E1,5.651653E0,4.875E1,-1.5113889E1,-5.512485E0,6.8441215E0],"split_indices":[5,0,0,0,4,0,8,0,4,0,0,4,0,0,0],"split_type":[0,0,0,0,0,0,0,0,0,0,0,0,0,0,0],"sum_hessian":[5E1,4.6E1,4E0,3E1,1.6E1,2.2E1,8E0,5E0,1.1E1,4E0,4E0,7E0,4E0,4E0,3E0],"tree_param":{"num_deleted":"0","num_feature":"22","num_nodes":"15","size_leaf_vector":"1"}},{"base_weights":[6.806213E1,-9.7754944E1,1.5136601E2,-3.129229E2,2.983404E2,-3.809879E2,-1.4549055E2,-3.013149E1,5.983124E2,-4.3406475E1,-2.678757E1,-2.5744709E1,8.6781E0,3.0269453E1,7.941949E1],"categories":[],"categories_nodes":[],"categories_segments":[],"categories_sizes":[],"default_left":[0,0,0,0,0,0,0,0,0,0,0,0,0,0,0],"id":16,"left_children":[1,3,-1,5,7,9,11,-1,13,-1,-1,-1,-1,-1,-1],"loss_changes":[1.1653941E7,3.8433482E6,0E0,2.750095E5,3.0583865E6,3.72725E3,2.8240175E5,0E0,3.964615E5,0E0,0E0,0E0,0E0,0E0,0E0],"parents":[2147483647,0,0,1,1,3,3,4,4,5,5,6,6,8,8],"right_children":[2,4,-1,6,8,10,12,-1,14,-1,-1,-1,-1,-1,-1],"split_conditions":[6.75584E4,9.09E1,1.5136601E2,8E0,4E0,4E0,8.5E0,-3.013149E1,8E0,-4.3406475E1,-2.678757E1,-2.5744709E1,8.6781E0,3.0269453E1,7.941949E1],"split_indices":[5,0,0,1,1,1,0,0,1,0,0,0,0,0,0],"split_type":[0,0,0,0,0,0,0,0,0,0,0,0,0,0,0],"sum_hessian":[4.7E1,4.3E1,4E0,2.8E1,1.5E1,1.9E1,9E0,5E0,1E1,1.1E1,8E0,6E0,3E0,5E0,5E0],"tree_param":{"num_deleted":"0","num_feature":"22","num_nodes":"15","size_leaf_vector":"1"}},{"base_weights":[6.59443E1,-3.0433826E2,4.7976868E2,-3.2459984E1,-1.5024737E1,4.191047E1,1.2048645E3,-2.57218E1,3.0315683E2,1.7784158E2,3.9032043E1,4.6404827E1,-1.3944544E0],"categories":[],"categories_nodes":[],"categories_segments":[],"categories_sizes":[],"default_left":[0,0,0,0,0,0,0,0,0,0,0,0,0],"id":17,"left_children":[1,3,5,-1,-1,7,9,-1,11,-1,-1,-1,-1],"loss_changes":[7.8076275E6,3.547925E4,7.5691195E6,0E0,0E0,1.3283216E6,3.510276E6,0E0,4.6568606E5,0E0,0E0,0E0,0E0],"parents":[2147483647,0,0,1,1,2,2,5,5,6,6,8,8],"right_children":[2,4,6,-1,-1,8,10,-1,12,-1,-1,-1,-1],"split_conditions":[3.3214324E0,1.6384E4,8E0,-3.2459984E1,-1.5024737E1,4E0,2E0,-2.57218E1,2E0,1.7784158E2,3.9032043E1,4.6404827E1,-1.3944544E0],"split_indices":[7,2,1,0,0,1,3,0,3,0,0,0,0],"split_type":[0,0,0,0,0,0,0,0,0,0,0,0,0],"sum_hessian":[4.9E1,2.6E1,2.3E1,2.2E1,4E0,1.5E1,8E0,7E0,8E0,4E0,4E0,5E0,3E0],"tree_param":{"num_deleted":"0","num_feature":"22","num_nodes":"13","size_leaf_vector":"1"}},{"base_weights":[1.3100204E1,-2.8354745E2,4.80807E2,-3.282179E1,-1.4283664E2,1.4169579E2,1.7170251E2,-2.3556644E1,3.194221E0,-3.0702635E1,5.2713284E1,9.940411E0,-1.3785089E2,-1.715401E1,-6.967397E0],"categories":[],"categories_nodes":[],"categories_segments":[],"categories_sizes":[],"default_left":[0,0,0,0,0,0,0,0,0,0,0,0,0,0,0],"id":18,"left_children":[1,3,5,-1,7,9,-1,-1,-1,11,-1,-1,13,-1,-1],"loss_changes":[6.7960695E6,1.4163975E5,7.721613E6,0E0,1.5340975E5,1.0794139E6,0E0,0E0,0E0,1.8099533E5,0E0,0E0,4.1017812E3,0E0,0E0],"parents":[2147483647,0,0,1,1,2,2,4,4,5,5,9,9,12,12],"right_children":[2,4,6,-1,8,10,-1,-1,-1,12,-1,-1,14,-1,-1],"split_conditions":[4.520701E0,8E0,1.024E3,-3.282179E1,3.3792E3,8E0,1.7170251E2,-2.3556644E1,3.194221E0,6.2706103E0,5.2713284E1,9.940411E0,4E0,-1.715401E1,-6.967397E0],"split_indices":[7,1,2,0,5,1,0,0,0,7,0,0,1,0,0],"split_type":[0,0,0,0,0,0,0,0,0,0,0,0,0,0,0],"sum_hessian":[4.7E1,2.9E1,1.8E1,2.1E1,8E0,1.5E1,3E0,5E0,3E0,1.1E1,4E0,5E0,6E0,3E0,3E0],"tree_param":{"num_deleted":"0","num_feature":"22","num_nodes":"15","size_leaf_vector":"1"}},{"base_weights":[6.5254745E1,-7.938099E1,1.3250182E2,-2.3741418E2,2.1200923E2,-5.4859424E0,-2.6442456E2,-5.8071265E0,5.7602108E1,-2.8200134E1,-1.0162117E1,3.1094366E1,-1.6346913E2,-2.7913294E1,-3.8224263E0],"categories":[],"categories_nodes":[],"categories_segments":[],"categories_sizes":[],"default_left":[0,0,0,0,0,0,0,0,0,0,0,0,0,0,0],"id":19,"left_children":[1,3,-1,5,7,-1,9,11,-1,-1,-1,-1,13,-1,-1],"loss_changes":[8.851232E6,2.076507E6,0E0,1.2845725E5,1.2720058E6,0E0,4.284325E4,6.001502E5,0E0,0E0,0E0,0E0,1.05189E5,0E0,0E0],"parents":[2147483647,0,0,1,1,3,3,4,4,6,6,7,7,12,12],"right_children":[2,4,-1,6,8,-1,10,12,-1,-1,-1,-1,14,-1,-1],"split_conditions":[6.75584E4,1E1,1.3250182E2,1.28E2,8E0,-5.4859424E0,1.6384E4,6.24E3,5.7602108E1,-2.8200134E1,-1.0162117E1,3.1094366E1,2.2725E1,-2.7913294E1,-3.8224263E0],"split_indices":[5,6,0,2,1,0,2,5,0,0,0,0,4,0,0],"split_type":[0,0,0,0,0,0,0,0,0,0,0,0,0,0,0],"sum_hessian":[4.7E1,4.3E1,4E0,2.8E1,1.5E1,4E0,2.4E1,1E1,5E0,2.1E1,3E0,3E0,7E0,3E0,4E0],"tree_param":{"num_deleted":"0","num_feature":"22","num_nodes":"15","size_leaf_vector":"1"}},{"base_weights":[5.9697952E1,-1.5883133E2,5.886382E2,-2.6737125E2,1.3899244E1,2.1239919E2,1.3738641E2,-1.2379677E1,-2.898913E1,-2.3454721E2,2.332073E1,-1.2883197E1,4.7455456E1,-1.351211E1,-3.0016806E1],"categories":[],"categories_nodes":[],"categories_segments":[],"categories_sizes":[],"default_left":[0,0,0,0,0,0,0,0,0,0,0,0,0,0,0],"id":20,"left_children":[1,3,5,7,9,11,-1,-1,-1,13,-1,-1,-1,-1,-1],"loss_changes":[6.3353395E6,7.349198E5,4.434956E6,4.16705E4,9.264789E5,1.1346392E6,0E0,0E0,0E0,1.1592844E4,0E0,0E0,0E0,0E0,0E0],"parents":[2147483647,0,0,1,1,2,2,3,3,4,4,5,5,9,9],"right_children":[2,4,6,8,10,12,-1,-1,-1,14,-1,-1,-1,-1,-1],"split_conditions":[8E0,9.09E1,5.278E2,1.3312E3,4E0,8.5E0,1.3738641E2,-1.2379677E1,-2.898913E1,5.278E2,2.332073E1,-1.2883197E1,4.7455456E1,-1.351211E1,-3.0016806E1],"split_indices":[1,0,0,5,1,0,0,0,0,0,0,0,0,0,0],"split_type":[0,0,0,0,0,0,0,0,0,0,0,0,0,0,0],"sum_hessian":[5.3E1,3.8E1,1.5E1,2.3E1,1.5E1,1.1E1,4E0,4E0,1.9E1,7E0,8E0,5E0,6E0,4E0,3E0],"tree_param":{"num_deleted":"0","num_feature":"22","num_nodes":"15","size_leaf_vector":"1"}},{"base_weights":[3.8377422E1,-8.2194725E1,1.1882145E2,-1.8610938E2,1.3726015E2,-2.4986548E2,-5.3705734E1,5.2031654E1,-8.414878E1,-2.8912367E1,-1.7383328E2,-1.8307547E1,1.64007E1,-1.763445E2,1.2125484E1,-7.9102693E0,-2.0311745E1,-2.9114866E1,1.1221827E0],"categories":[],"categories_nodes":[],"categories_segments":[],"categories_sizes":[],"default_left":[0,0,0,0,0,0,0,0,0,0,0,0,0,0,0,0,0,0,0],"id":21,"left_children":[1,3,-1,5,7,9,11,-1,13,-1,15,-1,-1,17,-1,-1,-1,-1,-1],"loss_changes":[7.3069685E6,1.12017E6,0E0,2.6512112E5,1.4008211E6,1.5361875E4,3.6801278E5,0E0,2.2969881E5,0E0,1.16456875E4,0E0,0E0,1.7556236E5,0E0,0E0,0E0,0E0,0E0],"parents":[2147483647,0,0,1,1,3,3,4,4,5,5,6,6,8,8,10,10,13,13],"right_children":[2,4,-1,6,8,10,12,-1,14,-1,16,-1,-1,18,-1,-1,-1,-1,-1],"split_conditions":[6.75584E4,4.520701E0,1.1882145E2,8E0,2.4375E1,4E0,5.8176E3,5.2031654E1,1.6E4,-2.8912367E1,2E0,-1.8307547E1,1.64007E1,2E0,1.2125484E1,-7.9102693E0,-2.0311745E1,-2.9114866E1,1.1221827E0],"split_indices":[5,7,0,1,4,1,5,0,5,0,3,0,0,3,0,0,0,0,0],"split_type":[0,0,0,0,0,0,0,0,0,0,0,0,0,0,0,0,0,0,0],"sum_hessian":[5.1E1,4.7E1,4E0,3.2E1,1.5E1,2.1E1,1.1E1,5E0,1E1,1.2E1,9E0,7E0,4E0,7E0,3E0,3E0,6E0,4E0,3E0],"tree_param":{"num_deleted":"0","num_feature":"22","num_nodes":"19","size_leaf_vector":"1"}},{"base_weights":[3.6897057E1,-6.8850395E1,7.114454E2,-1.2840697E2,2.727863E2,1.5660226E2,-3.2096817E1,-1.9838705E2,-6.53093E1,4.2621384E1,5.113717E0,-2.1848557E1,-1.0241383E1,7.5203614E0,-1.2270812E2,-2.422618E1,-4.633266E1,-9.245811E0,5.74764E0],"categories":[],"categories_nodes":[],"categories_segments":[],"categories_sizes":[],"default_left":[0,0,0,0,0,0,0,0,0,0,0,0,0,0,0,0,0,0,0],"id":22,"left_children":[1,3,5,7,9,-1,-1,11,13,-1,-1,-1,-1,-1,15,-1,17,-1,-1],"loss_changes":[3.6869675E6,9.5061506E5,6.6787065E6,1.5922475E5,2.162065E5,0E0,0E0,1.23124375E4,1.8666892E5,0E0,0E0,0E0,0E0,0E0,1.3484197E5,0E0,5.7988293E4,0E0,0E0],"parents":[2147483647,0,0,1,1,2,2,3,3,4,4,7,7,8,8,14,14,16,16],"right_children":[2,4,6,8,10,-1,-1,12,14,-1,-1,-1,-1,-1,16,-1,18,-1,-1],"split_conditions":[1.1120763E1,1E0,2E0,8.5E0,2E0,1.5660226E2,-3.2096817E1,1.6384E4,3.35E0,4.2621384E1,5.113717E0,-2.1848557E1,-1.0241383E1,7.5203614E0,9.09E1,-2.422618E1,2E0,-9.245811E0,5.74764E0],"split_indices":[9,16,3,0,3,0,0,2,4,0,0,0,0,0,0,0,3,0,0],"split_type":[0,0,0,0,0,0,0,0,0,0,0,0,0,0,0,0,0,0,0],"sum_hessian":[5E1,4.4E1,6E0,3.8E1,6E0,3E0,3E0,1.7E1,2.1E1,3E0,3E0,1.3E1,4E0,6E0,1.5E1,5E0,1E1,7E0,3E0],"tree_param":{"num_deleted":"0","num_feature":"22","num_nodes":"19","size_leaf_vector":"1"}},{"base_weights":[9.565427E0,-8.520767E1,6.5808594E2,-1.7290305E2,8.48723E1,1.448571E2,-2.968956E1,-2.0571196E2,-9.155767E1,-1.4899867E2,2.259927E2,-1.0055491E1,-2.1701807E1,-1.5775293E1,6.3697267E0,-1.9065393E1,-7.006875E0,3.3121436E2,3.3463838E0,4.7963665E1,9.996352E0],"categories":[],"categories_nodes":[],"categories_segments":[],"categories_sizes":[],"default_left":[0,0,0,0,0,0,0,0,0,0,0,0,0,0,0,0,0,0,0,0,0],"id":23,"left_children":[1,3,5,7,9,-1,-1,11,13,15,17,-1,-1,-1,-1,-1,-1,19,-1,-1,-1],"loss_changes":[3.3750955E6,7.306143E5,5.7144795E6,6.653906E4,5.9474775E5,0E0,0E0,4.3021875E3,1.23106375E5,9.629953E3,2.1172006E5,0E0,0E0,0E0,0E0,0E0,0E0,1.9225525E5,0E0,0E0,0E0],"parents":[2147483647,0,0,1,1,2,2,3,3,4,4,7,7,8,8,9,9,10,10,17,17],"right_children":[2,4,6,8,10,-1,-1,12,14,16,18,-1,-1,-1,-1,-1,-1,20,-1,-1,-1],"split_conditions":[6.75584E4,9.09E1,2E0,8E0,4E0,1.448571E2,-2.968956E1,1.3312E3,5.8176E3,6.8352E3,2E0,-1.0055491E1,-2.1701807E1,-1.5775293E1,6.3697267E0,-1.9065393E1,-7.006875E0,5.278E2,3.3463838E0,4.7963665E1,9.996352E0],"split_indices":[5,0,3,1,1,0,0,5,5,5,3,0,0,0,0,0,0,0,0,0,0],"split_type":[0,0,0,0,0,0,0,0,0,0,0,0,0,0,0,0,0,0,0,0,0],"sum_hessian":[5.3E1,4.7E1,6E0,3.1E1,1.6E1,3E0,3E0,2.1E1,1E1,6E0,1E1,3E0,1.8E1,7E0,3E0,3E0,3E0,6E0,4E0,3E0,3E0],"tree_param":{"num_deleted":"0","num_feature":"22","num_nodes":"21","size_leaf_vector":"1"}},{"base_weights":[-4.474445E1,-1.6116898E2,9.487746E1,-8.195698E0,-1.718413E1,2.7486993E2,-2.7601805E1,4.0385574E1,9.089013E0,3.9319836E1,-1.5594472E1,-1.2147032E1,2.2442404E1],"categories":[],"categories_nodes":[],"categories_segments":[],"categories_sizes":[],"default_left":[0,0,0,0,0,0,0,0,0,0,0,0,0],"id":24,"left_children":[1,3,5,-1,-1,7,9,-1,-1,11,-1,-1,-1],"loss_changes":[7.793024E5,7.8708125E3,4.9260922E5,0E0,0E0,1.7682106E5,1.26388234E5,0E0,0E0,3.2490047E5,0E0,0E0,0E0],"parents":[2147483647,0,0,1,1,2,2,5,5,6,6,9,9],"right_children":[2,4,6,-1,-1,8,10,-1,-1,12,-1,-1,-1],"split_conditions":[2.67E1,1.024E3,2.4375E1,-8.195698E0,-1.718413E1,2E0,2E0,4.0385574E1,9.089013E0,1.6E4,-1.5594472E1,-1.2147032E1,2.2442404E1],"split_indices":[0,2,4,0,0,3,3,0,0,5,0,0,0],"split_type":[0,0,0,0,0,0,0,0,0,0,0,0,0],"sum_hessian":[4.6E1,2.5E1,2.1E1,4E0,2.1E1,8E0,1.3E1,4E0,4E0,9E0,4E0,5E0,4E0],"tree_param":{"num_deleted":"0","num_feature":"22","num_nodes":"13","size_leaf_vector":"1"}},{"base_weights":[5.1779514E1,-5.026484E1,8.084989E1,-1.9655377E2,4.556965E1,-2.507089E2,-9.750874E1,-1.2195067E2,2.4825084E2,-1.7925245E1,-3.3091957E1,3.9853952E0,-1.8791716E1,-1.6722282E1,-8.6161255E1,4.686887E1,1.3524062E2,-4.5953074E0,-1.1199256E1,-4.218015E0,3.211174E1],"categories":[],"categories_nodes":[],"categories_segments":[],"categories_sizes":[],"default_left":[0,0,0,0,0,0,0,0,0,0,0,0,0,0,0,0,0,0,0,0,0],"id":25,"left_children":[1,3,-1,5,7,9,11,13,15,-1,-1,-1,-1,-1,17,-1,19,-1,-1,-1,-1],"loss_changes":[3.901662E6,6.398506E5,0E0,7.206719E4,9.8097706E5,3.6780625E3,1.06853984E5,1.1490766E4,2.6040625E5,0E0,0E0,0E0,0E0,0E0,6.2627266E3,0E0,3.4335672E5,0E0,0E0,0E0,0E0],"parents":[2147483647,0,0,1,1,3,3,4,4,5,5,6,6,7,7,8,8,14,14,16,16],"right_children":[2,4,-1,6,8,10,12,14,16,-1,-1,-1,-1,-1,18,-1,20,-1,-1,-1,-1],"split_conditions":[6.75584E4,4E0,8.084989E1,2E0,2.67E1,1E1,5.12E2,3.3E0,6.24E3,-1.7925245E1,-3.3091957E1,3.9853952E0,-1.8791716E1,-1.6722282E1,2E0,4.686887E1,8E0,-4.5953074E0,-1.1199256E1,-4.218015E0,3.211174E1],"split_indices":[5,1,0,3,0,6,2,0,5,0,0,0,0,0,3,0,1,0,0,0,0],"split_type":[0,0,0,0,0,0,0,0,0,0,0,0,0,0,0,0,0,0,0,0,0],"sum_hessian":[4.9E1,4.4E1,5E0,1.7E1,2.7E1,1E1,7E0,1.5E1,1.2E1,7E0,3E0,3E0,4E0,5E0,1E1,3E0,9E0,5E0,5E0,5E0,4E0],"tree_param":{"num_deleted":"0","num_feature":"22","num_nodes":"21","size_leaf_vector":"1"}},{"base_weights":[4.5662E1,-1.2272538E2,3.9011334E2,-2.3228847E2,-5.937277E0,8.5499626E1,1.2825546E2,-1.6910182E2,-3.5009605E1,-1.2443085E1,1.4290935E2,-9.731882E0,3.1502426E1,-1.0085551E1,-1.9913633E1,2.8647251E1,-5.030469E-2],"categories":[],"categories_nodes":[],"categories_segments":[],"categories_sizes":[],"default_left":[0,0,0,0,0,0,0,0,0,0,0,0,0,0,0,0,0],"id":26,"left_children":[1,3,5,7,9,11,-1,13,-1,-1,15,-1,-1,-1,-1,-1,-1],"loss_changes":[2.8319642E6,4.2085394E5,4.239803E6,6.729194E4,3.1761572E5,5.7617694E5,0E0,6.5326875E3,0E0,0E0,1.6488258E5,0E0,0E0,0E0,0E0,0E0,0E0],"parents":[2147483647,0,0,1,1,2,2,3,3,4,4,5,5,7,7,10,10],"right_children":[2,4,6,8,10,12,-1,14,-1,-1,16,-1,-1,-1,-1,-1,-1],"split_conditions":[8E0,4E0,5.278E2,5.278E2,9.09E1,2.67E1,1.2825546E2,5.12E2,-3.5009605E1,-1.2443085E1,5.278E2,-9.731882E0,3.1502426E1,-1.0085551E1,-1.9913633E1,2.8647251E1,-5.030469E-2],"split_indices":[1,1,0,0,0,0,0,2,0,0,0,0,0,0,0,0,0],"split_type":[0,0,0,0,0,0,0,0,0,0,0,0,0,0,0,0,0],"sum_hessian":[4.7E1,3.2E1,1.5E1,1.6E1,1.6E1,1.2E1,3E0,1.2E1,4E0,9E0,7E0,7E0,5E0,5E0,7E0,3E0,4E0],"tree_param":{"num_deleted":"0","num_feature":"22","num_nodes":"17","size_leaf_vector":"1"}},{"base_weights":[-7.8092766E1,-2.1545856E2,3.3600492E0,-1.6460979E2,-3.6496403E1,-1.07445145E2,1.1397347E2,-2.1722517E2,-6.591496E1,-1.6590849E1,-7.668654E1,2.3424033E2,-5.059428E1,-1.4111916E1,-2.9607944E1,-1.1276369E1,-2.562494E-1,-8.624554E0,-4.412305E0,3.5183804E1,4.6255E0,1.0963268E1,-2.3825443E1],"categories":[],"categories_nodes":[],"categories_segments":[],"categories_sizes":[],"default_left":[0,0,0,0,0,0,0,0,0,0,0,0,0,0,0,0,0,0,0,0,0,0,0],"id":27,"left_children":[1,3,5,7,-1,9,11,13,15,-1,17,19,21,-1,-1,-1,-1,-1,-1,-1,-1,-1,-1],"loss_changes":[5.713755E5,8.431156E4,4.1671244E5,6.873919E4,0E0,1.7823047E4,3.4833438E5,1.8186625E4,2.0475393E4,0E0,2.2811719E2,2.0475238E5,2.6667906E5,0E0,0E0,0E0,0E0,0E0,0E0,0E0,0E0,0E0,0E0],"parents":[2147483647,0,0,1,1,2,2,3,3,5,5,6,6,7,7,8,8,10,10,11,11,12,12],"right_children":[2,4,6,8,-1,10,12,14,16,-1,18,20,22,-1,-1,-1,-1,-1,-1,-1,-1,-1,-1],"split_conditions":[4E0,2.74432E4,3.3375E0,2E0,-3.6496403E1,1.2527629E0,2E0,1E1,6.675E0,-1.6590849E1,1.25E0,1.95E2,2.4375E1,-1.4111916E1,-2.9607944E1,-1.1276369E1,-2.562494E-1,-8.624554E0,-4.412305E0,3.5183804E1,4.6255E0,1.0963268E1,-2.3825443E1],"split_indices":[1,5,4,3,0,7,3,6,4,0,4,4,4,0,0,0,0,0,0,0,0,0,0],"split_type":[0,0,0,0,0,0,0,0,0,0,0,0,0,0,0,0,0,0,0,0,0,0,0],"sum_hessian":[5E1,1.8E1,3.2E1,1.5E1,3E0,1.6E1,1.6E1,9E0,6E0,4E0,1.2E1,9E0,7E0,6E0,3E0,3E0,3E0,8E0,4E0,5E0,4E0,4E0,3E0],"tree_param":{"num_deleted":"0","num_feature":"22","num_nodes":"23","size_leaf_vector":"1"}},{"base_weights":[7.9523056E1,-1.651214E1,7.0652054E1,-1.032809E2,1.716369E2,-1.3940407E2,-1.1520446E1,-6.2711525E0,3.2595608E1,-1.4971637E1,-7.850385E0,5.6810036E0,-7.7566843E0],"categories":[],"categories_nodes":[],"categories_segments":[],"categories_sizes":[],"default_left":[0,0,0,0,0,0,0,0,0,0,0,0,0],"id":28,"left_children":[1,3,-1,5,7,9,11,-1,-1,-1,-1,-1,-1],"loss_changes":[2.7213575E6,6.707383E5,0E0,9.118991E4,4.906055E5,7.843125E2,4.502549E4,0E0,0E0,0E0,0E0,0E0,0E0],"parents":[2147483647,0,0,1,1,3,3,4,4,5,5,6,6],"right_children":[2,4,-1,6,8,10,12,-1,-1,-1,-1,-1,-1],"split_conditions":[6.75584E4,9.09E1,7.0652054E1,8E0,4E0,8.192E3,2E0,-6.2711525E0,3.2595608E1,-1.4971637E1,-7.850385E0,5.6810036E0,-7.7566843E0],"split_indices":[5,0,0,1,1,2,3,0,0,0,0,0,0],"split_type":[0,0,0,0,0,0,0,0,0,0,0,0,0],"sum_hessian":[4.4E1,3.9E1,5E0,2.7E1,1.2E1,1.9E1,8E0,5E0,7E0,1.5E1,4E0,4E0,4E0],"tree_param":{"num_deleted":"0","num_feature":"22","num_nodes":"13","size_leaf_vector":"1"}},{"base_weights":[3.403786E1,-1.2018035E2,2.7137918E2,-2.2812125E2,-2.9544077E1,5.1289085E1,1.1388924E2,-1.4379189E2,-4.0297173E1,6.4839226E1,-1.5564061E2,-8.3927025E1,2.5645883E2,-2.1073813E2,-2.1288755E0,-7.9091425E0,3.3651573E1,-5.8759346E0,-2.3780704E1,-1.1767096E1,-4.7820362E1,3.4131207E1,1.0746591E1,-1.0177172E1,-2.6699503E1,-6.733911E-1,-7.6926727E0],"categories":[],"categories_nodes":[],"categories_segments":[],"categories_sizes":[],"default_left":[0,0,0,0,0,0,0,0,0,0,0,0,0,0,0,0,0,0,0,0,0,0,0,0,0,0,0],"id":29,"left_children":[1,3,5,7,9,11,-1,13,-1,15,17,19,21,23,-1,-1,-1,-1,-1,-1,25,-1,-1,-1,-1,-1,-1],"loss_changes":[1.8627474E6,2.9651884E5,3.7600892E6,1.4843156E5,2.2432602E5,4.9315944E5,0E0,8.570284E4,0E0,4.5676953E5,4.9680047E4,7.7585703E3,5.1773406E4,1.5701375E4,0E0,0E0,0E0,0E0,0E0,0E0,7.844758E3,0E0,0E0,0E0,0E0,0E0,0E0],"parents":[2147483647,0,0,1,1,2,2,3,3,4,4,5,5,7,7,9,9,10,10,11,11,12,12,13,13,20,20],"right_children":[2,4,6,8,10,12,-1,14,-1,16,18,20,22,24,-1,-1,-1,-1,-1,-1,26,-1,-1,-1,-1,-1,-1],"split_conditions":[8E0,4E0,5.278E2,5.278E2,2E0,2.67E1,1.1388924E2,2E0,-4.0297173E1,1E1,2.67E1,2.56E3,2E0,8.5E0,-2.1288755E0,-7.9091425E0,3.3651573E1,-5.8759346E0,-2.3780704E1,-1.1767096E1,2E0,3.4131207E1,1.0746591E1,-1.0177172E1,-2.6699503E1,-6.733911E-1,-7.6926727E0],"split_indices":[1,1,0,0,3,0,0,3,0,6,0,5,3,0,0,0,0,0,0,0,3,0,0,0,0,0,0],"split_type":[0,0,0,0,0,0,0,0,0,0,0,0,0,0,0,0,0,0,0,0,0,0,0,0,0,0,0],"sum_hessian":[4.9E1,3E1,1.9E1,1.3E1,1.7E1,1.6E1,3E0,1E1,3E0,1E1,7E0,1E1,6E0,6E0,4E0,7E0,3E0,4E0,3E0,4E0,6E0,3E0,3E0,3E0,3E0,3E0,3E0],"tree_param":{"num_deleted":"0","num_feature":"22","num_nodes":"27","size_leaf_vector":"1"}},{"base_weights":[3.1436472E1,-1.1342776E2,2.8723196E2,-6.665625E1,-4.2413925E1,5.323853E1,1.0928744E2,-9.72608E1,9.967776E0,-6.918468E1,1.6901942E2,-1.1534033E2,-4.4411774E1,-8.599053E0,-4.1883063E0,2.667629E1,4.560205E-1,-4.6215935E0,-1.2607748E2,-2.5391645E0,-5.7058997E0,-1.3774037E1,-5.9544425E0],"categories":[],"categories_nodes":[],"categories_segments":[],"categories_sizes":[],"default_left":[0,0,0,0,0,0,0,0,0,0,0,0,0,0,0,0,0,0,0,0,0,0,0],"id":30,"left_children":[1,3,5,7,-1,9,-1,11,-1,13,15,17,19,-1,-1,-1,-1,-1,21,-1,-1,-1,-1],"loss_changes":[1.8483226E6,4.367176E5,3.334973E6,1.5732125E5,0E0,2.2431756E5,0E0,1.8748719E4,0E0,5.628125E1,1.2735492E5,7.5155625E3,4.6734766E2,0E0,0E0,0E0,0E0,0E0,3.418125E3,0E0,0E0,0E0,0E0],"parents":[2147483647,0,0,1,1,2,2,3,3,5,5,7,7,9,9,10,10,11,11,12,12,18,18],"right_children":[2,4,6,8,-1,10,-1,12,-1,14,16,18,20,-1,-1,-1,-1,-1,22,-1,-1,-1,-1],"split_conditions":[8E0,6.75584E4,2.74432E4,1E0,-4.2413925E1,1.25E0,1.0928744E2,1.248E4,9.967776E0,2.56E3,1.21875E1,1.3312E3,1.024E3,-8.599053E0,-4.1883063E0,2.667629E1,4.560205E-1,-4.6215935E0,1E0,-2.5391645E0,-5.7058997E0,-1.3774037E1,-5.9544425E0],"split_indices":[1,5,5,16,0,4,0,5,0,5,4,5,2,0,0,0,0,0,20,0,0,0,0],"split_type":[0,0,0,0,0,0,0,0,0,0,0,0,0,0,0,0,0,0,0,0,0,0,0],"sum_hessian":[4.8E1,3.1E1,1.7E1,2.8E1,3E0,1.4E1,3E0,2.4E1,4E0,7E0,7E0,1.7E1,7E0,3E0,4E0,4E0,3E0,3E0,1.4E1,4E0,3E0,1.1E1,3E0],"tree_param":{"num_deleted":"0","num_feature":"22","num_nodes":"23","size_leaf_vector":"1"}},{"base_weights":[4.92466E1,-2.0702034E1,6.006446E1,-8.904889E1,7.140815E1,-2.9402225E0,-9.776073E0,1.9839316E2,-4.0355038E1,3.1491423E1,1.8869282E0,-1.0863056E1,7.349042E0,-2.3778145E0,4.4445763E0],"categories":[],"categories_nodes":[],"categories_segments":[],"categories_sizes":[],"default_left":[0,0,0,0,0,0,0,0,0,0,0,0,0,0,0],"id":31,"left_children":[1,3,-1,5,7,-1,-1,9,11,-1,-1,-1,13,-1,-1],"loss_changes":[2.056678E6,3.0854175E5,0E0,1.1662609E4,3.0605922E5,0E0,0E0,2.0320747E5,3.989271E4,0E0,0E0,0E0,1.0296637E4,0E0,0E0],"parents":[2147483647,0,0,1,1,3,3,4,4,7,7,8,8,12,12],"right_children":[2,4,-1,6,8,-1,-1,10,12,-1,-1,-1,14,-1,-1],"split_conditions":[6.75584E4,2.67E1,6.006446E1,1.024E3,2.4375E1,-2.9402225E0,-9.776073E0,2E0,6.8352E3,3.1491423E1,1.8869282E0,-1.0863056E1,5.278E2,-2.3778145E0,4.4445763E0],"split_indices":[5,0,0,2,4,0,0,3,5,0,0,0,0,0,0],"split_type":[0,0,0,0,0,0,0,0,0,0,0,0,0,0,0],"sum_hessian":[5.2E1,4.7E1,5E0,2.7E1,2E1,4E0,2.3E1,9E0,1.1E1,5E0,4E0,4E0,7E0,4E0,3E0],"tree_param":{"num_deleted":"0","num_feature":"22","num_nodes":"15","size_leaf_vector":"1"}},{"base_weights":[4.5906143E1,-2.1953283E1,5.472175E1,-5.380227E1,1.940155E1,-9.990779E1,2.969412E1,-1.1223173E0,-1.1098303E2,-6.442988E1,1.4648295E1,-1.27316795E2,-4.3467913E0,-8.287161E0,-4.138042E0,-1.5961896E1,-7.726808E0],"categories":[],"categories_nodes":[],"categories_segments":[],"categories_sizes":[],"default_left":[0,0,0,0,0,0,0,0,0,0,0,0,0,0,0,0,0],"id":32,"left_children":[1,3,-1,5,-1,7,9,-1,11,13,-1,15,-1,-1,-1,-1,-1],"loss_changes":[1.7130005E6,3.1995184E5,0E0,1.5695948E5,0E0,2.4279516E4,1.7433558E5,0E0,1.9812531E4,3.8395703E2,0E0,1.6743156E4,0E0,0E0,0E0,0E0,0E0],"parents":[2147483647,0,0,1,1,3,3,5,5,6,6,8,8,9,9,11,11],"right_children":[2,4,-1,6,-1,8,10,-1,12,14,-1,16,-1,-1,-1,-1,-1],"split_conditions":[6.75584E4,1E0,5.472175E1,8E0,1.940155E1,1.3312E3,6.8352E3,-1.1223173E0,1.6E4,2.56E3,1.4648295E1,4E0,-4.3467913E0,-8.287161E0,-4.138042E0,-1.5961896E1,-7.726808E0],"split_indices":[5,16,0,1,0,5,5,0,5,5,0,1,0,0,0,0,0],"split_type":[0,0,0,0,0,0,0,0,0,0,0,0,0,0,0,0,0],"sum_hessian":[4.9E1,4.4E1,5E0,3.9E1,5E0,2.5E1,1.4E1,3E0,2.2E1,8E0,6E0,1.7E1,5E0,3E0,5E0,9E0,8E0],"tree_param":{"num_deleted":"0","num_feature":"22","num_nodes":"17","size_leaf_vector":"1"}},{"base_weights":[1.750431E1,-9.7909035E1,2.6088525E2,-6.3267998E1,-2.6055288E1,4.469704E1,9.5229774E1,-9.903645E1,5.193336E1,-4.7214302E1,2.1960032E1,-7.0307594E1,-1.941246E1,-3.7025354E0,1.1273367E1,-6.4194155E0,-1.7375615E0,-7.970567E1,-2.61522E0,-1.0717857E1,-6.160816E0],"categories":[],"categories_nodes":[],"categories_segments":[],"categories_sizes":[],"default_left":[0,0,0,0,0,0,0,0,0,0,0,0,0,0,0,0,0,0,0,0,0],"id":33,"left_children":[1,3,5,7,-1,9,-1,11,13,15,-1,17,-1,-1,-1,-1,-1,19,-1,-1,-1],"loss_changes":[1.4862086E6,1.863124E5,2.4984142E6,1.3288581E5,0E0,2.3544383E5,0E0,5.188772E4,4.7451305E4,3.942996E3,0E0,6.204453E3,0E0,0E0,0E0,0E0,0E0,1.3351094E3,0E0,0E0,0E0],"parents":[2147483647,0,0,1,1,2,2,3,3,5,5,7,7,8,8,9,9,11,11,17,17],"right_children":[2,4,6,8,-1,10,-1,12,14,16,-1,18,-1,-1,-1,-1,-1,20,-1,-1,-1],"split_conditions":[8E0,5.278E2,2.74432E4,9.09E1,-2.6055288E1,6.8352E3,9.5229774E1,2.67E1,4E0,2E0,2.1960032E1,8.5E0,-1.941246E1,-3.7025354E0,1.1273367E1,-6.4194155E0,-1.7375615E0,2.5E0,-2.61522E0,-1.0717857E1,-6.160816E0],"split_indices":[1,0,5,0,0,5,0,0,1,3,0,0,0,0,0,0,0,0,0,0,0],"split_type":[0,0,0,0,0,0,0,0,0,0,0,0,0,0,0,0,0,0,0,0,0],"sum_hessian":[5.1E1,3.5E1,1.6E1,3E1,5E0,1.3E1,3E0,2.3E1,7E0,9E0,4E0,1.9E1,4E0,3E0,4E0,5E0,4E0,1.5E1,4E0,4E0,1.1E1],"tree_param":{"num_deleted":"0","num_feature":"22","num_nodes":"21","size_leaf_vector":"1"}},{"base_weights":[3.73199E1,-2.8794807E1,4.8290043E1,-8.338403E1,9.518845E1,-1.2398677E2,-5.8908466E1,-4.8089283E1,2.2488213E2,-7.3680015E0,-1.810019E1,-9.915444E1,2.99847E1,-9.858916E0,1.4407923E0,2.9883469E1,9.468405E0,-6.078508E1,-1.2882594E1,-3.9631646E0,9.212987E0,-7.2555437E0,-3.085087E0],"categories":[],"categories_nodes":[],"categories_segments":[],"categories_sizes":[],"default_left":[0,0,0,0,0,0,0,0,0,0,0,0,0,0,0,0,0,0,0,0,0,0,0],"id":34,"left_children":[1,3,-1,5,7,9,11,13,15,-1,-1,17,19,-1,-1,-1,-1,21,-1,-1,-1,-1,-1],"loss_changes":[1.369084E6,2.854302E5,0E0,2.1497328E4,2.5240089E5,1.5320781E4,7.453188E4,2.352159E4,3.9065156E4,0E0,0E0,8.0890156E3,3.3940746E4,0E0,0E0,0E0,0E0,5.699512E2,0E0,0E0,0E0,0E0,0E0],"parents":[2147483647,0,0,1,1,3,3,4,4,5,5,6,6,7,7,8,8,11,11,12,12,17,17],"right_children":[2,4,-1,6,8,10,12,14,16,-1,-1,18,20,-1,-1,-1,-1,22,-1,-1,-1,-1,-1],"split_conditions":[6.75584E4,9.09E1,4.8290043E1,4E0,4E0,8.5E0,8.5E0,6.8352E3,9.75E1,-7.3680015E0,-1.810019E1,8E0,2E0,-9.858916E0,1.4407923E0,2.9883469E1,9.468405E0,3.3E0,-1.2882594E1,-3.9631646E0,9.212987E0,-7.2555437E0,-3.085087E0],"split_indices":[5,0,0,1,1,0,0,5,0,0,0,1,3,0,0,0,0,0,0,0,0,0,0],"split_type":[0,0,0,0,0,0,0,0,0,0,0,0,0,0,0,0,0,0,0,0,0,0,0],"sum_hessian":[4.5E1,4E1,5E0,2.8E1,1.2E1,9E0,1.9E1,6E0,6E0,6E0,3E0,1.3E1,6E0,3E0,3E0,3E0,3E0,7E0,6E0,3E0,3E0,4E0,3E0],"tree_param":{"num_deleted":"0","num_feature":"22","num_nodes":"23","size_leaf_vector":"1"}},{"base_weights":[3.584193E1,-2.5158699E1,7.131635E1,-6.0504555E1,4.2680954E1,-6.973519E1,1.6903375E0,-6.7306595E0,9.880316E1,-5.528626E1,-1.0310554E1,3.8606014E0,1.4251645E1,-3.9754482E1,-9.701705E0,-4.5720863E0,-8.9085335E-1],"categories":[],"categories_nodes":[],"categories_segments":[],"categories_sizes":[],"default_left":[0,0,0,0,0,0,0,0,0,0,0,0,0,0,0,0,0],"id":35,"left_children":[1,3,-1,5,7,9,-1,-1,11,13,-1,-1,-1,15,-1,-1,-1],"loss_changes":[2.0012292E6,1.1048745E5,0E0,2.2619781E4,1.05417164E5,7.3023125E3,0E0,0E0,2.342546E4,9.740676E3,0E0,0E0,0E0,2.7158887E3,0E0,0E0,0E0],"parents":[2147483647,0,0,1,1,3,3,4,4,5,5,8,8,9,9,13,13],"right_children":[2,4,-1,6,8,10,-1,-1,12,14,-1,-1,-1,16,-1,-1,-1],"split_conditions":[6.75584E4,1E1,7.131635E1,5E2,4E0,5.8176E3,1.6903375E0,-6.7306595E0,1.21875E1,1E0,-1.0310554E1,3.8606014E0,1.4251645E1,8.192E3,-9.701705E0,-4.5720863E0,-8.9085335E-1],"split_indices":[5,6,0,4,1,5,0,0,4,13,0,0,0,2,0,0,0],"split_type":[0,0,0,0,0,0,0,0,0,0,0,0,0,0,0,0,0],"sum_hessian":[4.7E1,4.4E1,3E0,2.9E1,1.5E1,2.6E1,3E0,5E0,1E1,2E1,6E0,5E0,5E0,1.6E1,4E0,1.3E1,3E0],"tree_param":{"num_deleted":"0","num_feature":"22","num_nodes":"17","size_leaf_vector":"1"}},{"base_weights":[-7.3361465E1,-1.1859479E1,-4.813815E1,-3.672907E1,1.745274E1,-5.7255333E1,7.8849177E0,-3.2232594E1,-1.1760982E2,-6.954812E1,5.1079464E1,-4.042119E0,-1.7125648E1,-3.586207E0,-1.0294967E1,-1.4212242E0,1.1994923E1],"categories":[],"categories_nodes":[],"categories_segments":[],"categories_sizes":[],"default_left":[0,0,0,0,0,0,0,0,0,0,0,0,0,0,0,0,0],"id":36,"left_children":[1,3,-1,5,-1,7,-1,9,11,13,15,-1,-1,-1,-1,-1,-1],"loss_changes":[1.1485678E6,1.9644642E5,0E0,9.229078E4,0E0,4.452165E4,0E0,7.816632E4,3.0324656E4,1.5421961E4,3.7688312E4,0E0,0E0,0E0,0E0,0E0,0E0],"parents":[2147483647,0,0,1,1,3,3,5,5,7,7,8,8,9,9,10,10],"right_children":[2,4,-1,6,-1,8,-1,10,12,14,16,-1,-1,-1,-1,-1,-1],"split_conditions":[6.75584E4,1E0,-4.813815E1,1E0,1.745274E1,6.675E0,7.8849177E0,2.2512918E0,1.28E2,2E0,8E0,-4.042119E0,-1.7125648E1,-3.586207E0,-1.0294967E1,-1.4212242E0,1.1994923E1],"split_indices":[5,16,0,19,0,4,0,7,2,3,1,0,0,0,0,0,0],"split_type":[0,0,0,0,0,0,0,0,0,0,0,0,0,0,0,0,0],"sum_hessian":[4.5E1,4E1,5E0,3.6E1,4E0,3.1E1,5E0,2.3E1,8E0,1.6E1,7E0,4E0,4E0,9E0,7E0,4E0,3E0],"tree_param":{"num_deleted":"0","num_feature":"22","num_nodes":"17","size_leaf_vector":"1"}},{"base_weights":[3.0810213E0,-9.889919E1,2.5443349E2,-1.7319398E2,-1.0849481E1,2.9849558E1,8.645519E1,-5.4321396E1,-3.4470016E2,5.4124283E1,-9.884472E1,-5.4549694E1,1.5893845E1,-6.455068E0,-1.5142825E0,-1.6238804E1,-4.8639034E1,-3.402573E0,2.1691824E1,-1.382576E1,-4.7525477E0,-7.587382E0,-1.4232115E0],"categories":[],"categories_nodes":[],"categories_segments":[],"categories_sizes":[],"default_left":[0,0,0,0,0,0,0,0,0,0,0,0,0,0,0,0,0,0,0,0,0,0,0],"id":37,"left_children":[1,3,5,7,9,11,-1,13,15,17,19,21,-1,-1,-1,-1,-1,-1,-1,-1,-1,-1,-1],"loss_changes":[1.3324608E6,2.4014303E5,2.029446E6,3.8898312E5,1.0826724E5,1.3942055E5,0E0,4.224543E3,1.2760581E5,1.6525228E5,9.591773E3,5.789043E3,0E0,0E0,0E0,0E0,0E0,0E0,0E0,0E0,0E0,0E0,0E0],"parents":[2147483647,0,0,1,1,2,2,3,3,4,4,5,5,7,7,8,8,9,9,10,10,11,11],"right_children":[2,4,6,8,10,12,-1,14,16,18,20,22,-1,-1,-1,-1,-1,-1,-1,-1,-1,-1,-1],"split_conditions":[8E0,4E0,1.335E1,1E1,2E0,1.25E0,8.645519E1,6.8352E3,4.875E1,1E1,2.048E3,2.56E3,1.5893845E1,-6.455068E0,-1.5142825E0,-1.6238804E1,-4.8639034E1,-3.402573E0,2.1691824E1,-1.382576E1,-4.7525477E0,-7.587382E0,-1.4232115E0],"split_indices":[1,1,4,6,3,4,0,5,4,6,2,5,0,0,0,0,0,0,0,0,0,0,0],"split_type":[0,0,0,0,0,0,0,0,0,0,0,0,0,0,0,0,0,0,0,0,0,0,0],"sum_hessian":[5E1,3.6E1,1.4E1,1.9E1,1.7E1,1.1E1,3E0,1.2E1,7E0,1E1,7E0,7E0,4E0,9E0,3E0,4E0,3E0,7E0,3E0,3E0,4E0,4E0,3E0],"tree_param":{"num_deleted":"0","num_feature":"22","num_nodes":"23","size_leaf_vector":"1"}},{"base_weights":[1.305114E1,1.3561507E2,-1.3047974E2,-4.815915E0,9.794299E1,-4.3618324E1,-5.5385723E1,-5.134396E1,1.0046168E2,8.411274E0,-6.958532E1,-6.7436676E1,-7.902419E-1,1.6520538E1,-5.558374E-1,-3.368648E1,-1.3575191E1,-8.58207E0,-2.0838087E0,-6.9504585E1,1.9668735E0,-2.5394487E0,-1.0724105E1],"categories":[],"categories_nodes":[],"categories_segments":[],"categories_sizes":[],"default_left":[0,0,0,0,0,0,0,0,0,0,0,0,0,0,0,0,0,0,0,0,0,0,0],"id":38,"left_children":[1,3,5,7,-1,9,-1,11,13,-1,15,17,-1,-1,-1,19,-1,-1,-1,21,-1,-1,-1],"loss_changes":[9.148727E5,3.3227515E6,8.583861E5,1.27612195E5,0E0,7.550419E4,0E0,1.2043211E4,5.584729E4,0E0,3.8165523E4,9.337703E3,0E0,0E0,0E0,2.6216125E4,0E0,0E0,0E0,1.0579879E4,0E0,0E0,0E0],"parents":[2147483647,0,0,1,1,2,2,3,3,5,5,7,7,8,8,10,10,11,11,15,15,19,19],"right_children":[2,4,6,8,-1,10,-1,12,14,-1,16,18,-1,-1,-1,20,-1,-1,-1,22,-1,-1,-1],"split_conditions":[2E0,6.75584E4,5.278E2,1E1,9.794299E1,5.12E2,-5.5385723E1,6.8352E3,9.75E1,8.411274E0,1.248E4,4.096E3,-7.902419E-1,1.6520538E1,-5.558374E-1,8E0,-1.3575191E1,-8.58207E0,-2.0838087E0,3.3792E3,1.9668735E0,-2.5394487E0,-1.0724105E1],"split_indices":[3,5,0,6,0,2,0,5,0,0,5,2,0,0,0,3,0,0,0,5,0,0,0],"split_type":[0,0,0,0,0,0,0,0,0,0,0,0,0,0,0,0,0,0,0,0,0,0,0],"sum_hessian":[5E1,2.7E1,2.3E1,2.4E1,3E0,2E1,3E0,1.7E1,7E0,3E0,1.7E1,1.2E1,5E0,4E0,3E0,1.2E1,5E0,8E0,4E0,7E0,5E0,4E0,3E0],"tree_param":{"num_deleted":"0","num_feature":"22","num_nodes":"23","size_leaf_vector":"1"}},{"base_weights":[4.4956594E0,-9.993087E1,2.0730304E2,-5.6454082E1,-3.494808E1,3.581768E1,7.985224E1,-1.05292336E2,-1.0034798E1,-4.6401356E1,1.3642534E2,-4.274001E1,-1.9198082E1,4.298525E1,-7.506801E1,-8.058461E0,-1.5862296E0,2.1337814E1,2.5341213E0,-5.520391E0,-1.0218184E0,-1.7642908E1,1.3836322E1,-2.095576E0,-1.2391631E1,-2.0955864E-1,-2.8754504E0],"categories":[],"categories_nodes":[],"categories_segments":[],"categories_sizes":[],"default_left":[0,0,0,0,0,0,0,0,0,0,0,0,0,0,0,0,0,0,0,0,0,0,0,0,0,0,0],"id":39,"left_children":[1,3,5,7,-1,9,-1,11,13,15,17,19,-1,21,23,-1,-1,-1,-1,-1,-1,25,-1,-1,-1,-1,-1],"loss_changes":[1.1220072E6,3.5996688E5,1.7962535E6,6.921003E4,0E0,1.304173E5,0E0,7.310975E4,6.184711E4,8.107416E3,5.4406508E4,3.4828613E3,0E0,6.0279105E4,1.8535086E4,0E0,0E0,0E0,0E0,0E0,0E0,1.145946E3,0E0,0E0,0E0,0E0,0E0],"parents":[2147483647,0,0,1,1,2,2,3,3,5,5,7,7,8,8,9,9,10,10,11,11,13,13,14,14,21,21],"right_children":[2,4,6,8,-1,10,-1,12,14,16,18,20,-1,22,24,-1,-1,-1,-1,-1,-1,26,-1,-1,-1,-1,-1],"split_conditions":[8E0,6.75584E4,2.74432E4,4E0,-3.494808E1,1E1,7.985224E1,1E1,2E0,2.56E3,2E0,6.8352E3,-1.9198082E1,1E1,2.67E1,-8.058461E0,-1.5862296E0,2.1337814E1,2.5341213E0,-5.520391E0,-1.0218184E0,8.5E0,1.3836322E1,-2.095576E0,-1.2391631E1,-2.0955864E-1,-2.8754504E0],"split_indices":[1,5,5,1,0,6,0,6,3,5,3,5,0,6,0,0,0,0,0,0,0,0,0,0,0,0,0],"split_type":[0,0,0,0,0,0,0,0,0,0,0,0,0,0,0,0,0,0,0,0,0,0,0,0,0,0,0],"sum_hessian":[5.1E1,3.4E1,1.7E1,3E1,4E0,1.4E1,3E0,1.4E1,1.6E1,8E0,6E0,9E0,5E0,9E0,7E0,3E0,5E0,3E0,3E0,6E0,3E0,6E0,3E0,4E0,3E0,3E0,3E0],"tree_param":{"num_deleted":"0","num_feature":"22","num_nodes":"27","size_leaf_vector":"1"}},{"base_weights":[2.6524483E1,-6.989007E1,2.1770206E2,-2.2456097E1,-3.215223E1,-7.700083E1,6.076202E2,4.713352E1,-5.790557E1,-3.461481E1,-1.3190116E1,2.0479307E1,8.585172E1,5.0830717E0,1.0891341E1,-3.0735775E1,-1.2781385E1,-1.5280634E0,-4.5270286E0,-7.9863076E0,8.878345E0,-6.291447E0,-1.7439896E1,-6.472363E-1,-3.773187E0],"categories":[],"categories_nodes":[],"categories_segments":[],"categories_sizes":[],"default_left":[0,0,0,0,0,0,0,0,0,0,0,0,0,0,0,0,0,0,0,0,0,0,0,0,0],"id":40,"left_children":[1,3,5,7,-1,9,11,13,15,17,-1,-1,-1,19,-1,21,-1,-1,-1,-1,-1,-1,23,-1,-1],"loss_changes":[8.8154806E5,3.7469475E5,1.8854002E6,7.1804E4,0E0,1.868768E4,5.3155225E5,2.5413707E4,3.2144168E4,7.4429004E2,0E0,0E0,0E0,5.6861582E4,0E0,5.3124043E3,0E0,0E0,0E0,0E0,0E0,0E0,2.4220002E3,0E0,0E0],"parents":[2147483647,0,0,1,1,2,2,3,3,5,5,6,6,7,7,8,8,9,9,13,13,15,15,22,22],"right_children":[2,4,6,8,-1,10,12,14,16,18,-1,-1,-1,20,-1,22,-1,-1,-1,-1,-1,-1,24,-1,-1],"split_conditions":[8E0,1.1120763E1,1E1,5.12E2,-3.215223E1,2E0,9.75E1,4E0,1.13625E1,6.7E0,-1.3190116E1,2.0479307E1,8.585172E1,2E0,1.0891341E1,2.5E0,-1.2781385E1,-1.5280634E0,-4.5270286E0,-7.9863076E0,8.878345E0,-6.291447E0,3.3375E0,-6.472363E-1,-3.773187E0],"split_indices":[1,9,6,2,0,3,0,1,4,0,0,0,0,3,0,0,0,0,0,0,0,0,4,0,0],"split_type":[0,0,0,0,0,0,0,0,0,0,0,0,0,0,0,0,0,0,0,0,0,0,0,0,0],"sum_hessian":[4.6E1,3.1E1,1.5E1,2.7E1,4E0,9E0,6E0,9E0,1.8E1,6E0,3E0,3E0,3E0,6E0,3E0,1.4E1,4E0,3E0,3E0,3E0,3E0,3E0,1.1E1,8E0,3E0],"tree_param":{"num_deleted":"0","num_feature":"22","num_nodes":"25","size_leaf_vector":"1"}},{"base_weights":[-9.047939E1,-4.11916E1,-4.2861202E1,-3.0175926E1,-1.1885555E1,-5.2994976E1,1.9531015E1,-3.285334E1,-1.6057106E1,-3.744915E0,5.983726E1,-5.8780895E1,1.6879354E1,1.37385025E1,-5.203176E0,-9.426162E0,-2.8056304E0,-3.6236966E0,9.2359E0],"categories":[],"categories_nodes":[],"categories_segments":[],"categories_sizes":[],"default_left":[0,0,0,0,0,0,0,0,0,0,0,0,0,0,0,0,0,0,0],"id":41,"left_children":[1,3,-1,5,-1,7,9,11,-1,-1,13,15,17,-1,-1,-1,-1,-1,-1],"loss_changes":[7.822565E5,3.3185906E4,0E0,4.5274727E4,0E0,5.3207836E4,3.2099629E4,3.1943107E4,0E0,0E0,7.655847E4,1.4785223E4,3.9435223E4,0E0,0E0,0E0,0E0,0E0,0E0],"parents":[2147483647,0,0,1,1,3,3,5,5,6,6,7,7,10,10,11,11,12,12],"right_children":[2,4,-1,6,-1,8,10,12,-1,-1,14,16,18,-1,-1,-1,-1,-1,-1],"split_conditions":[6.75584E4,1.6384E4,-4.2861202E1,8E0,-1.1885555E1,1E0,2.67E1,2E0,-1.6057106E1,-3.744915E0,9.75E1,5.12E2,5.8176E3,1.37385025E1,-5.203176E0,-9.426162E0,-2.8056304E0,-3.6236966E0,9.2359E0],"split_indices":[5,2,0,1,0,14,0,3,0,0,0,2,5,0,0,0,0,0,0],"split_type":[0,0,0,0,0,0,0,0,0,0,0,0,0,0,0,0,0,0,0],"sum_hessian":[4.7E1,4.2E1,5E0,3.8E1,4E0,2.6E1,1.2E1,2.3E1,3E0,5E0,7E0,1.5E1,8E0,4E0,3E0,6E0,9E0,5E0,3E0],"tree_param":{"num_deleted":"0","num_feature":"22","num_nodes":"19","size_leaf_vector":"1"}},{"base_weights":[4.4938416E1,-2.4234129E1,4.6345E2,-4.2323246E1,7.4827515E1,-1.0585657E0,8.216482E1,-3.0684677E1,-1.3064529E1,2.0078531E1,-6.981216E0,-1.5056448E1,-6.1984024E1,-3.0427996E1,6.9383287E0,-1.0855519E1,-1.4872004E1,-6.6048493E0,-1.516231E0,-1.1926982E1,7.8027024E0],"categories":[],"categories_nodes":[],"categories_segments":[],"categories_sizes":[],"default_left":[0,0,0,0,0,0,0,0,0,0,0,0,0,0,0,0,0,0,0,0,0],"id":42,"left_children":[1,3,5,7,9,-1,-1,11,-1,-1,-1,13,15,17,-1,19,-1,-1,-1,-1,-1],"loss_changes":[1.4298012E6,8.0217016E4,1.1973698E6,3.400892E4,1.4155981E5,0E0,0E0,1.569025E4,0E0,0E0,0E0,3.3258562E4,4.7151117E4,1.0409631E4,0E0,8.639949E4,0E0,0E0,0E0,0E0,0E0],"parents":[2147483647,0,0,1,1,2,2,3,3,4,4,7,7,11,11,12,12,13,13,15,15],"right_children":[2,4,6,8,10,-1,-1,12,-1,-1,-1,14,16,18,-1,20,-1,-1,-1,-1,-1],"split_conditions":[6.5975E1,1E0,3.2E1,1.6384E4,2E0,-1.0585657E0,8.216482E1,6.675E0,-1.3064529E1,2.0078531E1,-6.981216E0,5.8176E3,4E0,1.2527629E0,6.9383287E0,1.248E4,-1.4872004E1,-6.6048493E0,-1.516231E0,-1.1926982E1,7.8027024E0],"split_indices":[4,16,2,2,3,0,0,4,0,0,0,5,3,7,0,5,0,0,0,0,0],"split_type":[0,0,0,0,0,0,0,0,0,0,0,0,0,0,0,0,0,0,0,0,0],"sum_hessian":[4.8E1,4.2E1,6E0,3.6E1,6E0,3E0,3E0,3.3E1,3E0,3E0,3E0,2.3E1,1E1,2E1,3E0,7E0,3E0,5E0,1.5E1,3E0,4E0],"tree_param":{"num_deleted":"0","num_feature":"22","num_nodes":"21","size_leaf_vector":"1"}},{"base_weights":[3.2566233E0,-7.585204E1,1.336281E2,-4.3250355E1,-3.0137674E1,3.906952E2,-1.624985E2,-2.1594984E1,-8.4391594E1,8.7636175E0,1.0568595E2,1.2157874E1,-4.2754757E1,-4.9656367E0,-1.4153845E1,-1.6048918E1,-6.895015E-1,-2.4816434E0,4.857278E0,-2.5989532E0,4.729081E0,-3.950457E0,-2.6401772E1,-1.677343E0,2.2658103E0,-4.0206695E0,-1.0057482E0],"categories":[],"categories_nodes":[],"categories_segments":[],"categories_sizes":[],"default_left":[0,0,0,0,0,0,0,0,0,0,0,0,0,0,0,0,0,0,0,0,0,0,0,0,0,0,0],"id":43,"left_children":[1,3,5,7,-1,9,11,13,15,17,-1,19,-1,-1,21,-1,-1,-1,-1,-1,-1,23,25,-1,-1,-1,-1],"loss_changes":[5.464445E5,2.2956294E5,1.5859982E6,2.4894832E4,0E0,2.7893525E6,4.6816466E5,3.6757725E3,5.7849695E4,1.1902128E4,0E0,1.061281E4,0E0,0E0,2.1421318E3,0E0,0E0,0E0,0E0,0E0,0E0,4.132675E3,1.3956484E3,0E0,0E0,0E0,0E0],"parents":[2147483647,0,0,1,1,2,2,3,3,5,5,6,6,7,7,8,8,9,9,11,11,14,14,21,21,22,22],"right_children":[2,4,6,8,-1,10,12,14,16,18,-1,20,-1,-1,22,-1,-1,-1,-1,-1,-1,24,26,-1,-1,-1,-1],"split_conditions":[8E0,6.75584E4,2E0,1E1,-3.0137674E1,1.248E4,1.248E4,2.5E0,2E0,2.67E1,1.0568595E2,6.7E0,-4.2754757E1,-4.9656367E0,3.3375E0,-1.6048918E1,-6.895015E-1,-2.4816434E0,4.857278E0,-2.5989532E0,4.729081E0,6.7E0,6.8352E3,-1.677343E0,2.2658103E0,-4.0206695E0,-1.0057482E0],"split_indices":[1,5,3,6,0,5,5,0,3,0,0,0,0,0,4,0,0,0,0,0,0,0,5,0,0,0,0],"split_type":[0,0,0,0,0,0,0,0,0,0,0,0,0,0,0,0,0,0,0,0,0,0,0,0,0,0,0],"sum_hessian":[5.1E1,3.2E1,1.9E1,2.9E1,3E0,1E1,9E0,2E1,9E0,7E0,3E0,6E0,3E0,3E0,1.7E1,4E0,5E0,4E0,3E0,3E0,3E0,1E1,7E0,7E0,3E0,3E0,4E0],"tree_param":{"num_deleted":"0","num_feature":"22","num_nodes":"27","size_leaf_vector":"1"}},{"base_weights":[-7.8096466E1,-2.2733904E1,-4.341475E1,-4.5253193E1,1.4393176E1,-3.0939157E1,-1.00120026E2,-7.418427E1,2.0067093E0,-8.283655E-1,-1.669014E1,-2.8191416E1,-1.7059534E1,3.3700108E1,-3.3420033E1,-5.3837256E0,-2.1046458E-1,-5.8163786E-1,7.4399867E0,5.768232E-1,-5.3992205E0],"categories":[],"categories_nodes":[],"categories_segments":[],"categories_sizes":[],"default_left":[0,0,0,0,0,0,0,0,0,0,0,0,0,0,0,0,0,0,0,0,0],"id":44,"left_children":[1,3,-1,5,-1,7,9,11,13,-1,-1,15,-1,17,19,-1,-1,-1,-1,-1,-1],"loss_changes":[8.7711975E5,1.5663119E5,0E0,2.516243E4,0E0,4.2898516E4,4.1530633E4,5.2815664E4,2.1336574E4,0E0,0E0,6.5712686E3,0E0,1.652271E4,7.571949E3,0E0,0E0,0E0,0E0,0E0,0E0],"parents":[2147483647,0,0,1,1,3,3,5,5,6,6,7,7,8,8,11,11,13,13,14,14],"right_children":[2,4,-1,6,-1,8,10,12,14,-1,-1,16,-1,18,20,-1,-1,-1,-1,-1,-1],"split_conditions":[6.75584E4,1E0,-4.341475E1,4.545E1,1.4393176E1,1.25E0,3.2E1,6.7E0,3.35E0,-8.283655E-1,-1.669014E1,2.5E0,-1.7059534E1,8.5E0,1.024E3,-5.3837256E0,-2.1046458E-1,-5.8163786E-1,7.4399867E0,5.768232E-1,-5.3992205E0],"split_indices":[5,16,0,4,0,4,2,0,4,0,0,0,0,0,2,0,0,0,0,0,0],"split_type":[0,0,0,0,0,0,0,0,0,0,0,0,0,0,0,0,0,0,0,0,0],"sum_hessian":[4.4E1,3.9E1,5E0,3.5E1,4E0,2.9E1,6E0,1.2E1,1.7E1,3E0,3E0,9E0,3E0,9E0,8E0,4E0,5E0,5E0,4E0,3E0,5E0],"tree_param":{"num_deleted":"0","num_feature":"22","num_nodes":"21","size_leaf_vector":"1"}},{"base_weights":[5.6683224E1,-5.8639755E0,7.305566E1,-2.1828491E1,1.5921332E1,-3.932361E1,2.3720005E1,-2.3149967E1,-7.4478775E1,-1.2720084E1,8.817149E1,-5.571445E0,-7.4498844E0,-1.1634119E0,-1.5010106E1,1.779058E1,-1.9177119E0,-2.1853638E0,-8.1916355E-2],"categories":[],"categories_nodes":[],"categories_segments":[],"categories_sizes":[],"default_left":[0,0,0,0,0,0,0,0,0,0,0,0,0,0,0,0,0,0,0],"id":45,"left_children":[1,3,-1,5,-1,7,9,11,13,-1,15,-1,17,-1,-1,-1,-1,-1,-1],"loss_changes":[1.9853544E6,1.1941833E5,0E0,3.3606242E4,0E0,1.5323668E4,1.2793646E5,1.0826447E4,4.100964E4,0E0,9.012328E4,0E0,1.5079473E3,0E0,0E0,0E0,0E0,0E0,0E0],"parents":[2147483647,0,0,1,1,3,3,5,5,6,6,7,7,8,8,10,10,12,12],"right_children":[2,4,-1,6,-1,8,10,12,14,-1,16,-1,18,-1,-1,-1,-1,-1,-1],"split_conditions":[6.75584E4,1E0,7.305566E1,1E1,1.5921332E1,5.8176E3,4E0,2.5E0,8E0,-1.2720084E1,2E0,-5.571445E0,4E0,-1.1634119E0,-1.5010106E1,1.779058E1,-1.9177119E0,-2.1853638E0,-8.1916355E-2],"split_indices":[5,19,0,6,0,5,1,0,1,0,3,0,1,0,0,0,0,0,0],"split_type":[0,0,0,0,0,0,0,0,0,0,0,0,0,0,0,0,0,0,0],"sum_hessian":[4.6E1,4.3E1,3E0,4E1,3E0,2.9E1,1.1E1,2.1E1,8E0,3E0,8E0,6E0,1.5E1,5E0,3E0,4E0,4E0,4E0,1.1E1],"tree_param":{"num_deleted":"0","num_feature":"22","num_nodes":"19","size_leaf_vector":"1"}},{"base_weights":[3.66479E0,1.289748E2,-1.4267874E2,-4.228059E1,4.4147253E2,-5.9029118E1,-5.461446E1,-2.6379448E1,-9.529E0,2.227857E0,8.561908E1,-2.2655027E1,-1.15292635E1,-4.7482838E1,6.4679414E-1,-5.711592E1,5.077776E0,-1.1742271E0,-8.919798E0,5.159334E-1,-5.130579E-1,-2.9349606E0,-9.140299E0],"categories":[],"categories_nodes":[],"categories_segments":[],"categories_sizes":[],"default_left":[0,0,0,0,0,0,0,0,0,0,0,0,0,0,0,0,0,0,0,0,0,0,0],"id":46,"left_children":[1,3,5,7,9,11,-1,13,-1,-1,-1,15,-1,17,19,21,-1,-1,-1,-1,-1,-1,-1],"loss_changes":[9.536544E5,1.5171795E6,7.776955E5,1.3489426E4,1.7193112E6,4.035146E4,0E0,9.160921E3,0E0,0E0,0E0,3.8328684E4,0E0,1.2360822E4,2.3503822E2,6.825539E3,0E0,0E0,0E0,0E0,0E0,0E0,0E0],"parents":[2147483647,0,0,1,1,2,2,3,3,4,4,5,5,7,7,11,11,13,13,14,14,15,15],"right_children":[2,4,6,8,10,12,-1,14,-1,-1,-1,16,-1,18,20,22,-1,-1,-1,-1,-1,-1,-1],"split_conditions":[2E0,1E1,5.278E2,1E0,2.2725E1,6.675E0,-5.461446E1,1.65E0,-9.529E0,2.227857E0,8.561908E1,8.5E0,-1.15292635E1,8.375E-1,2.67E1,8E0,5.077776E0,-1.1742271E0,-8.919798E0,5.159334E-1,-5.130579E-1,-2.9349606E0,-9.140299E0],"split_indices":[3,6,0,11,4,4,0,4,0,0,0,0,0,4,0,3,0,0,0,0,0,0,0],"split_type":[0,0,0,0,0,0,0,0,0,0,0,0,0,0,0,0,0,0,0,0,0,0,0],"sum_hessian":[5E1,2.7E1,2.3E1,1.8E1,9E0,2E1,3E0,1.5E1,3E0,5E0,4E0,1.3E1,7E0,8E0,7E0,9E0,4E0,5E0,3E0,4E0,3E0,6E0,3E0],"tree_param":{"num_deleted":"0","num_feature":"22","num_nodes":"23","size_leaf_vector":"1"}},{"base_weights":[-4.9375014E0,4.0203754E1,-2.4132442E2,-2.9886284E1,5.6486732E1,-3.7820713E1,-8.353337E0,-1.946315E1,-9.476634E0,-5.202251E1,6.5661716E-1,-2.9267309E0,-9.587989E0,7.1258388E0,-1.4236209E1,3.788263E-2,-5.5254073E0],"categories":[],"categories_nodes":[],"categories_segments":[],"categories_sizes":[],"default_left":[0,0,0,0,0,0,0,0,0,0,0,0,0,0,0,0,0],"id":47,"left_children":[1,3,5,7,-1,-1,-1,9,-1,11,13,-1,-1,-1,15,-1,-1],"loss_changes":[5.3259156E5,1.5614302E6,1.4115184E5,2.3841758E4,0E0,0E0,0E0,2.2312244E4,0E0,1.0155129E4,2.415227E4,0E0,0E0,0E0,1.1416491E4,0E0,0E0],"parents":[2147483647,0,0,1,1,2,2,3,3,7,7,9,9,10,10,14,14],"right_children":[2,4,6,8,-1,-1,-1,10,-1,12,14,-1,-1,-1,16,-1,-1],"split_conditions":[1.3195E2,4.875E1,4E0,1.6384E4,5.6486732E1,-3.7820713E1,-8.353337E0,4E0,-9.476634E0,2.67E1,1.024E3,-2.9267309E0,-9.587989E0,7.1258388E0,3.35E0,3.788263E-2,-5.5254073E0],"split_indices":[4,4,1,2,0,0,0,1,0,0,2,0,0,0,4,0,0],"split_type":[0,0,0,0,0,0,0,0,0,0,0,0,0,0,0,0,0],"sum_hessian":[4.8E1,4.1E1,7E0,3.7E1,4E0,3E0,4E0,3.3E1,4E0,1.2E1,2.1E1,9E0,3E0,3E0,1.8E1,1.4E1,4E0],"tree_param":{"num_deleted":"0","num_feature":"22","num_nodes":"17","size_leaf_vector":"1"}},{"base_weights":[2.1869036E1,-3.338335E1,4.816353E1,-4.7206674E0,-7.133244E1,-4.79746E1,1.8450277E1,-9.2606445E1,-3.3151646E1,-2.161288E0,-6.472141E0,-1.7046951E1,1.0707302E1,-1.277684E1,-5.424698E0,4.2653008E0,-8.718504E0,-4.4529495E0,-4.339237E0,-6.489697E-1,4.838768E-2],"categories":[],"categories_nodes":[],"categories_segments":[],"categories_sizes":[],"default_left":[0,0,0,0,0,0,0,0,0,0,0,0,0,0,0,0,0,0,0,0,0],"id":48,"left_children":[1,3,-1,5,7,9,11,13,15,-1,-1,17,-1,-1,-1,-1,-1,-1,19,-1,-1],"loss_changes":[1.1846699E6,4.5340016E4,0E0,2.594396E4,1.1538023E4,2.5658223E3,5.531392E4,7.8874766E3,3.6491016E4,0E0,0E0,4.3420127E3,0E0,0E0,0E0,0E0,0E0,0E0,1.07459946E2,0E0,0E0],"parents":[2147483647,0,0,1,1,3,3,4,4,5,5,6,6,7,7,8,8,11,11,18,18],"right_children":[2,4,-1,6,8,10,12,14,16,-1,-1,18,-1,-1,-1,-1,-1,-1,20,-1,-1],"split_conditions":[6.75584E4,6.24E3,4.816353E1,4E0,2.048E3,3.3792E3,2.67E1,1.248E4,1.6384E4,-2.161288E0,-6.472141E0,2.5E0,1.0707302E1,-1.277684E1,-5.424698E0,4.2653008E0,-8.718504E0,-4.4529495E0,3.3792E3,-6.489697E-1,4.838768E-2],"split_indices":[5,5,0,1,2,5,0,5,2,0,0,0,0,0,0,0,0,0,5,0,0],"split_type":[0,0,0,0,0,0,0,0,0,0,0,0,0,0,0,0,0,0,0,0,0],"sum_hessian":[4.5E1,4.1E1,4E0,2.4E1,1.7E1,8E0,1.6E1,1E1,7E0,4E0,4E0,1.2E1,4E0,4E0,6E0,3E0,4E0,3E0,9E0,6E0,3E0],"tree_param":{"num_deleted":"0","num_feature":"22","num_nodes":"21","size_leaf_vector":"1"}},{"base_weights":[1.174894E1,-7.855273E1,2.0760263E2,-3.363047E1,-3.5930904E1,2.9141312E0,8.720867E1,-2.319008E1,-8.743863E0,3.5129833E1,-8.638259E0,-3.6299868E0,-5.998126E1,-1.1658203E1,9.362712E0,5.0905147E0,-2.0451591E1,-1.11525055E2,4.5190697E0,-2.7152665E0,6.725809E-1,-3.833952E0,-1.1285655E0,-2.2528682E0,-1.7261518E1],"categories":[],"categories_nodes":[],"categories_segments":[],"categories_sizes":[],"default_left":[0,0,0,0,0,0,0,0,0,0,0,0,0,0,0,0,0,0,0,0,0,0,0,0,0],"id":49,"left_children":[1,3,5,7,-1,9,-1,11,-1,13,-1,15,17,19,-1,-1,21,23,-1,-1,-1,-1,-1,-1,-1],"loss_changes":[9.536741E5,4.5452862E5,2.3095792E6,1.6499906E4,0E0,4.330407E4,0E0,2.0645436E4,0E0,3.1206426E4,0E0,1.9385414E4,5.925615E4,2.1786187E3,0E0,0E0,2.185704E3,3.414928E4,0E0,0E0,0E0,0E0,0E0,0E0,0E0],"parents":[2147483647,0,0,1,1,2,2,3,3,5,5,7,7,9,9,11,11,12,12,13,13,16,16,17,17],"right_children":[2,4,6,8,-1,10,-1,12,-1,14,-1,16,18,20,-1,-1,22,24,-1,-1,-1,-1,-1,-1,-1],"split_conditions":[8E0,6.75584E4,1.335E1,1E0,-3.5930904E1,1.248E4,8.720867E1,2.4375E1,-8.743863E0,1.25E0,-8.638259E0,1.024E3,2E0,3.25E-1,9.362712E0,5.0905147E0,2.56E3,3.2E1,4.5190697E0,-2.7152665E0,6.725809E-1,-3.833952E0,-1.1285655E0,-2.2528682E0,-1.7261518E1],"split_indices":[1,5,4,14,0,5,0,4,0,4,0,2,3,4,0,0,5,2,0,0,0,0,0,0,0],"split_type":[0,0,0,0,0,0,0,0,0,0,0,0,0,0,0,0,0,0,0,0,0,0,0,0,0],"sum_hessian":[5.2E1,3.6E1,1.6E1,3.2E1,4E0,1.3E1,3E0,2.8E1,4E0,1E1,3E0,1.9E1,9E0,6E0,4E0,4E0,1.5E1,6E0,3E0,3E0,3E0,4E0,1.1E1,3E0,3E0],"tree_param":{"num_deleted":"0","num_feature":"22","num_nodes":"25","size_leaf_vector":"1"}},{"base_weights":[-8.581179E0,7.02927E1,-1.1010656E2,-2.621295E1,7.282841E1,-2.1503418E1,-5.4772137E1,-4.991614E1,1.2846024E1,1.7922554E1,-4.7151905E1,-1.9124979E1,-1.1294424E2,-2.767267E0,8.185975E0,-1.9472914E0,-1.4835047E1,-3.784352E1,1.5681801E1,6.1709183E-1,-2.3362713E1,-4.3395486E0,3.2900753E0,-1.3431877E0,-6.9313445E0,1.5667626E-1,2.585139E0],"categories":[],"categories_nodes":[],"categories_segments":[],"categories_sizes":[],"default_left":[0,0,0,0,0,0,0,0,0,0,0,0,0,0,0,0,0,0,0,0,0,0,0,0,0,0,0],"id":50,"left_children":[1,3,5,7,-1,9,-1,11,-1,13,15,17,19,-1,-1,21,-1,23,25,-1,-1,-1,-1,-1,-1,-1,-1],"loss_changes":[4.401595E5,1.987657E6,9.187424E5,1.0905933E5,0E0,2.208355E4,0E0,4.6344445E4,0E0,2.8507773E4,5.9166438E4,1.2323248E4,1.1646572E5,0E0,0E0,1.5872678E4,0E0,8.279508E3,9.6156433E2,0E0,0E0,0E0,0E0,0E0,0E0,0E0,0E0],"parents":[2147483647,0,0,1,1,2,2,3,3,5,5,7,7,9,9,10,10,11,11,12,12,15,15,17,17,18,18],"right_children":[2,4,6,8,-1,10,-1,12,-1,14,16,18,20,-1,-1,22,-1,24,26,-1,-1,-1,-1,-1,-1,-1,-1],"split_conditions":[2E0,6.75584E4,6.5975E1,1E0,7.282841E1,4E0,-5.4772137E1,1.335E1,1.2846024E1,6.24E3,1.248E4,1.675E0,3.2E1,-2.767267E0,8.185975E0,8E0,-1.4835047E1,8.375E-1,1.248E4,6.1709183E-1,-2.3362713E1,-4.3395486E0,3.2900753E0,-1.3431877E0,-6.9313445E0,1.5667626E-1,2.585139E0],"split_indices":[3,5,4,16,0,1,0,4,0,5,5,4,2,0,0,1,0,4,5,0,0,0,0,0,0,0,0],"split_type":[0,0,0,0,0,0,0,0,0,0,0,0,0,0,0,0,0,0,0,0,0,0,0,0,0,0,0],"sum_hessian":[5.3E1,3E1,2.3E1,2.7E1,3E0,2E1,3E0,2.4E1,3E0,8E0,1.2E1,1.7E1,7E0,5E0,3E0,9E0,3E0,1.1E1,6E0,4E0,3E0,4E0,5E0,7E0,4E0,3E0,3E0],"tree_param":{"num_deleted":"0","num_feature":"22","num_nodes":"27","size_leaf_vector":"1"}},{"base_weights":[1.33976965E1,-6.2723614E1,1.6494043E2,-2.0425365E1,-3.3778698E1,8.958529E-1,7.798586E1,-1.0383482E1,-7.657159E0,2.3972141E1,-7.4301047E0,3.2990906E0,-3.8088535E1,-1.1040397E1,8.222029E0,3.1445858E1,-2.042314E1,-7.9658165E1,4.415545E0,-3.1476285E0,1.158357E0,-1.0258641E0,9.659226E0,-4.0338245E-1,-5.216831E0,1.1772333E0,-1.5119913E1],"categories":[],"categories_nodes":[],"categories_segments":[],"categories_sizes":[],"default_left":[0,0,0,0,0,0,0,0,0,0,0,0,0,0,0,0,0,0,0,0,0,0,0,0,0,0,0],"id":51,"left_children":[1,3,5,7,-1,9,-1,11,-1,13,-1,15,17,19,-1,21,23,25,-1,-1,-1,-1,-1,-1,-1,-1,-1],"loss_changes":[6.5635125E5,4.351833E5,1.9158291E6,1.8365895E4,0E0,2.954037E4,0E0,1.1501429E4,0E0,2.742726E4,0E0,1.4665111E4,3.7709414E4,4.5276646E3,0E0,2.8168521E4,6.027321E3,4.7581082E4,0E0,0E0,0E0,0E0,0E0,0E0,0E0,0E0,0E0],"parents":[2147483647,0,0,1,1,2,2,3,3,5,5,7,7,9,9,11,11,12,12,13,13,15,15,16,16,17,17],"right_children":[2,4,6,8,-1,10,-1,12,-1,14,-1,16,18,20,-1,22,24,26,-1,-1,-1,-1,-1,-1,-1,-1,-1],"split_conditions":[8E0,6.75584E4,1.6E4,1E0,-3.3778698E1,1.21875E1,7.798586E1,2.4375E1,-7.657159E0,1.25E0,-7.4301047E0,2E0,2E0,2.56E3,8.222029E0,5.8176E3,3.3375E0,3.2E1,4.415545E0,-3.1476285E0,1.158357E0,-1.0258641E0,9.659226E0,-4.0338245E-1,-5.216831E0,1.1772333E0,-1.5119913E1],"split_indices":[1,5,5,14,0,4,0,4,0,4,0,3,3,5,0,5,4,2,0,0,0,0,0,0,0,0,0],"split_type":[0,0,0,0,0,0,0,0,0,0,0,0,0,0,0,0,0,0,0,0,0,0,0,0,0,0,0],"sum_hessian":[5.5E1,3.7E1,1.8E1,3.3E1,4E0,1.5E1,3E0,2.9E1,4E0,1.2E1,3E0,2E1,9E0,8E0,4E0,9E0,1.1E1,6E0,3E0,4E0,4E0,6E0,3E0,8E0,3E0,3E0,3E0],"tree_param":{"num_deleted":"0","num_feature":"22","num_nodes":"27","size_leaf_vector":"1"}},{"base_weights":[-3.0077713E0,9.929095E1,-1.27418915E2,-2.1120764E1,5.4433735E1,-4.467687E1,-5.0924942E1,-4.7920944E1,1.1813534E1,-1.38881E1,-9.985771E0,-8.24444E1,-5.143054E0,-3.1241832E0,-7.6471186E-1,2.304806E0,-1.24897575E2,-2.9737737E0,9.631486E-1,-7.5110835E-1,3.8436544E-1,-1.648541E1,-4.3702517E0],"categories":[],"categories_nodes":[],"categories_segments":[],"categories_sizes":[],"default_left":[0,0,0,0,0,0,0,0,0,0,0,0,0,0,0,0,0,0,0,0,0,0,0],"id":52,"left_children":[1,3,5,7,-1,9,-1,11,-1,13,-1,15,17,-1,19,-1,21,-1,-1,-1,-1,-1,-1],"loss_changes":[6.4900944E5,1.5120355E6,7.03842E5,9.149218E4,0E0,3.2580805E4,0E0,2.9104035E4,0E0,3.1612654E3,0E0,5.215222E4,3.9221804E3,0E0,3.090445E2,0E0,1.8728797E4,0E0,0E0,0E0,0E0,0E0,0E0],"parents":[2147483647,0,0,1,1,2,2,3,3,5,5,7,7,9,9,11,11,12,12,14,14,16,16],"right_children":[2,4,6,8,-1,10,-1,12,-1,14,-1,16,18,-1,20,-1,22,-1,-1,-1,-1,-1,-1],"split_conditions":[2E0,2.74432E4,5.278E2,1E0,5.4433735E1,2.67E1,-5.0924942E1,1.024E3,1.1813534E1,2.56E3,-9.985771E0,3.2E1,2.56E3,-3.1241832E0,4E0,2.304806E0,5.12E2,-2.9737737E0,9.631486E-1,-7.5110835E-1,3.8436544E-1,-1.648541E1,-4.3702517E0],"split_indices":[3,5,0,16,0,0,0,2,0,5,0,2,5,0,1,0,2,0,0,0,0,0,0],"split_type":[0,0,0,0,0,0,0,0,0,0,0,0,0,0,0,0,0,0,0,0,0,0,0],"sum_hessian":[4.9E1,2.7E1,2.2E1,2.2E1,5E0,1.9E1,3E0,1.9E1,3E0,1.3E1,6E0,1E1,9E0,5E0,8E0,3E0,7E0,3E0,6E0,3E0,5E0,4E0,3E0],"tree_param":{"num_deleted":"0","num_feature":"22","num_nodes":"23","size_leaf_vector":"1"}},{"base_weights":[1.8028575E0,1.1069292E2,-9.0400375E1,-7.0451614E1,4.365148E2,-2.0264645E1,-4.7105576E1,-1.9952724E2,3.775738E1,-5.846777E0,9.461393E1,3.1319206E1,-4.479628E1,-4.6276984E0,-3.028707E1,-1.2455211E0,8.04385E0,-1.6281687E0,8.301552E0,-1.1488488E1,-1.1575572E1,1.6528637E1,-7.1679893E0,-1.997488E0,6.717675E0],"categories":[],"categories_nodes":[],"categories_segments":[],"categories_sizes":[],"default_left":[0,0,0,0,0,0,0,0,0,0,0,0,0,0,0,0,0,0,0,0,0,0,0,0,0],"id":53,"left_children":[1,3,5,7,9,11,-1,13,15,-1,-1,17,19,-1,-1,-1,-1,-1,-1,21,-1,23,-1,-1,-1],"loss_changes":[4.8188947E5,1.3292486E6,6.845412E5,2.1705697E5,2.0734494E6,3.0509365E4,0E0,9.681103E4,2.0296844E4,0E0,0E0,2.1044633E4,3.647346E4,0E0,0E0,0E0,0E0,0E0,0E0,2.1426967E4,0E0,1.7986076E4,0E0,0E0,0E0],"parents":[2147483647,0,0,1,1,2,2,3,3,4,4,5,5,7,7,8,8,11,11,12,12,19,19,21,21],"right_children":[2,4,6,8,10,12,-1,14,16,-1,-1,18,20,-1,-1,-1,-1,-1,-1,22,-1,24,-1,-1,-1],"split_conditions":[2E0,8E0,5.278E2,4E0,1E1,4E0,-4.7105576E1,8.5E0,1E1,-5.846777E0,9.461393E1,6.24E3,1.248E4,-4.6276984E0,-3.028707E1,-1.2455211E0,8.04385E0,-1.6281687E0,8.301552E0,3.35E0,-1.1575572E1,6.5E-1,-7.1679893E0,-1.997488E0,6.717675E0],"split_indices":[3,1,0,1,6,1,0,0,6,0,0,5,5,0,0,0,0,0,0,4,0,4,0,0,0],"split_type":[0,0,0,0,0,0,0,0,0,0,0,0,0,0,0,0,0,0,0,0,0,0,0,0,0],"sum_hessian":[4.6E1,2.1E1,2.5E1,1.4E1,7E0,2.2E1,3E0,6E0,8E0,4E0,3E0,7E0,1.5E1,3E0,3E0,4E0,4E0,4E0,3E0,1.1E1,4E0,8E0,3E0,5E0,3E0],"tree_param":{"num_deleted":"0","num_feature":"22","num_nodes":"25","size_leaf_vector":"1"}},{"base_weights":[-1.6756107E1,2.037262E1,-2.1424101E2,-2.81244E1,3.9459484E1,-3.679791E1,-4.8382344E0,-4.4453483E0,-8.798513E1,-1.2550763E1,2.8700538E0,-1.613706E1,-2.298335E1,-2.75037E1,4.9751134E0,-7.5228004E0,3.498214E0,-9.6699965E-1,-6.7487345E0],"categories":[],"categories_nodes":[],"categories_segments":[],"categories_sizes":[],"default_left":[0,0,0,0,0,0,0,0,0,0,0,0,0,0,0,0,0,0,0],"id":54,"left_children":[1,3,5,7,-1,-1,-1,9,11,13,-1,-1,15,17,-1,-1,-1,-1,-1],"loss_changes":[3.7100222E5,7.915269E5,1.86145E5,5.488E4,0E0,0E0,0E0,8.1497725E3,4.874478E4,2.3724428E4,0E0,0E0,2.3834371E4,1.3600811E4,0E0,0E0,0E0,0E0,0E0],"parents":[2147483647,0,0,1,1,2,2,3,3,7,7,8,8,9,9,12,12,13,13],"right_children":[2,4,6,8,-1,-1,-1,10,12,14,-1,-1,16,18,-1,-1,-1,-1,-1],"split_conditions":[1.95E2,5.278E2,3.9E2,9.431963E0,3.9459484E1,-3.679791E1,-4.8382344E0,9.09E1,2E0,8E0,2.8700538E0,-1.613706E1,8.5E0,2.67E1,4.9751134E0,-7.5228004E0,3.498214E0,-9.6699965E-1,-6.7487345E0],"split_indices":[4,0,4,9,0,0,0,0,3,3,0,0,0,0,0,0,0,0,0],"split_type":[0,0,0,0,0,0,0,0,0,0,0,0,0,0,0,0,0,0,0],"sum_hessian":[4.9E1,4.2E1,7E0,3.8E1,4E0,3E0,4E0,2.8E1,1E1,2.3E1,5E0,4E0,6E0,1.9E1,4E0,3E0,3E0,1.4E1,5E0],"tree_param":{"num_deleted":"0","num_feature":"22","num_nodes":"19","size_leaf_vector":"1"}},{"base_weights":[-2.246359E0,2.9890343E1,-1.6266158E2,-2.6070421E1,4.268498E1,-2.5709427E1,-3.9303222E-1,-1.0576755E1,-1.4735057E1,-4.3415203E1,1.2933997E1,-5.89538E0,-8.007854E0,-9.619295E0,1.0557699E1,-9.5744485E-1,-1.7530492E-1,-2.8077703E0,9.8968095E-1],"categories":[],"categories_nodes":[],"categories_segments":[],"categories_sizes":[],"default_left":[0,0,0,0,0,0,0,0,0,0,0,0,0,0,0,0,0,0,0],"id":55,"left_children":[1,3,5,7,-1,-1,-1,9,-1,11,13,15,-1,17,-1,-1,-1,-1,-1],"loss_changes":[2.4717042E5,8.997344E5,1.18878766E5,6.607239E4,0E0,0E0,0E0,2.6042447E4,0E0,1.8777734E4,4.281326E4,1.0400214E2,0E0,6.403713E3,0E0,0E0,0E0,0E0,0E0],"parents":[2147483647,0,0,1,1,2,2,3,3,7,7,9,9,10,10,11,11,13,13],"right_children":[2,4,6,8,-1,-1,-1,10,-1,12,14,16,-1,18,-1,-1,-1,-1,-1],"split_conditions":[1.3195E2,4.875E1,3.9E2,1.6384E4,4.268498E1,-2.5709427E1,-3.9303222E-1,4E0,-1.4735057E1,5.8176E3,1E0,1.65E0,-8.007854E0,8E0,1.0557699E1,-9.5744485E-1,-1.7530492E-1,-2.8077703E0,9.8968095E-1],"split_indices":[4,4,4,2,0,0,0,1,0,5,16,4,0,1,0,0,0,0,0],"split_type":[0,0,0,0,0,0,0,0,0,0,0,0,0,0,0,0,0,0,0],"sum_hessian":[4.6E1,3.9E1,7E0,3.5E1,4E0,4E0,3E0,3.2E1,3E0,1.3E1,1.9E1,7E0,6E0,1.6E1,3E0,3E0,4E0,8E0,8E0],"tree_param":{"num_deleted":"0","num_feature":"22","num_nodes":"19","size_leaf_vector":"1"}},{"base_weights":[-1.0976502E1,2.782273E1,-2.6135878E1,-5.782732E1,4.2764114E2,-1.2987733E1,-1.9631506E2,7.585769E1,-1.0179895E0,-4.554235E1,2.3062449E1,-2.7714888E1,-4.616903E0,-1.0959587E1,-7.009697E1,9.248593E0,-7.0031905E0,-1.6059456E0,-3.094822E-1,-9.611171E0,-3.5245798E0,-1.9952725E0,4.93862E-1],"categories":[],"categories_nodes":[],"categories_segments":[],"categories_sizes":[],"default_left":[0,0,0,0,0,0,0,0,0,0,0,0,0,0,0,0,0,0,0,0,0,0,0],"id":56,"left_children":[1,3,-1,5,7,9,11,-1,-1,13,15,-1,-1,17,19,-1,21,-1,-1,-1,-1,-1,-1],"loss_changes":[4.347392E5,1.3603005E6,0E0,2.0235056E5,1.0220316E6,3.1566164E4,8.426697E4,0E0,0E0,1.1111994E4,2.779064E4,0E0,0E0,2.2914825E2,3.8524844E3,0E0,1.6464492E3,0E0,0E0,0E0,0E0,0E0,0E0],"parents":[2147483647,0,0,1,1,3,3,4,4,5,5,6,6,9,9,10,10,13,13,14,14,16,16],"right_children":[2,4,-1,6,8,10,12,-1,-1,14,16,-1,-1,18,20,-1,22,-1,-1,-1,-1,-1,-1],"split_conditions":[8E0,8E0,-2.6135878E1,9.75E1,2.048E3,4E0,4E0,7.585769E1,-1.0179895E0,6.7E0,1.024E3,-2.7714888E1,-4.616903E0,2E0,2E0,9.248593E0,3.3E0,-1.6059456E0,-3.094822E-1,-9.611171E0,-3.5245798E0,-1.9952725E0,4.93862E-1],"split_indices":[3,1,0,0,2,1,1,0,0,0,2,0,0,3,3,0,0,0,0,0,0,0,0],"split_type":[0,0,0,0,0,0,0,0,0,0,0,0,0,0,0,0,0,0,0,0,0,0,0],"sum_hessian":[4.3E1,3.8E1,5E0,3.2E1,6E0,2.5E1,7E0,3E0,3E0,1.3E1,1.2E1,4E0,3E0,6E0,7E0,3E0,9E0,3E0,3E0,3E0,4E0,4E0,5E0],"tree_param":{"num_deleted":"0","num_feature":"22","num_nodes":"23","size_leaf_vector":"1"}},{"base_weights":[-4.934823E1,-2.5577976E1,-3.2222923E1,-1.0660208E1,-8.9026054E1,-2.5970226E1,7.622982E0,3.777542E-3,-2.003903E1,-8.22466E1,5.7685213E0,-2.0638935E1,7.2313623E0,-3.6744034E-1,-1.598752E1,6.499883E0,-3.033652E1,-5.9201355E0,6.9616914E-1,-5.108941E-1,-5.452231E0,-1.1254438E0,1.4917665E0],"categories":[],"categories_nodes":[],"categories_segments":[],"categories_sizes":[],"default_left":[0,0,0,0,0,0,0,0,0,0,0,0,0,0,0,0,0,0,0,0,0,0,0],"id":57,"left_children":[1,3,-1,5,7,9,11,-1,-1,13,15,17,-1,-1,-1,-1,19,-1,21,-1,-1,-1,-1],"loss_changes":[3.2253222E5,4.447318E4,0E0,1.1396443E4,8.929434E4,3.9777203E4,3.6234996E4,0E0,0E0,4.819179E4,3.4053E4,1.156533E4,0E0,0E0,0E0,0E0,5.8169746E3,0E0,1.8678114E3,0E0,0E0,0E0,0E0],"parents":[2147483647,0,0,1,1,3,3,4,4,5,5,6,6,9,9,10,10,11,11,16,16,18,18],"right_children":[2,4,-1,6,8,10,12,-1,-1,14,16,18,-1,-1,-1,-1,20,-1,22,-1,-1,-1,-1],"split_conditions":[1.1120763E1,9.680407E0,-3.2222923E1,2E0,8E0,4E0,8.738895E0,3.777542E-3,-2.003903E1,1E1,1.024E3,1.024E3,7.2313623E0,-3.6744034E-1,-1.598752E1,6.499883E0,6.7E0,-5.9201355E0,3.3E0,-5.108941E-1,-5.452231E0,-1.1254438E0,1.4917665E0],"split_indices":[9,9,0,3,1,1,9,0,0,6,2,2,0,0,0,0,0,0,0,0,0,0,0],"split_type":[0,0,0,0,0,0,0,0,0,0,0,0,0,0,0,0,0,0,0,0,0,0,0],"sum_hessian":[5E1,4.7E1,3E0,3.9E1,8E0,2.1E1,1.8E1,5E0,3E0,7E0,1.4E1,1.3E1,5E0,4E0,3E0,5E0,9E0,4E0,9E0,5E0,4E0,5E0,4E0],"tree_param":{"num_deleted":"0","num_feature":"22","num_nodes":"23","size_leaf_vector":"1"}},{"base_weights":[-6.569E1,-2.6342112E1,-4.2240223E1,-3.3213123E1,5.5799556E0,-5.0024924E0,-7.3678345E1,1.9078839E0,-1.1347287E1,-1.09272385E2,1.5705149E0,-1.9357035E1,8.56746E0,-1.7314856E1,-6.163314E1,-2.8348742E0,3.3726923E-2,1.1059841E0,3.908216E-1,-2.8311653E0,-8.2608E0],"categories":[],"categories_nodes":[],"categories_segments":[],"categories_sizes":[],"default_left":[0,0,0,0,0,0,0,0,0,0,0,0,0,0,0,0,0,0,0,0,0],"id":58,"left_children":[1,3,-1,5,-1,7,9,-1,11,13,-1,15,17,-1,19,-1,-1,-1,-1,-1,-1],"loss_changes":[7.046578E5,2.8377654E4,0E0,4.985173E4,0E0,4.34108E3,5.8992844E4,0E0,3.6761853E3,2.8864E4,0E0,2.8457295E3,3.656714E1,0E0,3.9403633E3,0E0,0E0,0E0,0E0,0E0,0E0],"parents":[2147483647,0,0,1,1,3,3,5,5,6,6,8,8,9,9,11,11,12,12,14,14],"right_children":[2,4,-1,6,-1,8,10,-1,12,14,-1,16,18,-1,20,-1,-1,-1,-1,-1,-1],"split_conditions":[6.75584E4,7.8E2,-4.2240223E1,6.24E3,5.5799556E0,5.12E2,2E0,1.9078839E0,1E0,5.12E2,1.5705149E0,1E0,2E0,-1.7314856E1,2.048E3,-2.8348742E0,3.3726923E-2,1.1059841E0,3.908216E-1,-2.8311653E0,-8.2608E0],"split_indices":[5,4,0,5,0,2,3,0,18,2,0,20,3,0,2,0,0,0,0,0,0],"split_type":[0,0,0,0,0,0,0,0,0,0,0,0,0,0,0,0,0,0,0,0,0],"sum_hessian":[5E1,4.6E1,4E0,4.3E1,3E0,2.6E1,1.7E1,5E0,2.1E1,1.2E1,5E0,1.5E1,6E0,4E0,8E0,1E1,5E0,3E0,3E0,4E0,4E0],"tree_param":{"num_deleted":"0","num_feature":"22","num_nodes":"21","size_leaf_vector":"1"}},{"base_weights":[-6.2960766E1,-2.124616E1,-5.0605625E1,1.0008479E0,-5.66444E1,3.182783E1,-1.7887909E1,-1.7529713E1,-1.7935972E1,8.51334E0,1.1840637E0,1.4467895E0,-5.6815104E0,1.1199818E1,-9.217849E0,-5.4688044E0,4.5664935E0,-1.1874672E1,2.5156062E0,-2.9201753E0,3.0013124E1,-1.6114352E0,-5.240057E-1,1.169178E0,4.5386524E0],"categories":[],"categories_nodes":[],"categories_segments":[],"categories_sizes":[],"default_left":[0,0,0,0,0,0,0,0,0,0,0,0,0,0,0,0,0,0,0,0,0,0,0,0,0],"id":59,"left_children":[1,3,-1,5,7,9,11,13,-1,-1,15,17,-1,19,-1,-1,-1,21,-1,-1,23,-1,-1,-1,-1],"loss_changes":[8.579225E5,3.4712477E4,0E0,1.6874662E4,7.84357E4,1.7858885E4,1.3635357E4,3.1065223E4,0E0,0E0,2.2378342E4,4.405996E3,0E0,9.237476E3,0E0,0E0,0E0,1.6658228E2,0E0,0E0,1.7169341E3,0E0,0E0,0E0,0E0],"parents":[2147483647,0,0,1,1,3,3,4,4,5,5,6,6,7,7,10,10,11,11,13,13,17,17,20,20],"right_children":[2,4,-1,6,8,10,12,14,-1,-1,16,18,-1,20,-1,-1,-1,22,-1,-1,24,-1,-1,-1,-1],"split_conditions":[6.75584E4,8E0,-5.0605625E1,5.12E2,1.6E4,2.4375E1,3.3375E0,9.75E1,-1.7935972E1,8.51334E0,6.8352E3,6.7E0,-5.6815104E0,2.56E3,-9.217849E0,-5.4688044E0,4.5664935E0,8.25E-1,2.5156062E0,-2.9201753E0,2E0,-1.6114352E0,-5.240057E-1,1.169178E0,4.5386524E0],"split_indices":[5,1,0,2,5,4,4,0,0,0,5,0,0,5,0,0,0,4,0,0,3,0,0,0,0],"split_type":[0,0,0,0,0,0,0,0,0,0,0,0,0,0,0,0,0,0,0,0,0,0,0,0,0],"sum_hessian":[4.6E1,4.3E1,3E0,2.7E1,1.6E1,1E1,1.7E1,1.3E1,3E0,3E0,7E0,1.2E1,5E0,1E1,3E0,3E0,4E0,8E0,4E0,3E0,7E0,4E0,4E0,4E0,3E0],"tree_param":{"num_deleted":"0","num_feature":"22","num_nodes":"25","size_leaf_vector":"1"}},{"base_weights":[1.7110422E1,7.472526E1,-1.1461723E2,-1.7518188E0,5.186627E1,-2.796456E1,-3.4589596E1,-1.543205E1,4.5387802E1,3.4796125E-1,-6.7691684E0,-5.823214E1,1.4123479E1,-1.4054929E-1,8.085915E0,-1.0607742E0,1.3980601E0,-2.215022E0,-1.4167907E1,6.3987527E0,-1.7197296E1,1.0250944E0,-1.4152232E0,-3.7322748E0,2.2296565E0],"categories":[],"categories_nodes":[],"categories_segments":[],"categories_sizes":[],"default_left":[0,0,0,0,0,0,0,0,0,0,0,0,0,0,0,0,0,0,0,0,0,0,0,0,0],"id":60,"left_children":[1,3,5,7,-1,9,-1,11,13,15,-1,17,19,-1,-1,-1,-1,21,-1,-1,23,-1,-1,-1,-1],"loss_changes":[3.7285528E5,1.1552955E6,2.9090356E5,2.004386E4,0E0,1.3527587E4,0E0,3.1186354E4,1.1740342E4,1.3434811E3,0E0,4.6416344E4,2.45318E4,0E0,0E0,0E0,0E0,1.1871257E3,0E0,0E0,8.781988E3,0E0,0E0,0E0,0E0],"parents":[2147483647,0,0,1,1,2,2,3,3,5,5,7,7,8,8,9,9,11,11,12,12,17,17,20,20],"right_children":[2,4,6,8,-1,10,-1,12,14,16,-1,18,20,-1,-1,-1,-1,22,-1,-1,24,-1,-1,-1,-1],"split_conditions":[4E0,6.75584E4,1.335E1,2E0,5.186627E1,5.8176E3,-3.4589596E1,4E0,1.675E0,1.4586151E0,-6.7691684E0,1E1,1.024E3,-1.4054929E-1,8.085915E0,-1.0607742E0,1.3980601E0,3.3792E3,-1.4167907E1,6.3987527E0,8.192E3,1.0250944E0,-1.4152232E0,-3.7322748E0,2.2296565E0],"split_indices":[3,5,4,3,0,5,0,1,4,7,0,6,2,0,0,0,0,5,0,0,2,0,0,0,0],"split_type":[0,0,0,0,0,0,0,0,0,0,0,0,0,0,0,0,0,0,0,0,0,0,0,0,0],"sum_hessian":[4.7E1,3.3E1,1.4E1,2.9E1,4E0,1.1E1,3E0,2.3E1,6E0,7E0,4E0,9E0,1.4E1,3E0,3E0,4E0,3E0,6E0,3E0,5E0,9E0,3E0,3E0,6E0,3E0],"tree_param":{"num_deleted":"0","num_feature":"22","num_nodes":"25","size_leaf_vector":"1"}},{"base_weights":[-5.0526512E1,-1.2960307E1,-3.3009636E1,-1.8500008E1,4.9806542E0,-1.1205393E1,-6.028991E0,3.6995645E0,-2.0251263E1,-8.595171E0,5.2158594E0,-3.203935E1,2.3097835E0,-1.9047253E0,1.6790096E-1,-1.477295E0,-5.6691E0],"categories":[],"categories_nodes":[],"categories_segments":[],"categories_sizes":[],"default_left":[0,0,0,0,0,0,0,0,0,0,0,0,0,0,0,0,0],"id":61,"left_children":[1,3,-1,5,-1,-1,7,9,11,13,-1,15,-1,-1,-1,-1,-1],"loss_changes":[5.313089E5,1.6912928E4,0E0,4.9481258E4,0E0,0E0,5.4727E3,1.475165E4,8.91698E3,2.1814487E3,0E0,4.688749E3,0E0,0E0,0E0,0E0,0E0],"parents":[2147483647,0,0,1,1,3,3,6,6,7,7,8,8,9,9,11,11],"right_children":[2,4,-1,6,-1,-1,8,10,12,14,-1,16,-1,-1,-1,-1,-1],"split_conditions":[6.75584E4,7.8E2,-3.3009636E1,2.56E2,4.9806542E0,-1.1205393E1,3.35E0,5.8176E3,2.4375E1,2.56E3,5.2158594E0,1.21875E1,2.3097835E0,-1.9047253E0,1.6790096E-1,-1.477295E0,-5.6691E0],"split_indices":[5,4,0,2,0,0,4,5,4,5,0,4,0,0,0,0,0],"split_type":[0,0,0,0,0,0,0,0,0,0,0,0,0,0,0,0,0],"sum_hessian":[5E1,4.5E1,5E0,4.2E1,3E0,4E0,3.8E1,2.3E1,1.5E1,1.9E1,4E0,1.2E1,3E0,9E0,1E1,8E0,4E0],"tree_param":{"num_deleted":"0","num_feature":"22","num_nodes":"17","size_leaf_vector":"1"}},{"base_weights":[-3.985995E1,-1.865962E1,-2.2267092E1,-2.4382547E1,4.607101E0,-1.0308955E1,-1.3382086E1,-2.9878847E1,2.9539423E0,-1.1733118E1,-9.496705E0,5.042137E0,-1.6223293E1,3.199815E0,-2.4294038E0,1.749223E0,-6.972862E0],"categories":[],"categories_nodes":[],"categories_segments":[],"categories_sizes":[],"default_left":[0,0,0,0,0,0,0,0,0,0,0,0,0,0,0,0,0],"id":62,"left_children":[1,3,-1,5,-1,-1,7,9,11,13,-1,-1,15,-1,-1,-1,-1],"loss_changes":[1.857279E5,1.7791348E4,0E0,3.497296E4,0E0,0E0,1.0331631E4,2.1315453E4,1.9027303E4,9.565473E3,0E0,0E0,2.828433E4,0E0,0E0,0E0,0E0],"parents":[2147483647,0,0,1,1,3,3,6,6,7,7,8,8,9,9,12,12],"right_children":[2,4,-1,6,-1,-1,8,10,12,14,-1,-1,16,-1,-1,-1,-1],"split_conditions":[6.75584E4,7.8E2,-2.2267092E1,2.56E2,4.607101E0,-1.0308955E1,2E0,1.335E1,4E0,1.024E3,-9.496705E0,5.042137E0,3.35E0,3.199815E0,-2.4294038E0,1.749223E0,-6.972862E0],"split_indices":[5,4,0,2,0,0,3,4,3,2,0,0,4,0,0,0,0],"split_type":[0,0,0,0,0,0,0,0,0,0,0,0,0,0,0,0,0],"sum_hessian":[4.8E1,4.4E1,4E0,4.1E1,3E0,4E0,3.7E1,1.8E1,1.9E1,1.5E1,3E0,5E0,1.4E1,3E0,1.2E1,9E0,5E0],"tree_param":{"num_deleted":"0","num_feature":"22","num_nodes":"17","size_leaf_vector":"1"}},{"base_weights":[3.0518158E1,-1.6459581E1,4.284431E1,-7.6820173E0,-8.161266E0,4.231013E1,-1.8056654E1,1.4702424E0,5.931531E0,-5.6378145E0,-6.336409E0,-1.3673861E1,4.3962913E0,-2.1266518E0,7.789237E-1],"categories":[],"categories_nodes":[],"categories_segments":[],"categories_sizes":[],"default_left":[0,0,0,0,0,0,0,0,0,0,0,0,0,0,0],"id":63,"left_children":[1,3,-1,5,-1,7,9,-1,-1,11,-1,13,-1,-1,-1],"loss_changes":[8.85693E5,2.3955193E4,0E0,2.0988922E4,0E0,2.406837E3,1.8203834E4,0E0,0E0,1.13601455E4,0E0,4.0780835E3,0E0,0E0,0E0],"parents":[2147483647,0,0,1,1,3,3,5,5,6,6,9,9,11,11],"right_children":[2,4,-1,6,-1,8,10,-1,-1,12,-1,14,-1,-1,-1],"split_conditions":[6.75584E4,5.278E2,4.284431E1,5.12E2,-8.161266E0,2E0,1.13625E1,1.4702424E0,5.931531E0,2.67E1,-6.336409E0,1E0,4.3962913E0,-2.1266518E0,7.789237E-1],"split_indices":[5,0,0,2,0,3,4,0,0,0,0,18,0,0,0],"split_type":[0,0,0,0,0,0,0,0,0,0,0,0,0,0,0],"sum_hessian":[4.6E1,4.2E1,4E0,3.8E1,4E0,6E0,3.2E1,3E0,3E0,2.6E1,6E0,2.3E1,3E0,1.7E1,6E0],"tree_param":{"num_deleted":"0","num_feature":"22","num_nodes":"15","size_leaf_vector":"1"}},{"base_weights":[1.5021816E1,-1.1634473E1,2.080143E1,-1.3222212E0,-6.593891E0,4.873666E0,-7.008315E0,-7.2955375E0,1.4509524E0,3.9137936E1,-8.747503E0,1.3599755E0,5.4866633E0,7.362446E-1,-4.000657E0],"categories":[],"categories_nodes":[],"categories_segments":[],"categories_sizes":[],"default_left":[0,0,0,0,0,0,0,0,0,0,0,0,0,0,0],"id":64,"left_children":[1,3,-1,5,-1,-1,7,-1,9,11,13,-1,-1,-1,-1],"loss_changes":[2.5451847E5,2.4546133E4,0E0,1.1153689E4,0E0,0E0,1.9638242E4,0E0,1.2644567E4,2.0587578E3,1.3390942E4,0E0,0E0,0E0,0E0],"parents":[2147483647,0,0,1,1,3,3,6,6,8,8,9,9,10,10],"right_children":[2,4,-1,6,-1,-1,8,-1,10,12,14,-1,-1,-1,-1],"split_conditions":[6.75584E4,2.74432E4,2.080143E1,3.2E1,-6.593891E0,4.873666E0,2.56E2,-7.2955375E0,5.12E2,2E0,3.35E0,1.3599755E0,5.4866633E0,7.362446E-1,-4.000657E0],"split_indices":[5,5,0,2,0,0,2,0,2,3,4,0,0,0,0],"split_type":[0,0,0,0,0,0,0,0,0,0,0,0,0,0,0],"sum_hessian":[4.8E1,4.3E1,5E0,3.7E1,6E0,3E0,3.4E1,3E0,3.1E1,6E0,2.5E1,3E0,3E0,1.7E1,8E0],"tree_param":{"num_deleted":"0","num_feature":"22","num_nodes":"15","size_leaf_vector":"1"}},{"base_weights":[2.4470852E1,-2.3955303E1,3.836052E1,-1.5807141E1,-8.595918E0,-8.028301E0,-7.018913E0,-1.6176947E1,2.919117E1,-6.451286E0,-3.9222862E1,4.9199076E0,1.8604733E-1,2.537625E0,-1.4492675E0,-1.2548761E0,-5.045179E0],"categories":[],"categories_nodes":[],"categories_segments":[],"categories_sizes":[],"default_left":[0,0,0,0,0,0,0,0,0,0,0,0,0,0,0,0,0],"id":65,"left_children":[1,3,-1,5,-1,7,-1,9,11,13,15,-1,-1,-1,-1,-1,-1],"loss_changes":[8.788001E5,2.1365846E4,0E0,1.6772857E4,0E0,1.1692589E4,0E0,6.690635E3,3.731171E3,6.253246E3,2.0562861E3,0E0,0E0,0E0,0E0,0E0,0E0],"parents":[2147483647,0,0,1,1,3,3,5,5,7,7,8,8,9,9,10,10],"right_children":[2,4,-1,6,-1,8,-1,10,12,14,16,-1,-1,-1,-1,-1,-1],"split_conditions":[6.75584E4,1E0,3.836052E1,1.6384E4,-8.595918E0,8E0,-7.018913E0,1E1,4.096E3,5.12E2,1.21875E1,4.9199076E0,1.8604733E-1,2.537625E0,-1.4492675E0,-1.2548761E0,-5.045179E0],"split_indices":[5,19,0,2,0,3,0,6,2,2,4,0,0,0,0,0,0],"split_type":[0,0,0,0,0,0,0,0,0,0,0,0,0,0,0,0,0],"sum_hessian":[4.9E1,4.4E1,5E0,4E1,4E0,3.6E1,4E0,3E1,6E0,2.2E1,8E0,3E0,3E0,4E0,1.8E1,3E0,5E0],"tree_param":{"num_deleted":"0","num_feature":"22","num_nodes":"17","size_leaf_vector":"1"}},{"base_weights":[4.588668E1,4.5977597E0,3.1348173E1,-7.4878616E0,3.0282347E1,-1.5298915E1,4.3178186E0,5.2692043E1,-4.6276408E-1,-8.4947485E-1,-9.092111E0,7.673032E0,9.446192E-1,-2.140527E0,6.4495983E0,1.8891066E0,1.1606033E-1],"categories":[],"categories_nodes":[],"categories_segments":[],"categories_sizes":[],"default_left":[0,0,0,0,0,0,0,0,0,0,0,0,0,0,0,0,0],"id":66,"left_children":[1,3,-1,5,7,9,-1,11,-1,13,-1,-1,-1,-1,15,-1,-1],"loss_changes":[4.9571888E5,1.2645598E4,0E0,1.1738937E4,1.0418835E4,2.7231045E4,0E0,7.5830195E3,0E0,3.4403923E3,0E0,0E0,0E0,0E0,1.0947183E3,0E0,0E0],"parents":[2147483647,0,0,1,1,3,3,4,4,5,5,7,7,9,9,14,14],"right_children":[2,4,-1,6,8,10,-1,12,-1,14,-1,-1,-1,-1,16,-1,-1],"split_conditions":[2.74432E4,1E1,3.1348173E1,7.8E2,4E0,2.67E1,4.3178186E0,4.545E1,-4.6276408E-1,2.5E0,-9.092111E0,7.673032E0,9.446192E-1,-2.140527E0,6.25E-1,1.8891066E0,1.1606033E-1],"split_indices":[5,6,0,4,3,0,0,4,0,0,0,0,0,0,4,0,0],"split_type":[0,0,0,0,0,0,0,0,0,0,0,0,0,0,0,0,0],"sum_hessian":[4.4E1,3.9E1,5E0,2.7E1,1.2E1,2.4E1,3E0,7E0,5E0,2.1E1,3E0,4E0,3E0,5E0,1.6E1,4E0,1.2E1],"tree_param":{"num_deleted":"0","num_feature":"22","num_nodes":"17","size_leaf_vector":"1"}},{"base_weights":[-3.3181807E-1,2.925645E1,-1.3937349E2,-1.611879E1,4.1365223E1,2.8254855E0,-2.5585154E1,-3.0779474E0,-8.273199E0,-2.625527E1,6.47496E0,-6.6904634E-1,-4.142753E0,-2.989375E0,4.873591E0,-1.4038799E0,3.0640457E0],"categories":[],"categories_nodes":[],"categories_segments":[],"categories_sizes":[],"default_left":[0,0,0,0,0,0,0,0,0,0,0,0,0,0,0,0,0],"id":67,"left_children":[1,3,5,7,-1,-1,-1,9,-1,11,13,-1,-1,15,-1,-1,-1],"loss_changes":[2.3447272E5,8.264837E5,2.02502E5,3.709053E4,0E0,0E0,0E0,8.36418E3,0E0,2.9832847E3,1.0949502E4,0E0,0E0,8.97507E3,0E0,0E0,0E0],"parents":[2147483647,0,0,1,1,2,2,3,3,7,7,9,9,10,10,13,13],"right_children":[2,4,6,8,-1,-1,-1,10,-1,12,14,-1,-1,16,-1,-1,-1],"split_conditions":[1.3195E2,4.875E1,3.465736E0,1.6E4,4.1365223E1,2.8254855E0,-2.5585154E1,4E0,-8.273199E0,3.3792E3,1E0,-6.6904634E-1,-4.142753E0,8E0,4.873591E0,-1.4038799E0,3.0640457E0],"split_indices":[4,4,8,5,0,0,0,1,0,5,16,0,0,3,0,0,0],"split_type":[0,0,0,0,0,0,0,0,0,0,0,0,0,0,0,0,0],"sum_hessian":[5.5E1,4.6E1,9E0,4.2E1,4E0,4E0,5E0,3.6E1,6E0,1E1,2.6E1,5E0,5E0,2.2E1,4E0,1.7E1,5E0],"tree_param":{"num_deleted":"0","num_feature":"22","num_nodes":"17","size_leaf_vector":"1"}},{"base_weights":[2.2014297E1,-1.8378975E1,3.973282E1,-6.833494E0,-9.611751E0,3.8539207E0,-1.1314451E1,1.1028718E0,-5.9581936E1,4.0470457E0,-5.9628706E0,-1.3692421E1,5.1966395E0,-2.3511043E0,5.086727E-1],"categories":[],"categories_nodes":[],"categories_segments":[],"categories_sizes":[],"default_left":[0,0,0,0,0,0,0,0,0,0,0,0,0,0,0],"id":68,"left_children":[1,3,-1,5,-1,-1,7,9,11,-1,13,-1,-1,-1,-1],"loss_changes":[7.805084E5,4.151674E4,0E0,8.9724795E3,0E0,0E0,2.3446324E4,9.14593E3,7.614317E4,0E0,5.5506436E3,0E0,0E0,0E0,0E0],"parents":[2147483647,0,0,1,1,3,3,6,6,7,7,8,8,10,10],"right_children":[2,4,-1,6,-1,-1,8,10,12,-1,14,-1,-1,-1,-1],"split_conditions":[6.75584E4,2.74432E4,3.973282E1,3.2E1,-9.611751E0,3.8539207E0,2.4375E1,5.12E2,2E0,4.0470457E0,2.048E3,-1.3692421E1,5.1966395E0,-2.3511043E0,5.086727E-1],"split_indices":[5,5,0,2,0,0,4,2,3,0,2,0,0,0,0],"split_type":[0,0,0,0,0,0,0,0,0,0,0,0,0,0,0],"sum_hessian":[5E1,4.6E1,4E0,4.1E1,5E0,3E0,3.8E1,3.1E1,7E0,4E0,2.7E1,4E0,3E0,1E1,1.7E1],"tree_param":{"num_deleted":"0","num_feature":"22","num_nodes":"15","size_leaf_vector":"1"}},{"base_weights":[8.576094E0,7.935915E1,-6.253297E1,-8.007838E0,5.6190456E1,1.8685328E0,-4.172334E1,2.5618855E1,-7.427274E1,5.286477E0,-8.419142E0,5.063784E-1,5.78197E1,-1.678743E-1,-1.174734E1,4.57827E0,-4.834703E0,-8.221693E-1,1.567891E0,7.824142E0,2.2918055E0,-9.731345E0,2.4380825E1,-1.7494756E-1,-1.2887936E0,-1.3180119E-1,4.400945E0],"categories":[],"categories_nodes":[],"categories_segments":[],"categories_sizes":[],"default_left":[0,0,0,0,0,0,0,0,0,0,0,0,0,0,0,0,0,0,0,0,0,0,0,0,0,0,0],"id":69,"left_children":[1,3,5,7,-1,9,-1,11,13,-1,15,17,19,-1,-1,21,-1,-1,-1,-1,-1,23,25,-1,-1,-1,-1],"loss_changes":[2.6166342E5,1.1006771E6,5.947453E5,5.3157848E4,0E0,1.2516072E4,0E0,1.2903177E4,2.4879742E4,0E0,1.0604906E4,1.4539221E3,3.186004E3,0E0,0E0,4.772594E3,0E0,0E0,0E0,0E0,0E0,2.2794409E2,3.5933047E3,0E0,0E0,0E0,0E0],"parents":[2147483647,0,0,1,1,2,2,3,3,5,5,7,7,8,8,10,10,11,11,12,12,15,15,21,21,22,22],"right_children":[2,4,6,8,-1,10,-1,12,14,-1,16,18,20,-1,-1,22,-1,-1,-1,-1,-1,24,26,-1,-1,-1,-1],"split_conditions":[2E0,1.1120763E1,5.278E2,8E0,5.6190456E1,5.12E2,-4.172334E1,9.09E1,8.738895E0,5.286477E0,9.431963E0,8.5E0,5.278E2,-1.678743E-1,-1.174734E1,8E0,-4.834703E0,-8.221693E-1,1.567891E0,7.824142E0,2.2918055E0,7.848153E0,6.7E0,-1.7494756E-1,-1.2887936E0,-1.3180119E-1,4.400945E0],"split_indices":[3,9,0,1,0,2,0,0,9,0,9,0,0,0,0,1,0,0,0,0,0,9,0,0,0,0,0],"split_type":[0,0,0,0,0,0,0,0,0,0,0,0,0,0,0,0,0,0,0,0,0,0,0,0,0,0,0],"sum_hessian":[5E1,2.5E1,2.5E1,2.2E1,3E0,2.2E1,3E0,1.5E1,7E0,3E0,1.9E1,9E0,6E0,3E0,4E0,1.5E1,4E0,6E0,3E0,3E0,3E0,9E0,6E0,3E0,6E0,3E0,3E0],"tree_param":{"num_deleted":"0","num_feature":"22","num_nodes":"27","size_leaf_vector":"1"}},{"base_weights":[2.614054E1,-1.0851953E1,4.3579594E1,7.6947293E0,-3.9105015E1,-8.702639E0,6.9285517E0,-9.615579E0,-1.39889145E1,2.564154E0,-2.123588E1,-4.4507017E0,1.857949E1,-8.401025E0,1.6773701E0,-1.1387395E0,-2.7528389E0,1.7079832E-1,3.1715102E0,-1.4035087E0,7.1680896E-2],"categories":[],"categories_nodes":[],"categories_segments":[],"categories_sizes":[],"default_left":[0,0,0,0,0,0,0,0,0,0,0,0,0,0,0,0,0,0,0,0,0],"id":70,"left_children":[1,3,-1,5,7,9,-1,11,-1,13,15,-1,17,19,-1,-1,-1,-1,-1,-1,-1],"loss_changes":[7.3217206E5,2.388407E4,0E0,2.8886977E4,5.213714E4,3.3041362E3,0E0,1.5586008E4,0E0,2.1672861E3,3.643203E2,0E0,1.9370466E3,4.2235577E2,0E0,0E0,0E0,0E0,0E0,0E0,0E0],"parents":[2147483647,0,0,1,1,3,3,4,4,5,5,7,7,9,9,10,10,12,12,13,13],"right_children":[2,4,-1,6,8,10,-1,12,-1,14,16,-1,18,20,-1,-1,-1,-1,-1,-1,-1],"split_conditions":[6.75584E4,8E0,4.3579594E1,4.875E1,1.6E4,2.125E0,6.9285517E0,2.048E3,-1.39889145E1,3.3E0,1.13625E1,-4.4507017E0,3.3E0,2.5E0,1.6773701E0,-1.1387395E0,-2.7528389E0,1.7079832E-1,3.1715102E0,-1.4035087E0,7.1680896E-2],"split_indices":[5,1,0,4,5,4,0,2,0,0,4,0,0,0,0,0,0,0,0,0,0],"split_type":[0,0,0,0,0,0,0,0,0,0,0,0,0,0,0,0,0,0,0,0,0],"sum_hessian":[4.7E1,4.4E1,3E0,2.7E1,1.7E1,2.2E1,5E0,1.4E1,3E0,1.2E1,1E1,6E0,8E0,7E0,5E0,5E0,5E0,4E0,4E0,4E0,3E0],"tree_param":{"num_deleted":"0","num_feature":"22","num_nodes":"21","size_leaf_vector":"1"}},{"base_weights":[-2.2406052E1,3.8688762E0,-1.7686903E2,3.3242485E1,-7.6231294E0,-2.7472239E1,-3.477343E0,-3.089937E-1,1.0044768E1,-2.6300508E1,5.552085E0,3.1439161E0,-4.7878976E0,-1.1935334E1,-3.6894184E1,-6.316641E0,4.006785E0,-2.5682312E-1,-1.8293604E0,-1.2130312E0,-5.240951E0,-1.2052702E1,7.546022E-1,-2.2865286E0,7.5199924E-2],"categories":[],"categories_nodes":[],"categories_segments":[],"categories_sizes":[],"default_left":[0,0,0,0,0,0,0,0,0,0,0,0,0,0,0,0,0,0,0,0,0,0,0,0,0],"id":71,"left_children":[1,3,5,7,9,-1,-1,11,-1,13,15,-1,-1,17,19,21,-1,-1,-1,-1,-1,23,-1,-1,-1],"loss_changes":[1.9550978E5,1.4433564E4,8.774772E4,2.7099055E4,7.776531E3,0E0,0E0,1.5099252E4,0E0,1.5331123E3,8.0399736E3,0E0,0E0,3.6784167E2,2.0473389E3,1.2841567E3,0E0,0E0,0E0,0E0,0E0,1.5423772E3,0E0,0E0,0E0],"parents":[2147483647,0,0,1,1,2,2,3,3,4,4,7,7,9,9,10,10,13,13,14,14,15,15,21,21],"right_children":[2,4,6,8,10,-1,-1,12,-1,14,16,-1,-1,18,20,22,-1,-1,-1,-1,-1,24,-1,-1,-1],"split_conditions":[2.74432E4,5.12E2,1.6384E4,6.8352E3,2.048E3,-2.7472239E1,-3.477343E0,2E0,1.0044768E1,2E0,8E0,3.1439161E0,-4.7878976E0,1.024E3,9.09E1,1E0,4.006785E0,-2.5682312E-1,-1.8293604E0,-1.2130312E0,-5.240951E0,1E0,7.546022E-1,-2.2865286E0,7.5199924E-2],"split_indices":[5,2,2,5,2,0,0,3,0,3,3,0,0,2,0,18,0,0,0,0,0,20,0,0,0],"split_type":[0,0,0,0,0,0,0,0,0,0,0,0,0,0,0,0,0,0,0,0,0,0,0,0,0],"sum_hessian":[4.7E1,4.1E1,6E0,1.1E1,3E1,3E0,3E0,8E0,3E0,1.2E1,1.8E1,5E0,3E0,6E0,6E0,1.4E1,4E0,3E0,3E0,3E0,3E0,1E1,4E0,5E0,5E0],"tree_param":{"num_deleted":"0","num_feature":"22","num_nodes":"25","size_leaf_vector":"1"}},{"base_weights":[-9.5678514E-1,2.6931341E1,-1.577204E2,-3.6270103E1,2.517734E2,-3.1122715E1,-3.3509153E-1,-7.5842136E-1,-3.2014896E1,-4.092641E1,7.010797E1,-1.2507694E1,1.1029583E1,8.4649485E-1,-8.011117E0,-4.092585E1,1.7289093E1,2.9142063E1,-1.8994257E1,2.0728557E0,-1.23201E1,-1.6736012E0,6.402948E0,-7.124633E-1,9.441494E0,1.971649E0,-5.298144E0],"categories":[],"categories_nodes":[],"categories_segments":[],"categories_sizes":[],"default_left":[0,0,0,0,0,0,0,0,0,0,0,0,0,0,0,0,0,0,0,0,0,0,0,0,0,0,0],"id":72,"left_children":[1,3,5,7,9,-1,-1,11,-1,13,-1,15,17,-1,-1,19,21,23,25,-1,-1,-1,-1,-1,-1,-1,-1],"loss_changes":[2.3159656E5,6.486189E5,1.884997E5,3.6264162E5,1.3438774E6,0E0,0E0,4.7086187E3,0E0,1.42330205E4,0E0,1.510502E4,9.799252E3,0E0,0E0,4.8217656E4,1.5389445E4,2.672095E4,1.0257619E4,0E0,0E0,0E0,0E0,0E0,0E0,0E0,0E0],"parents":[2147483647,0,0,1,1,2,2,3,3,4,4,7,7,9,9,11,11,12,12,15,15,16,16,17,17,18,18],"right_children":[2,4,6,8,10,-1,-1,12,-1,14,-1,16,18,-1,-1,20,22,24,26,-1,-1,-1,-1,-1,-1,-1,-1],"split_conditions":[8E0,8E0,2.048E3,1.1120763E1,5.278E2,-3.1122715E1,-3.3509153E-1,4E0,-3.2014896E1,6.7E0,7.010797E1,2E0,2E0,8.4649485E-1,-8.011117E0,1E1,8.738895E0,1E1,2.67E1,2.0728557E0,-1.23201E1,-1.6736012E0,6.402948E0,-7.124633E-1,9.441494E0,1.971649E0,-5.298144E0],"split_indices":[3,1,2,9,0,0,0,1,0,0,0,3,3,0,0,6,9,6,0,0,0,0,0,0,0,0,0],"split_type":[0,0,0,0,0,0,0,0,0,0,0,0,0,0,0,0,0,0,0,0,0,0,0,0,0,0,0],"sum_hessian":[5.1E1,4.4E1,7E0,3.5E1,9E0,3E0,4E0,3.2E1,3E0,6E0,3E0,1.6E1,1.6E1,3E0,3E0,8E0,8E0,1E1,6E0,5E0,3E0,5E0,3E0,7E0,3E0,3E0,3E0],"tree_param":{"num_deleted":"0","num_feature":"22","num_nodes":"27","size_leaf_vector":"1"}},{"base_weights":[7.5751147E0,4.1319218E1,-1.9595738E2,2.6318467E0,3.270594E1,-3.2153435E1,-2.1366084E0,-6.388802E0,6.346589E0,-2.6051405E1,1.2530811E1,-8.666055E0,-6.866549E0,-3.2474934E1,3.774826E1,-2.0851114E0,1.0082461E0,-7.2252405E-1,-4.9580894E0,5.080238E-1,6.034253E0],"categories":[],"categories_nodes":[],"categories_segments":[],"categories_sizes":[],"default_left":[0,0,0,0,0,0,0,0,0,0,0,0,0,0,0,0,0,0,0,0,0],"id":73,"left_children":[1,3,5,7,-1,-1,-1,9,-1,11,13,-1,15,17,19,-1,-1,-1,-1,-1,-1],"loss_changes":[3.3774638E5,4.6339678E5,1.4656825E5,2.1264156E4,0E0,0E0,0E0,1.2976098E4,0E0,1.9162809E4,2.1655139E4,0E0,3.529651E3,2.6595269E3,8.544225E3,0E0,0E0,0E0,0E0,0E0,0E0],"parents":[2147483647,0,0,1,1,2,2,3,3,7,7,9,9,10,10,12,12,13,13,14,14],"right_children":[2,4,6,8,-1,-1,-1,10,-1,12,14,-1,16,18,20,-1,-1,-1,-1,-1,-1],"split_conditions":[1.95E2,5.278E2,3.9E2,1E0,3.270594E1,-3.2153435E1,-2.1366084E0,2E0,6.346589E0,1.024E3,1.0625E0,-8.666055E0,4.096E3,6.5E-1,5.8176E3,-2.0851114E0,1.0082461E0,-7.2252405E-1,-4.9580894E0,5.080238E-1,6.034253E0],"split_indices":[4,0,4,16,0,0,0,3,0,2,4,0,2,4,5,0,0,0,0,0,0],"split_type":[0,0,0,0,0,0,0,0,0,0,0,0,0,0,0,0,0,0,0,0,0],"sum_hessian":[4.7E1,4.1E1,6E0,3.7E1,4E0,3E0,3E0,3.3E1,4E0,1.6E1,1.7E1,3E0,1.3E1,6E0,1.1E1,7E0,6E0,3E0,3E0,5E0,6E0],"tree_param":{"num_deleted":"0","num_feature":"22","num_nodes":"21","size_leaf_vector":"1"}},{"base_weights":[3.5200703E1,2.5367005E0,2.76387E1,-1.9588194E1,1.782199E1,-5.7992635E0,-5.948017E0,3.86831E1,-1.8915648E1,-1.6445042E0,2.8974779E0,-4.6849084E-1,6.08456E1,-4.369069E0,2.295083E0,3.7759563E-1,1.0500103E-1,2.5857508E0,7.984474E0],"categories":[],"categories_nodes":[],"categories_segments":[],"categories_sizes":[],"default_left":[0,0,0,0,0,0,0,0,0,0,0,0,0,0,0,0,0,0,0],"id":74,"left_children":[1,3,-1,5,7,9,-1,11,13,-1,15,-1,17,-1,-1,-1,-1,-1,-1],"loss_changes":[3.301516E5,1.3199968E4,0E0,8.449615E3,1.8360617E4,1.2525903E3,0E0,1.4707824E4,1.0340006E4,0E0,8.536293E0,0E0,4.5722812E3,0E0,0E0,0E0,0E0,0E0,0E0],"parents":[2147483647,0,0,1,1,3,3,4,4,5,5,7,7,8,8,10,10,12,12],"right_children":[2,4,-1,6,8,10,-1,12,14,-1,16,-1,18,-1,-1,-1,-1,-1,-1],"split_conditions":[6.75584E4,1.65E0,2.76387E1,6.7E0,4.545E1,2.5E0,-5.948017E0,4E0,5E2,-1.6445042E0,6.5E-1,-4.6849084E-1,2.67E1,-4.369069E0,2.295083E0,3.7759563E-1,1.0500103E-1,2.5857508E0,7.984474E0],"split_indices":[5,4,0,0,4,0,0,1,4,0,4,0,0,0,0,0,0,0,0],"split_type":[0,0,0,0,0,0,0,0,0,0,0,0,0,0,0,0,0,0,0],"sum_hessian":[4.1E1,3.7E1,4E0,1.5E1,2.2E1,1.2E1,3E0,1.4E1,8E0,5E0,7E0,5E0,9E0,5E0,3E0,4E0,3E0,4E0,5E0],"tree_param":{"num_deleted":"0","num_feature":"22","num_nodes":"19","size_leaf_vector":"1"}},{"base_weights":[-9.00659E0,2.0266762E1,-1.688967E2,-1.0209351E1,3.2760525E1,-4.754902E0,-2.7833212E1,-1.5888343E0,-8.952692E0,-7.440838E0,2.1273785E1,-1.5799718E1,3.916528E0,3.7327638E0,-4.0869784E-1,-7.5489634E-1,-3.8280594E0],"categories":[],"categories_nodes":[],"categories_segments":[],"categories_sizes":[],"default_left":[0,0,0,0,0,0,0,0,0,0,0,0,0,0,0,0,0],"id":75,"left_children":[1,3,5,7,-1,-1,-1,9,-1,11,13,15,-1,-1,-1,-1,-1],"loss_changes":[2.4214433E5,4.1550156E5,9.297084E4,2.7882738E4,0E0,0E0,0E0,5.2410127E3,0E0,1.2693285E4,3.4129849E3,4.714511E3,0E0,0E0,0E0,0E0,0E0],"parents":[2147483647,0,0,1,1,2,2,3,3,7,7,9,9,10,10,11,11],"right_children":[2,4,6,8,-1,-1,-1,10,-1,12,14,16,-1,-1,-1,-1,-1],"split_conditions":[1.3195E2,4.875E1,1.28E2,1.6384E4,3.2760525E1,-4.754902E0,-2.7833212E1,8E0,-8.952692E0,1E0,4.096E3,5E0,3.916528E0,3.7327638E0,-4.0869784E-1,-7.5489634E-1,-3.8280594E0],"split_indices":[4,4,2,2,0,0,0,3,0,16,2,6,0,0,0,0,0],"split_type":[0,0,0,0,0,0,0,0,0,0,0,0,0,0,0,0,0],"sum_hessian":[5E1,4.3E1,7E0,4E1,3E0,4E0,3E0,3.7E1,3E0,3E1,7E0,2.6E1,4E0,4E0,3E0,2E1,6E0],"tree_param":{"num_deleted":"0","num_feature":"22","num_nodes":"17","size_leaf_vector":"1"}},{"base_weights":[-5.392649E1,-3.77465E0,-5.544762E1,-3.615057E1,3.9512913E0,1.4725507E0,-9.073302E0,5.765138E0,-3.101988E0,-2.0974926E1,7.771874E0,-6.0350933E0,-4.9320817E0,2.589896E1,-1.2935109E1,-1.280218E0,1.9190122E-1,-8.294495E-1,6.861001E0,6.132455E-1,-4.309457E0],"categories":[],"categories_nodes":[],"categories_segments":[],"categories_sizes":[],"default_left":[0,0,0,0,0,0,0,0,0,0,0,0,0,0,0,0,0,0,0,0,0],"id":76,"left_children":[1,3,-1,5,7,-1,-1,-1,9,11,13,15,-1,17,19,-1,-1,-1,-1,-1,-1],"loss_changes":[1.1024048E6,1.0401575E4,0E0,2.3559223E4,1.3062188E4,0E0,0E0,0E0,6.189118E3,4.778603E3,7.843447E3,5.10091E2,0E0,1.6639938E4,6.0186455E3,0E0,0E0,0E0,0E0,0E0,0E0],"parents":[2147483647,0,0,1,1,3,3,4,4,8,8,9,9,10,10,11,11,13,13,14,14],"right_children":[2,4,-1,6,8,-1,-1,-1,10,12,14,16,-1,18,20,-1,-1,-1,-1,-1,-1],"split_conditions":[6.75584E4,5.5451775E0,-5.544762E1,3.465736E0,6.2383246E0,1.4725507E0,-9.073302E0,5.765138E0,1.0625E0,8E0,3.35E0,6.5E-1,-4.9320817E0,4E0,4E0,-1.280218E0,1.9190122E-1,-8.294495E-1,6.861001E0,6.132455E-1,-4.309457E0],"split_indices":[5,8,0,8,8,0,0,0,4,3,4,4,0,3,3,0,0,0,0,0,0],"split_type":[0,0,0,0,0,0,0,0,0,0,0,0,0,0,0,0,0,0,0,0,0],"sum_hessian":[4.3E1,4E1,3E0,7E0,3.3E1,4E0,3E0,3E0,3E1,1.1E1,1.9E1,8E0,3E0,1E1,9E0,4E0,4E0,6E0,4E0,6E0,3E0],"tree_param":{"num_deleted":"0","num_feature":"22","num_nodes":"21","size_leaf_vector":"1"}},{"base_weights":[1.9154306E1,6.631973E1,-7.352294E1,7.108979E0,4.9379543E1,7.937118E0,-3.4027744E1,2.3891684E1,-5.1433006E1,3.2368446E1,-4.2492967E0,-5.821103E-1,6.475713E1,-2.0324962E0,-6.96578E0,1.3297588E-1,6.3121185E0,-5.203067E0,7.9699945E-1,3.1404582E-1,1.40967865E1,4.2269143E-1,-2.2787263E0],"categories":[],"categories_nodes":[],"categories_segments":[],"categories_sizes":[],"default_left":[0,0,0,0,0,0,0,0,0,0,0,0,0,0,0,0,0,0,0,0,0,0,0],"id":77,"left_children":[1,3,5,7,-1,9,-1,11,13,15,-1,17,19,-1,-1,-1,-1,21,-1,-1,-1,-1,-1],"loss_changes":[2.1906223E5,8.3170775E5,3.7214128E5,3.0700854E4,0E0,1.8623451E4,0E0,2.4047297E4,2.5437734E3,9.454864E3,0E0,6.7349414E2,4.1805547E4,0E0,0E0,0E0,0E0,1.9221805E3,0E0,0E0,0E0,0E0,0E0],"parents":[2147483647,0,0,1,1,2,2,3,3,5,5,7,7,8,8,9,9,11,11,12,12,17,17],"right_children":[2,4,6,8,-1,10,-1,12,14,16,-1,18,20,-1,-1,-1,-1,22,-1,-1,-1,-1,-1],"split_conditions":[4E0,6.75584E4,2.4375E1,8E0,4.9379543E1,3.35E0,-3.4027744E1,9.09E1,6.8352E3,6.7E0,-4.2492967E0,4E0,2.56E2,-2.0324962E0,-6.96578E0,1.3297588E-1,6.3121185E0,5.8176E3,7.9699945E-1,3.1404582E-1,1.40967865E1,4.2269143E-1,-2.2787263E0],"split_indices":[3,5,4,1,0,4,0,0,5,0,0,1,2,0,0,0,0,5,0,0,0,0,0],"split_type":[0,0,0,0,0,0,0,0,0,0,0,0,0,0,0,0,0,0,0,0,0,0,0],"sum_hessian":[4.8E1,3.2E1,1.6E1,2.9E1,3E0,1.3E1,3E0,2.3E1,6E0,9E0,4E0,1.5E1,8E0,3E0,3E0,5E0,4E0,1E1,5E0,5E0,3E0,7E0,3E0],"tree_param":{"num_deleted":"0",