{"learner":{"attributes":{"scikit_learn":"{\"_estimator_type\": \"regressor\"}"},"feature_names":["tensor_size","num_workers","batch_size","num_ps","model_depth","sequential_ratio","branch_factor","conv_ratio","fc_ratio","param_density","tensor_per_worker","comm_intensity","compute_intensity","structure_complexity","all_to_all_comm","ring_comm","log2_workers","sqrt_workers","comm_comp_ratio","dataset_size","log_tensor_size","log_batch_size","log_comm_intensity"],"feature_types":["float","int","int","int","float","float","float","float","float","float","float","float","float","float","float","float","float","float","float","int","float","float","float"],"gradient_booster":{"model":{"gbtree_model_param":{"num_parallel_tree":"1","num_trees":"200"},"iteration_indptr":[0,1,2,3,4,5,6,7,8,9,10,11,12,13,14,15,16,17,18,19,20,21,22,23,24,25,26,27,28,29,30,31,32,33,34,35,36,37,38,39,40,41,42,43,44,45,46,47,48,49,50,51,52,53,54,55,56,57,58,59,60,61,62,63,64,65,66,67,68,69,70,71,72,73,74,75,76,77,78,79,80,81,82,83,84,85,86,87,88,89,90,91,92,93,94,95,96,97,98,99,100,101,102,103,104,105,106,107,108,109,110,111,112,113,114,115,116,117,118,119,120,121,122,123,124,125,126,127,128,129,130,131,132,133,134,135,136,137,138,139,140,141,142,143,144,145,146,147,148,149,150,151,152,153,154,155,156,157,158,159,160,161,162,163,164,165,166,167,168,169,170,171,172,173,174,175,176,177,178,179,180,181,182,183,184,185,186,187,188,189,190,191,192,193,194,195,196,197,198,199,200],"tree_info":[0,0,0,0,0,0,0,0,0,0,0,0,0,0,0,0,0,0,0,0,0,0,0,0,0,0,0,0,0,0,0,0,0,0,0,0,0,0,0,0,0,0,0,0,0,0,0,0,0,0,0,0,0,0,0,0,0,0,0,0,0,0,0,0,0,0,0,0,0,0,0,0,0,0,0,0,0,0,0,0,0,0,0,0,0,0,0,0,0,0,0,0,0,0,0,0,0,0,0,0,0,0,0,0,0,0,0,0,0,0,0,0,0,0,0,0,0,0,0,0,0,0,0,0,0,0,0,0,0,0,0,0,0,0,0,0,0,0,0,0,0,0,0,0,0,0,0,0,0,0,0,0,0,0,0,0,0,0,0,0,0,0,0,0,0,0,0,0,0,0,0,0,0,0,0,0,0,0,0,0,0,0,0,0,0,0,0,0,0,0,0,0,0,0,0,0,0,0,0,0],"trees":[{"base_weights":[-1.7761533E2,-1.3566294E3,2.0271779E3,-7.979943E1,-1.1975051E1,1.3702867E2,9.368808E0],"categories":[],"categories_nodes":[],"categories_segments":[],"categories_sizes":[],"default_left":[0,0,0,0,0,0,0],"id":0,"left_children":[1,3,5,-1,-1,-1,-1],"loss_changes":[1.3019974E8,8.116056E6,2.219712E7,0E0,0E0,0E0,0E0],"parents":[2147483647,0,0,1,1,2,2],"right_children":[2,4,6,-1,-1,-1,-1],"split_conditions":[1.869E2,8.01E1,2.639E2,-7.979943E1,-1.1975051E1,1.3702867E2,9.368808E0],"split_indices":[14,14,10,0,0,0,0],"split_type":[0,0,0,0,0,0,0],"sum_hessian":[4.7E1,3.1E1,1.6E1,2.5E1,6E0,1.1E1,5E0],"tree_param":{"num_deleted":"0","num_feature":"23","num_nodes":"7","size_leaf_vector":"1"}},{"base_weights":[2.321904E2,-1.2040325E3,2.5177734E3,-7.604223E1,6.0830626E0,4.486896E1,1.9422153E2],"categories":[],"categories_nodes":[],"categories_segments":[],"categories_sizes":[],"default_left":[0,0,0,0,0,0,0],"id":1,"left_children":[1,3,5,-1,-1,-1,-1],"loss_changes":[1.4077605E8,1.1408132E7,3.1308536E7,0E0,0E0,0E0,0E0],"parents":[2147483647,0,0,1,1,2,2],"right_children":[2,4,6,-1,-1,-1,-1],"split_conditions":[2.727E2,8.01E1,5.12E2,-7.604223E1,6.0830626E0,4.486896E1,1.9422153E2],"split_indices":[14,14,2,0,0,0,0],"split_type":[0,0,0,0,0,0,0],"sum_hessian":[4E1,2.5E1,1.5E1,2E1,5E0,8E0,7E0],"tree_param":{"num_deleted":"0","num_feature":"23","num_nodes":"7","size_leaf_vector":"1"}},{"base_weights":[-3.3277985E2,-1.3308119E3,1.5256007E3,-7.318078E1,-2.9217524E1,3.1270924E1,1.0252984E2],"categories":[],"categories_nodes":[],"categories_segments":[],"categories_sizes":[],"default_left":[0,0,0,0,0,0,0],"id":2,"left_children":[1,3,5,-1,-1,-1,-1],"loss_changes":[7.6306904E7,1.343096E6,4.927524E6,0E0,0E0,0E0,0E0],"parents":[2147483647,0,0,1,1,2,2],"right_children":[2,4,6,-1,-1,-1,-1],"split_conditions":[9.75E1,5.95E1,6.363E2,-7.318078E1,-2.9217524E1,3.1270924E1,1.0252984E2],"split_indices":[14,14,14,0,0,0,0],"split_type":[0,0,0,0,0,0,0],"sum_hessian":[3.8E1,2.5E1,1.3E1,2E1,5E0,6E0,7E0],"tree_param":{"num_deleted":"0","num_feature":"23","num_nodes":"7","size_leaf_vector":"1"}},{"base_weights":[-1.1667933E2,-1.2132247E3,2.1177139E3,-6.868067E1,-9.028994E0,2.829391E1,1.6675606E2],"categories":[],"categories_nodes":[],"categories_segments":[],"categories_sizes":[],"default_left":[0,0,0,0,0,0,0],"id":3,"left_children":[1,3,5,-1,-1,-1,-1],"loss_changes":[1.300343E8,5.506824E6,3.0228416E7,0E0,0E0,0E0,0E0],"parents":[2147483647,0,0,1,1,2,2],"right_children":[2,4,6,-1,-1,-1,-1],"split_conditions":[1.869E2,8.01E1,3E0,-6.868067E1,-9.028994E0,2.829391E1,1.6675606E2],"split_indices":[14,14,16,0,0,0,0],"split_type":[0,0,0,0,0,0,0],"sum_hessian":[5E1,3.4E1,1.6E1,2.9E1,5E0,8E0,8E0],"tree_param":{"num_deleted":"0","num_feature":"23","num_nodes":"7","size_leaf_vector":"1"}},{"base_weights":[2.5649351E1,-1.1848572E3,1.9538639E3,-6.814629E1,-1.2008463E1,6.9734753E2,2.0562915E2,2.2597005E0,6.049824E1],"categories":[],"categories_nodes":[],"categories_segments":[],"categories_sizes":[],"default_left":[0,0,0,0,0,0,0,0,0],"id":4,"left_children":[1,3,5,-1,-1,7,-1,-1,-1],"loss_changes":[1.1200936E8,4.470672E6,4.587635E7,0E0,0E0,4.430468E6,0E0,0E0,0E0],"parents":[2147483647,0,0,1,1,2,2,5,5],"right_children":[2,4,6,-1,-1,8,-1,-1,-1],"split_conditions":[3.636E1,1.335E1,5.12E2,-6.814629E1,-1.2008463E1,2E0,2.0562915E2,2.2597005E0,6.049824E1],"split_indices":[12,12,2,0,0,16,0,0,0],"split_type":[0,0,0,0,0,0,0,0,0],"sum_hessian":[4.5E1,2.8E1,1.7E1,2.3E1,5E0,1.2E1,5E0,6E0,6E0],"tree_param":{"num_deleted":"0","num_feature":"23","num_nodes":"9","size_leaf_vector":"1"}},{"base_weights":[-7.496449E1,-1.1185204E3,2.1770464E3,-6.288462E1,-1.0364274E1,4.9592598E1,1.5587161E2],"categories":[],"categories_nodes":[],"categories_segments":[],"categories_sizes":[],"default_left":[0,0,0,0,0,0,0],"id":5,"left_children":[1,3,5,-1,-1,-1,-1],"loss_changes":[1.223321E8,4.110268E6,1.3749808E7,0E0,0E0,0E0,0E0],"parents":[2147483647,0,0,1,1,2,2],"right_children":[2,4,6,-1,-1,-1,-1],"split_conditions":[2.727E2,8.01E1,5.12E2,-6.288462E1,-1.0364274E1,4.9592598E1,1.5587161E2],"split_indices":[14,14,2,0,0,0,0],"split_type":[0,0,0,0,0,0,0],"sum_hessian":[4.9E1,3.4E1,1.5E1,2.9E1,5E0,8E0,7E0],"tree_param":{"num_deleted":"0","num_feature":"23","num_nodes":"7","size_leaf_vector":"1"}},{"base_weights":[1.2546069E2,-1.0650197E3,1.7562476E3,-6.0305977E1,-1.8708078E1,6.120733E2,1.6559442E2,1.3937923E0,4.9794827E1],"categories":[],"categories_nodes":[],"categories_segments":[],"categories_sizes":[],"default_left":[0,0,0,0,0,0,0,0,0],"id":6,"left_children":[1,3,5,-1,-1,7,-1,-1,-1],"loss_changes":[8.531634E7,1.808024E6,2.9885956E7,0E0,0E0,2.7607025E6,0E0,0E0,0E0],"parents":[2147483647,0,0,1,1,2,2,5,5],"right_children":[2,4,6,-1,-1,8,-1,-1,-1],"split_conditions":[3.636E1,1.335E1,8E0,-6.0305977E1,-1.8708078E1,4E0,1.6559442E2,1.3937923E0,4.9794827E1],"split_indices":[12,12,1,0,0,1,0,0,0],"split_type":[0,0,0,0,0,0,0,0,0],"sum_hessian":[4.1E1,2.4E1,1.7E1,1.9E1,5E0,1.1E1,6E0,5E0,6E0],"tree_param":{"num_deleted":"0","num_feature":"23","num_nodes":"9","size_leaf_vector":"1"}},{"base_weights":[1.2371854E2,-1.0352261E3,1.725906E3,-5.918395E1,-1.2976819E1,6.19908E2,1.5889304E2,-1.1446209E1,5.7983913E1],"categories":[],"categories_nodes":[],"categories_segments":[],"categories_sizes":[],"default_left":[0,0,0,0,0,0,0,0,0],"id":7,"left_children":[1,3,5,-1,-1,7,-1,-1,-1],"loss_changes":[9.0880616E7,2.82034E6,2.9963236E7,0E0,0E0,6.584037E6,0E0,0E0,0E0],"parents":[2147483647,0,0,1,1,2,2,5,5],"right_children":[2,4,6,-1,-1,8,-1,-1,-1],"split_conditions":[9.09E1,2.67E1,3E0,-5.918395E1,-1.2976819E1,2E0,1.5889304E2,-1.1446209E1,5.7983913E1],"split_indices":[0,0,16,0,0,16,0,0,0],"split_type":[0,0,0,0,0,0,0,0,0],"sum_hessian":[4.6E1,2.7E1,1.9E1,2.2E1,5E0,1.2E1,7E0,5E0,7E0],"tree_param":{"num_deleted":"0","num_feature":"23","num_nodes":"9","size_leaf_vector":"1"}},{"base_weights":[1.6816187E2,-9.59545E2,2.100762E3,-5.455221E1,-1.8653584E1,3.8307827E1,1.6107993E2],"categories":[],"categories_nodes":[],"categories_segments":[],"categories_sizes":[],"default_left":[0,0,0,0,0,0,0],"id":8,"left_children":[1,3,5,-1,-1,-1,-1],"loss_changes":[9.782842E7,1.586654E6,2.0977568E7,0E0,0E0,0E0,0E0],"parents":[2147483647,0,0,1,1,2,2],"right_children":[2,4,6,-1,-1,-1,-1],"split_conditions":[9.75E1,2.67E1,3E0,-5.455221E1,-1.8653584E1,3.8307827E1,1.6107993E2],"split_indices":[14,0,16,0,0,0,0],"split_type":[0,0,0,0,0,0,0],"sum_hessian":[4.2E1,2.7E1,1.5E1,2.1E1,6E0,8E0,7E0],"tree_param":{"num_deleted":"0","num_feature":"23","num_nodes":"7","size_leaf_vector":"1"}},{"base_weights":[-2.2321234E2,-4.905344E1,9.40433E2,-4.4268417E0,7.636603E1],"categories":[],"categories_nodes":[],"categories_segments":[],"categories_sizes":[],"default_left":[0,0,0,0,0],"id":9,"left_children":[1,-1,3,-1,-1],"loss_changes":[4.3273076E7,0E0,1.1979402E7,0E0,0E0],"parents":[2147483647,0,0,2,2],"right_children":[2,-1,4,-1,-1],"split_conditions":[9.09E1,-4.905344E1,4E0,-4.4268417E0,7.636603E1],"split_indices":[0,0,1,0,0],"split_type":[0,0,0,0,0],"sum_hessian":[4.6E1,2.8E1,1.8E1,7E0,1.1E1],"tree_param":{"num_deleted":"0","num_feature":"23","num_nodes":"5","size_leaf_vector":"1"}},{"base_weights":[6.2538567E1,-8.685375E2,1.4432465E3,-5.015974E1,-1.274414E1,4.6346E2,1.3723143E2,8.113468E-1,4.089672E1],"categories":[],"categories_nodes":[],"categories_segments":[],"categories_sizes":[],"default_left":[0,0,0,0,0,0,0,0,0],"id":10,"left_children":[1,3,5,-1,-1,7,-1,-1,-1],"loss_changes":[6.5514988E7,2.136134E6,2.4229428E7,0E0,0E0,2.1198652E6,0E0,0E0,0E0],"parents":[2147483647,0,0,1,1,2,2,5,5],"right_children":[2,4,6,-1,-1,8,-1,-1,-1],"split_conditions":[3.636E1,1.335E1,8E0,-5.015974E1,-1.274414E1,4E0,1.3723143E2,8.113468E-1,4.089672E1],"split_indices":[12,12,1,0,0,1,0,0,0],"split_type":[0,0,0,0,0,0,0,0,0],"sum_hessian":[4.8E1,2.9E1,1.9E1,2.3E1,6E0,1.2E1,7E0,6E0,6E0],"tree_param":{"num_deleted":"0","num_feature":"23","num_nodes":"9","size_leaf_vector":"1"}},{"base_weights":[-3.0707758E1,-8.635834E2,1.1700431E3,-4.78043E1,-1.5777717E1,2.3339072E2,1.3734145E2,-3.816899E0,3.1614431E1],"categories":[],"categories_nodes":[],"categories_segments":[],"categories_sizes":[],"default_left":[0,0,0,0,0,0,0,0,0],"id":11,"left_children":[1,3,5,-1,-1,7,-1,-1,-1],"loss_changes":[5.001918E7,1.042294E6,2.9313336E7,0E0,0E0,1.8641565E6,0E0,0E0,0E0],"parents":[2147483647,0,0,1,1,2,2,5,5],"right_children":[2,4,6,-1,-1,8,-1,-1,-1],"split_conditions":[1.818E2,5.34E1,6.2383246E0,-4.78043E1,-1.5777717E1,4E0,1.3734145E2,-3.816899E0,3.1614431E1],"split_indices":[15,15,21,0,0,1,0,0,0],"split_type":[0,0,0,0,0,0,0,0,0],"sum_hessian":[4.7E1,2.8E1,1.9E1,2.3E1,5E0,1.3E1,6E0,8E0,5E0],"tree_param":{"num_deleted":"0","num_feature":"23","num_nodes":"9","size_leaf_vector":"1"}},{"base_weights":[6.6207924E1,-7.0128E2,1.779625E3,-4.4492977E1,-5.8637047E-1,2.7250034E1,1.4114372E2],"categories":[],"categories_nodes":[],"categories_segments":[],"categories_sizes":[],"default_left":[0,0,0,0,0,0,0],"id":12,"left_children":[1,3,5,-1,-1,-1,-1],"loss_changes":[6.1706292E7,4.21005E6,1.636692E7,0E0,0E0,0E0,0E0],"parents":[2147483647,0,0,1,1,2,2],"right_children":[2,4,6,-1,-1,-1,-1],"split_conditions":[2.727E2,8.01E1,8E0,-4.4492977E1,-5.8637047E-1,2.7250034E1,1.4114372E2],"split_indices":[14,14,1,0,0,0,0],"split_type":[0,0,0,0,0,0,0],"sum_hessian":[4.4E1,3.1E1,1.3E1,2.4E1,7E0,7E0,6E0],"tree_param":{"num_deleted":"0","num_feature":"23","num_nodes":"7","size_leaf_vector":"1"}},{"base_weights":[-2.9979185E1,-7.7107654E2,1.1314535E3,-4.4628933E1,-1.0994388E1,2.4486707E2,1.4240208E2,-9.809923E0,3.479173E1],"categories":[],"categories_nodes":[],"categories_segments":[],"categories_sizes":[],"default_left":[0,0,0,0,0,0,0,0,0],"id":13,"left_children":[1,3,5,-1,-1,7,-1,-1,-1],"loss_changes":[4.3054116E7,1.747646E6,2.862949E7,0E0,0E0,3.0891722E6,0E0,0E0,0E0],"parents":[2147483647,0,0,1,1,2,2,5,5],"right_children":[2,4,6,-1,-1,8,-1,-1,-1],"split_conditions":[9.09E1,2.67E1,8E0,-4.4628933E1,-1.0994388E1,4E0,1.4240208E2,-9.809923E0,3.479173E1],"split_indices":[0,0,1,0,0,1,0,0,0],"split_type":[0,0,0,0,0,0,0,0,0],"sum_hessian":[4.7E1,2.9E1,1.8E1,2.3E1,6E0,1.3E1,5E0,7E0,6E0],"tree_param":{"num_deleted":"0","num_feature":"23","num_nodes":"9","size_leaf_vector":"1"}},{"base_weights":[5.7064034E1,-6.841899E2,1.4145247E3,-4.1603424E1,-5.1824684E0,1.04876236E2,-7.567355E-1],"categories":[],"categories_nodes":[],"categories_segments":[],"categories_sizes":[],"default_left":[0,0,0,0,0,0,0],"id":14,"left_children":[1,3,5,-1,-1,-1,-1],"loss_changes":[4.4216548E7,2.316878E6,1.5183744E7,0E0,0E0,0E0,0E0],"parents":[2147483647,0,0,1,1,2,2],"right_children":[2,4,6,-1,-1,-1,-1],"split_conditions":[2.727E2,5.95E1,1.95E2,-4.1603424E1,-5.1824684E0,1.04876236E2,-7.567355E-1],"split_indices":[14,14,10,0,0,0,0],"split_type":[0,0,0,0,0,0,0],"sum_hessian":[4.1E1,2.7E1,1.4E1,2.1E1,6E0,9E0,5E0],"tree_param":{"num_deleted":"0","num_feature":"23","num_nodes":"7","size_leaf_vector":"1"}},{"base_weights":[8.02439E1,-5.1026056E2,9.20667E1,-3.9290985E1,1.4331244E2,1.2800574E1,-1.19088985E-1],"categories":[],"categories_nodes":[],"categories_segments":[],"categories_sizes":[],"default_left":[0,0,0,0,0,0,0],"id":15,"left_children":[1,3,-1,-1,5,-1,-1],"loss_changes":[4.7686964E7,6.382628E6,0E0,0E0,1.8986684E5,0E0,0E0],"parents":[2147483647,0,0,1,1,4,4],"right_children":[2,4,-1,-1,6,-1,-1],"split_conditions":[9E-1,8.01E1,9.20667E1,-3.9290985E1,9.75E1,1.2800574E1,-1.19088985E-1],"split_indices":[5,14,0,0,0,0,0],"split_type":[0,0,0,0,0,0,0],"sum_hessian":[4.3E1,3.3E1,1E1,2.3E1,1E1,5E0,5E0],"tree_param":{"num_deleted":"0","num_feature":"23","num_nodes":"7","size_leaf_vector":"1"}},{"base_weights":[1.1066675E1,-3.7841852E2,9.095666E1,-6.784403E2,3.510014E2,-3.7547844E1,-1.2981254E1,2.6004978E1,3.7405453E0],"categories":[],"categories_nodes":[],"categories_segments":[],"categories_sizes":[],"default_left":[0,0,0,0,0,0,0,0,0],"id":16,"left_children":[1,3,-1,5,7,-1,-1,-1,-1],"loss_changes":[3.3779316E7,9.001619E6,0E0,5.72619E5,5.2513025E5,0E0,0E0,0E0,0E0],"parents":[2147483647,0,0,1,1,3,3,4,4],"right_children":[2,4,-1,6,8,-1,-1,-1,-1],"split_conditions":[9E-1,3.636E1,9.095666E1,1.335E1,2.639E2,-3.7547844E1,-1.2981254E1,2.6004978E1,3.7405453E0],"split_indices":[5,12,0,12,10,0,0,0,0],"split_type":[0,0,0,0,0,0,0,0,0],"sum_hessian":[4.5E1,3.8E1,7E0,2.7E1,1.1E1,2.2E1,5E0,6E0,5E0],"tree_param":{"num_deleted":"0","num_feature":"23","num_nodes":"9","size_leaf_vector":"1"}},{"base_weights":[1.0902492E2,-6.509513E2,1.1724254E3,-3.6218258E1,-1.7948101E1,4.3571198E2,1.1319789E2,-3.9091375E0,3.7592937E1],"categories":[],"categories_nodes":[],"categories_segments":[],"categories_sizes":[],"default_left":[0,0,0,0,0,0,0,0,0],"id":17,"left_children":[1,3,5,-1,-1,7,-1,-1,-1],"loss_changes":[3.791629E7,1.9892E5,1.4199856E7,0E0,0E0,2.2818042E6,0E0,0E0,0E0],"parents":[2147483647,0,0,1,1,2,2,5,5],"right_children":[2,4,6,-1,-1,8,-1,-1,-1],"split_conditions":[3.636E1,2.2512918E0,8E0,-3.6218258E1,-1.7948101E1,4E0,1.1319789E2,-3.9091375E0,3.7592937E1],"split_indices":[12,20,1,0,0,1,0,0,0],"split_type":[0,0,0,0,0,0,0,0,0],"sum_hessian":[4.4E1,2.6E1,1.8E1,1.9E1,7E0,1.2E1,6E0,5E0,7E0],"tree_param":{"num_deleted":"0","num_feature":"23","num_nodes":"9","size_leaf_vector":"1"}},{"base_weights":[4.2256996E1,-6.216447E2,1.1047122E3,-3.474458E1,-1.1791664E1,2.9722555E0,1.03897194E2],"categories":[],"categories_nodes":[],"categories_segments":[],"categories_sizes":[],"default_left":[0,0,0,0,0,0,0],"id":18,"left_children":[1,3,5,-1,-1,-1,-1],"loss_changes":[3.0303032E7,5.02594E5,1.6598882E7,0E0,0E0,0E0,0E0],"parents":[2147483647,0,0,1,1,2,2],"right_children":[2,4,6,-1,-1,-1,-1],"split_conditions":[9.09E1,2.67E1,8E0,-3.474458E1,-1.1791664E1,2.9722555E0,1.03897194E2],"split_indices":[0,0,1,0,0,0,0],"split_type":[0,0,0,0,0,0,0],"sum_hessian":[4E1,2.5E1,1.5E1,2E1,5E0,8E0,7E0],"tree_param":{"num_deleted":"0","num_feature":"23","num_nodes":"7","size_leaf_vector":"1"}},{"base_weights":[5.041797E1,-5.8352057E2,1.022965E3,-3.3785233E1,-5.7752037E0,3.1391382E2,1.12973206E2,-1.437313E1,3.5922607E1],"categories":[],"categories_nodes":[],"categories_segments":[],"categories_sizes":[],"default_left":[0,0,0,0,0,0,0,0,0],"id":19,"left_children":[1,3,5,-1,-1,7,-1,-1,-1],"loss_changes":[2.8947944E7,1.112129E6,1.515451E7,0E0,0E0,3.5942855E6,0E0,0E0,0E0],"parents":[2147483647,0,0,1,1,2,2,5,5],"right_children":[2,4,6,-1,-1,8,-1,-1,-1],"split_conditions":[3.636E1,1.335E1,8E0,-3.3785233E1,-5.7752037E0,4E0,1.12973206E2,-1.437313E1,3.5922607E1],"split_indices":[12,12,1,0,0,1,0,0,0],"split_type":[0,0,0,0,0,0,0,0,0],"sum_hessian":[4.4E1,2.7E1,1.7E1,2.2E1,5E0,1.2E1,5E0,5E0,7E0],"tree_param":{"num_deleted":"0","num_feature":"23","num_nodes":"9","size_leaf_vector":"1"}},{"base_weights":[1.6345323E2,-5.6231067E2,1.1041357E3,-3.209298E1,-1.0026433E1,5.847331E2,1.0129638E2,4.1777096E1,5.829368E0],"categories":[],"categories_nodes":[],"categories_segments":[],"categories_sizes":[],"default_left":[0,0,0,0,0,0,0,0,0],"id":20,"left_children":[1,3,5,-1,-1,7,-1,-1,-1],"loss_changes":[3.5408596E7,6.55503E5,8.99433E6,0E0,0E0,1.790753E6,0E0,0E0,0E0],"parents":[2147483647,0,0,1,1,2,2,5,5],"right_children":[2,4,6,-1,-1,8,-1,-1,-1],"split_conditions":[1.869E2,4.69E1,1.024E3,-3.209298E1,-1.0026433E1,2.639E2,1.0129638E2,4.1777096E1,5.829368E0],"split_indices":[14,14,2,0,0,10,0,0,0],"split_type":[0,0,0,0,0,0,0,0,0],"sum_hessian":[4.9E1,2.8E1,2.1E1,2.2E1,6E0,1.5E1,6E0,9E0,6E0],"tree_param":{"num_deleted":"0","num_feature":"23","num_nodes":"9","size_leaf_vector":"1"}},{"base_weights":[5.171372E1,-4.9417966E2,1.1913566E3,-5.742024E2,-2.0751748E0,1.5119959E1,1.1761797E2,-3.1766218E1,-1.7901274E1],"categories":[],"categories_nodes":[],"categories_segments":[],"categories_sizes":[],"default_left":[0,0,0,0,0,0,0,0,0],"id":21,"left_children":[1,3,5,7,-1,-1,-1,-1,-1],"loss_changes":[2.9812206E7,1.141238E6,1.4928918E7,2.1671E4,0E0,0E0,0E0,0E0,0E0],"parents":[2147483647,0,0,1,1,2,2,3,3],"right_children":[2,4,6,8,-1,-1,-1,-1,-1],"split_conditions":[2.727E2,9.09E1,8E0,2.67E1,-2.0751748E0,1.5119959E1,1.1761797E2,-3.1766218E1,-1.7901274E1],"split_indices":[14,14,1,14,0,0,0,0,0],"split_type":[0,0,0,0,0,0,0,0,0],"sum_hessian":[4.5E1,3.1E1,1.4E1,2.6E1,5E0,9E0,5E0,1.8E1,8E0],"tree_param":{"num_deleted":"0","num_feature":"23","num_nodes":"9","size_leaf_vector":"1"}},{"base_weights":[8.934587E1,-2.2720775E2,8.9046646E1,-4.795391E2,3.3070007E2,-2.7298346E1,-6.431862E0,3.3570774E1,-9.554467E0],"categories":[],"categories_nodes":[],"categories_segments":[],"categories_sizes":[],"default_left":[0,0,0,0,0,0,0,0,0],"id":22,"left_children":[1,3,-1,5,7,-1,-1,-1,-1],"loss_changes":[2.5507466E7,5.939444E6,0E0,5.5864E5,2.5927435E6,0E0,0E0,0E0,0E0],"parents":[2147483647,0,0,1,1,3,3,4,4],"right_children":[2,4,-1,6,8,-1,-1,-1,-1],"split_conditions":[6.75584E4,1.869E2,8.9046646E1,8.01E1,2.4375E1,-2.7298346E1,-6.431862E0,3.3570774E1,-9.554467E0],"split_indices":[11,14,0,14,10,0,0,0,0],"split_type":[0,0,0,0,0,0,0,0,0],"sum_hessian":[4.5E1,3.9E1,6E0,2.7E1,1.2E1,2.2E1,5E0,7E0,5E0],"tree_param":{"num_deleted":"0","num_feature":"23","num_nodes":"9","size_leaf_vector":"1"}},{"base_weights":[-2.5563066E0,-3.7124026E2,8.55566E1,-5.285644E2,8.070943E1,-2.8195618E1,-1.3663821E1,-3.2126465E0,1.03561735E1],"categories":[],"categories_nodes":[],"categories_segments":[],"categories_sizes":[],"default_left":[0,0,0,0,0,0,0,0,0],"id":23,"left_children":[1,3,-1,5,7,-1,-1,-1,-1],"loss_changes":[3.033133E7,2.872766E6,0E0,3.4631E4,2.3077452E5,0E0,0E0,0E0,0E0],"parents":[2147483647,0,0,1,1,3,3,4,4],"right_children":[2,4,-1,6,8,-1,-1,-1,-1],"split_conditions":[6.825E2,9.09E1,8.55566E1,4.69E1,2.727E2,-2.8195618E1,-1.3663821E1,-3.2126465E0,1.03561735E1],"split_indices":[14,14,0,14,14,0,0,0,0],"split_type":[0,0,0,0,0,0,0,0,0],"sum_hessian":[4.5E1,3.8E1,7E0,2.8E1,1E1,2.3E1,5E0,5E0,5E0],"tree_param":{"num_deleted":"0","num_feature":"23","num_nodes":"9","size_leaf_vector":"1"}},{"base_weights":[-1.3093518E2,-4.6445792E2,6.451689E2,-2.5547812E1,-9.454459E0,1.2546739E1,4.755462E1],"categories":[],"categories_nodes":[],"categories_segments":[],"categories_sizes":[],"default_left":[0,0,0,0,0,0,0],"id":24,"left_children":[1,3,5,-1,-1,-1,-1],"loss_changes":[1.06739E7,2.196445E5,1.1489745E6,0E0,0E0,0E0,0E0],"parents":[2147483647,0,0,1,1,2,2],"right_children":[2,4,6,-1,-1,-1,-1],"split_conditions":[1.869E2,6.675E0,8E-1,-2.5547812E1,-9.454459E0,1.2546739E1,4.755462E1],"split_indices":[14,10,5,0,0,0,0],"split_type":[0,0,0,0,0,0,0],"sum_hessian":[3.8E1,2.7E1,1.1E1,2.2E1,5E0,6E0,5E0],"tree_param":{"num_deleted":"0","num_feature":"23","num_nodes":"7","size_leaf_vector":"1"}},{"base_weights":[-1.3285727E2,-4.3344998E2,3.9839594E2,-2.5048681E1,-1.0962447E1,3.254803E1,-1.740354E0],"categories":[],"categories_nodes":[],"categories_segments":[],"categories_sizes":[],"default_left":[0,0,0,0,0,0,0],"id":25,"left_children":[1,3,5,-1,-1,-1,-1],"loss_changes":[7.205596E6,2.470965E5,1.8395898E6,0E0,0E0,0E0,0E0],"parents":[2147483647,0,0,1,1,2,2],"right_children":[2,4,6,-1,-1,-1,-1],"split_conditions":[1.869E2,4.69E1,1.56E3,-2.5048681E1,-1.0962447E1,3.254803E1,-1.740354E0],"split_indices":[14,14,0,0,0,0,0],"split_type":[0,0,0,0,0,0,0],"sum_hessian":[4.2E1,2.7E1,1.5E1,1.9E1,8E0,9E0,6E0],"tree_param":{"num_deleted":"0","num_feature":"23","num_nodes":"7","size_leaf_vector":"1"}},{"base_weights":[9.612558E1,-3.437407E2,1.2282828E3,-2.3747545E1,2.4432876E0,-9.11932E0,1.1026365E2],"categories":[],"categories_nodes":[],"categories_segments":[],"categories_sizes":[],"default_left":[0,0,0,0,0,0,0],"id":26,"left_children":[1,3,5,-1,-1,-1,-1],"loss_changes":[2.2296662E7,1.70923E6,1.7831952E7,0E0,0E0,0E0,0E0],"parents":[2147483647,0,0,1,1,2,2],"right_children":[2,4,6,-1,-1,-1,-1],"split_conditions":[6.363E2,9.09E1,1.28E2,-2.3747545E1,2.4432876E0,-9.11932E0,1.1026365E2],"split_indices":[14,14,2,0,0,0,0],"split_type":[0,0,0,0,0,0,0],"sum_hessian":[4.2E1,3.1E1,1.1E1,2.3E1,8E0,5E0,6E0],"tree_param":{"num_deleted":"0","num_feature":"23","num_nodes":"7","size_leaf_vector":"1"}},{"base_weights":[-1.1414326E2,-3.9962485E2,3.5577393E2,-2.2502401E1,-5.087768E0,-1.3059692E0,5.284435E2,1.3029818E1,3.7833984E1],"categories":[],"categories_nodes":[],"categories_segments":[],"categories_sizes":[],"default_left":[0,0,0,0,0,0,0,0,0],"id":27,"left_children":[1,3,5,-1,-1,-1,7,-1,-1],"loss_changes":[6.853845E6,4.04147E5,1.3068112E6,0E0,0E0,0E0,5.2899725E5,0E0,0E0],"parents":[2147483647,0,0,1,1,2,2,6,6],"right_children":[2,4,6,-1,-1,-1,8,-1,-1],"split_conditions":[1.869E2,8.01E1,1.28E2,-2.2502401E1,-5.087768E0,-1.3059692E0,6.363E2,1.3029818E1,3.7833984E1],"split_indices":[14,14,2,0,0,0,14,0,0],"split_type":[0,0,0,0,0,0,0,0,0],"sum_hessian":[4.8E1,3E1,1.8E1,2.5E1,5E0,6E0,1.2E1,7E0,5E0],"tree_param":{"num_deleted":"0","num_feature":"23","num_nodes":"9","size_leaf_vector":"1"}},{"base_weights":[1.6555595E2,-1.1813257E2,9.038683E1,-3.9970325E2,4.4766907E2,-2.3118086E1,-1.0726026E1,-7.47353E0,4.1268185E1],"categories":[],"categories_nodes":[],"categories_segments":[],"categories_sizes":[],"default_left":[0,0,0,0,0,0,0,0,0],"id":28,"left_children":[1,3,-1,5,7,-1,-1,-1,-1],"loss_changes":[2.0586424E7,6.401934E6,0E0,1.58369E5,3.2301308E6,0E0,0E0,0E0,0E0],"parents":[2147483647,0,0,1,1,3,3,4,4],"right_children":[2,4,-1,6,8,-1,-1,-1,-1],"split_conditions":[1.1120763E1,9.09E1,9.038683E1,8E0,4E0,-2.3118086E1,-1.0726026E1,-7.47353E0,4.1268185E1],"split_indices":[22,0,0,1,1,0,0,0,0],"split_type":[0,0,0,0,0,0,0,0,0],"sum_hessian":[4.2E1,3.7E1,5E0,2.5E1,1.2E1,1.7E1,8E0,5E0,7E0],"tree_param":{"num_deleted":"0","num_feature":"23","num_nodes":"9","size_leaf_vector":"1"}},{"base_weights":[1.3590125E2,-2.4176447E2,1.2526302E3,-3.5895712E2,1.1067794E1,1.3375285E1,9.279061E1,-2.0349758E1,-1.1323007E1],"categories":[],"categories_nodes":[],"categories_segments":[],"categories_sizes":[],"default_left":[0,0,0,0,0,0,0,0,0],"id":29,"left_children":[1,3,5,7,-1,-1,-1,-1,-1],"loss_changes":[2.0909654E7,2.154541E6,6.681896E6,5.55605E4,0E0,0E0,0E0,0E0,0E0],"parents":[2147483647,0,0,1,1,2,2,3,3],"right_children":[2,4,6,8,-1,-1,-1,-1,-1],"split_conditions":[6.363E2,1.869E2,8E-1,2.67E1,1.1067794E1,1.3375285E1,9.279061E1,-2.0349758E1,-1.1323007E1],"split_indices":[14,14,5,14,0,0,0,0,0],"split_type":[0,0,0,0,0,0,0,0,0],"sum_hessian":[4.7E1,3.6E1,1.1E1,2.9E1,7E0,5E0,6E0,1.9E1,1E1],"tree_param":{"num_deleted":"0","num_feature":"23","num_nodes":"9","size_leaf_vector":"1"}},{"base_weights":[-1.1793392E2,-3.8530206E2,1.9716618E2,-2.2392618E1,-1.11178255E1,-8.321289E1,2.6750357E1,2.92865E0,-1.1384297E1],"categories":[],"categories_nodes":[],"categories_segments":[],"categories_sizes":[],"default_left":[0,0,0,0,0,0,0,0,0],"id":30,"left_children":[1,3,5,-1,-1,7,-1,-1,-1],"loss_changes":[3.6945755E6,8.98095E4,2.0088375E6,0E0,0E0,2.7614194E5,0E0,0E0,0E0],"parents":[2147483647,0,0,1,1,2,2,5,5],"right_children":[2,4,6,-1,-1,8,-1,-1,-1],"split_conditions":[8.01E1,1.75E1,8E0,-2.2392618E1,-1.11178255E1,1.95E2,2.6750357E1,2.92865E0,-1.1384297E1],"split_indices":[14,14,1,0,0,10,0,0,0],"split_type":[0,0,0,0,0,0,0,0,0],"sum_hessian":[4.1E1,2.2E1,1.9E1,1.4E1,8E0,1.1E1,8E0,6E0,5E0],"tree_param":{"num_deleted":"0","num_feature":"23","num_nodes":"9","size_leaf_vector":"1"}},{"base_weights":[8.033918E1,-1.9258527E2,5.1553616E1,-1.9234076E1,1.5444237E2,2.21116E1,-2.2864351E0],"categories":[],"categories_nodes":[],"categories_segments":[],"categories_sizes":[],"default_left":[0,0,0,0,0,0,0],"id":31,"left_children":[1,3,-1,-1,5,-1,-1],"loss_changes":[1.3401929E7,2.789071E6,0E0,0E0,9.2344344E5,0E0,0E0],"parents":[2147483647,0,0,1,1,4,4],"right_children":[2,4,-1,-1,6,-1,-1],"split_conditions":[9E-1,2.67E1,5.1553616E1,-1.9234076E1,3E-1,2.21116E1,-2.2864351E0],"split_indices":[5,0,0,0,5,0,0],"split_type":[0,0,0,0,0,0,0],"sum_hessian":[4.9E1,3.9E1,1E1,2.5E1,1.4E1,5E0,9E0],"tree_param":{"num_deleted":"0","num_feature":"23","num_nodes":"7","size_leaf_vector":"1"}},{"base_weights":[6.6549926E0,-2.5829492E2,5.7163277E1,-3.7845596E2,-1.1488377E1,-2.100583E1,-1.1291944E1,-5.6625075E0,6.2079477E0],"categories":[],"categories_nodes":[],"categories_segments":[],"categories_sizes":[],"default_left":[0,0,0,0,0,0,0,0,0],"id":32,"left_children":[1,3,-1,5,7,-1,-1,-1,-1],"loss_changes":[1.3543193E7,1.0757468E6,0E0,1.313325E4,2.074362E5,0E0,0E0,0E0,0E0],"parents":[2147483647,0,0,1,1,3,3,4,4],"right_children":[2,4,-1,6,8,-1,-1,-1,-1],"split_conditions":[1.5834E3,1E1,5.7163277E1,8E0,4E0,-2.100583E1,-1.1291944E1,-5.6625075E0,6.2079477E0],"split_indices":[14,19,0,1,3,0,0,0,0],"split_type":[0,0,0,0,0,0,0,0,0],"sum_hessian":[4.2E1,3.5E1,7E0,2.3E1,1.2E1,1.6E1,7E0,7E0,5E0],"tree_param":{"num_deleted":"0","num_feature":"23","num_nodes":"9","size_leaf_vector":"1"}},{"base_weights":[8.928964E1,-2.8897647E2,6.544678E2,-1.7181086E1,-6.8440795E0,5.401558E-1,7.630984E1,5.799295E0,-5.747666E0],"categories":[],"categories_nodes":[],"categories_segments":[],"categories_sizes":[],"default_left":[0,0,0,0,0,0,0,0,0],"id":33,"left_children":[1,3,5,-1,-1,7,-1,-1,-1],"loss_changes":[9.369851E6,1.49455E5,9.973834E6,0E0,0E0,1.733321E5,0E0,0E0,0E0],"parents":[2147483647,0,0,1,1,2,2,5,5],"right_children":[2,4,6,-1,-1,8,-1,-1,-1],"split_conditions":[3.636E1,8E0,8E0,-1.7181086E1,-6.8440795E0,2E0,7.630984E1,5.799295E0,-5.747666E0],"split_indices":[12,1,1,0,0,3,0,0,0],"split_type":[0,0,0,0,0,0,0,0,0],"sum_hessian":[4.1E1,2.5E1,1.6E1,1.7E1,8E0,1E1,6E0,5E0,5E0],"tree_param":{"num_deleted":"0","num_feature":"23","num_nodes":"9","size_leaf_vector":"1"}},{"base_weights":[8.9830536E1,-1.4758463E2,7.1944016E1,-3.0505508E2,2.4818187E2,-1.7449026E1,-8.333661E0,-1.5150574E1,3.710897E1],"categories":[],"categories_nodes":[],"categories_segments":[],"categories_sizes":[],"default_left":[1,0,0,0,0,0,0,0,0],"id":34,"left_children":[1,3,-1,5,7,-1,-1,-1,-1],"loss_changes":[1.3931287E7,2.4506495E6,0E0,7.965175E4,3.4688665E6,0E0,0E0,0E0,0E0],"parents":[2147483647,0,0,1,1,3,3,4,4],"right_children":[2,4,-1,6,8,-1,-1,-1,-1],"split_conditions":[9E-1,9.09E1,7.1944016E1,8.5E0,2E0,-1.7449026E1,-8.333661E0,-1.5150574E1,3.710897E1],"split_indices":[5,0,0,0,16,0,0,0,0],"split_type":[0,0,0,0,0,0,0,0,0],"sum_hessian":[4.1E1,3.6E1,5E0,2.6E1,1E1,1.8E1,8E0,5E0,5E0],"tree_param":{"num_deleted":"0","num_feature":"23","num_nodes":"9","size_leaf_vector":"1"}},{"base_weights":[8.725605E1,-1.9918953E2,6.6782364E1,-2.895976E2,4.294146E1,-1.86463E1,-1.2497646E2,-1.8277231E0,5.630237E0,-1.2001601E1,9.421446E-1],"categories":[],"categories_nodes":[],"categories_segments":[],"categories_sizes":[],"default_left":[0,0,0,0,0,0,0,0,0,0,0],"id":35,"left_children":[1,3,-1,5,7,-1,9,-1,-1,-1,-1],"loss_changes":[1.6312668E7,8.396744E5,0E0,3.07075E5,6.989872E4,0E0,1.9718794E5,0E0,0E0,0E0,0E0],"parents":[2147483647,0,0,1,1,3,3,4,4,6,6],"right_children":[2,4,-1,6,8,-1,10,-1,-1,-1,-1],"split_conditions":[9E-1,1E1,6.6782364E1,8E0,1.21875E1,-1.86463E1,6.25E-1,-1.8277231E0,5.630237E0,-1.2001601E1,9.421446E-1],"split_indices":[5,19,0,1,10,0,10,0,0,0,0],"split_type":[0,0,0,0,0,0,0,0,0,0,0],"sum_hessian":[4.3E1,3.6E1,7E0,2.6E1,1E1,1.6E1,1E1,5E0,5E0,5E0,5E0],"tree_param":{"num_deleted":"0","num_feature":"23","num_nodes":"11","size_leaf_vector":"1"}},{"base_weights":[-1.1403319E2,-3.0405685E2,1.8997609E2,-2.061059E1,-2.0755913E2,-2.802041E0,2.157349E1,-3.6683114E0,-1.2814545E1],"categories":[],"categories_nodes":[],"categories_segments":[],"categories_sizes":[],"default_left":[0,0,0,0,0,0,0,0,0],"id":36,"left_children":[1,3,5,-1,7,-1,-1,-1,-1],"loss_changes":[2.426345E6,1.374885E5,1.01674806E6,0E0,7.95315E4,0E0,0E0,0E0,0E0],"parents":[2147483647,0,0,1,1,2,2,4,4],"right_children":[2,4,6,-1,8,-1,-1,-1,-1],"split_conditions":[1E1,4E0,4E1,-2.061059E1,2.048E3,-2.802041E0,2.157349E1,-3.6683114E0,-1.2814545E1],"split_indices":[19,1,4,0,2,0,0,0,0],"split_type":[0,0,0,0,0,0,0,0,0],"sum_hessian":[3.9E1,2.4E1,1.5E1,9E0,1.5E1,8E0,7E0,5E0,1E1],"tree_param":{"num_deleted":"0","num_feature":"23","num_nodes":"9","size_leaf_vector":"1"}},{"base_weights":[4.2235035E1,-2.3487398E2,5.1296204E1,-2.9448737E2,3.1205194E0,-1.665437E1,-2.0597395E2,-1.255902E1,-4.9624233E0],"categories":[],"categories_nodes":[],"categories_segments":[],"categories_sizes":[],"default_left":[0,0,0,1,0,0,0,0,0],"id":37,"left_children":[1,3,-1,5,-1,-1,7,-1,-1],"loss_changes":[1.3037234E7,6.9226475E5,0E0,4.44275E3,0E0,0E0,2.7564062E4,0E0,0E0],"parents":[2147483647,0,0,1,1,3,3,6,6],"right_children":[2,4,-1,6,-1,-1,8,-1,-1],"split_conditions":[6.363E2,1.869E2,5.1296204E1,4.8E1,3.1205194E0,-1.665437E1,2.55E1,-1.255902E1,-4.9624233E0],"split_indices":[14,14,0,4,0,0,14,0,0],"split_type":[0,0,0,0,0,0,0,0,0],"sum_hessian":[4.5E1,3.6E1,9E0,3E1,6E0,1.8E1,1.2E1,7E0,5E0],"tree_param":{"num_deleted":"0","num_feature":"23","num_nodes":"9","size_leaf_vector":"1"}},{"base_weights":[1.0147912E2,-2.0735744E2,9.879405E2,-1.4028998E1,5.126499E0,4.7227006E0,8.266819E1],"categories":[],"categories_nodes":[],"categories_segments":[],"categories_sizes":[],"default_left":[0,0,0,0,0,0,0],"id":38,"left_children":[1,3,5,-1,-1,-1,-1],"loss_changes":[1.2216744E7,8.033806E5,6.602164E6,0E0,0E0,0E0,0E0],"parents":[2147483647,0,0,1,1,2,2],"right_children":[2,4,6,-1,-1,-1,-1],"split_conditions":[6.363E2,1.869E2,8E-1,-1.4028998E1,5.126499E0,4.7227006E0,8.266819E1],"split_indices":[14,14,5,0,0,0,0],"split_type":[0,0,0,0,0,0,0],"sum_hessian":[4.2E1,3.2E1,1E1,2.6E1,6E0,5E0,5E0],"tree_param":{"num_deleted":"0","num_feature":"23","num_nodes":"7","size_leaf_vector":"1"}},{"base_weights":[-2.5931969E1,-2.3819719E2,2.6068713E2,-1.3301368E1,-5.5355663E0,4.4728152E2,-4.0806727E0,4.378156E1,2.0364587E0],"categories":[],"categories_nodes":[],"categories_segments":[],"categories_sizes":[],"default_left":[0,1,0,0,0,0,0,0,0],"id":39,"left_children":[1,3,5,-1,-1,7,-1,-1,-1],"loss_changes":[2.922157E6,5.3202E4,1.3643022E6,0E0,0E0,2.2970248E6,0E0,0E0,0E0],"parents":[2147483647,0,0,1,1,2,2,5,5],"right_children":[2,4,6,-1,-1,8,-1,-1,-1],"split_conditions":[1.869E2,1.335E1,1.95E2,-1.3301368E1,-5.5355663E0,2E0,-4.0806727E0,4.378156E1,2.0364587E0],"split_indices":[14,12,10,0,0,3,0,0,0],"split_type":[0,0,0,0,0,0,0,0,0],"sum_hessian":[4.5E1,2.6E1,1.9E1,2E1,6E0,1.2E1,7E0,5E0,7E0],"tree_param":{"num_deleted":"0","num_feature":"23","num_nodes":"9","size_leaf_vector":"1"}},{"base_weights":[-1.4657701E1,-2.0025366E2,3.9537234E2,-2.3921591E2,-2.422224E0,2.9092736E0,3.0422993E1,-1.3410789E1,-6.568653E0],"categories":[],"categories_nodes":[],"categories_segments":[],"categories_sizes":[],"default_left":[0,1,0,0,0,0,0,0,0],"id":40,"left_children":[1,3,5,7,-1,-1,-1,-1,-1],"loss_changes":[3.0485118E6,1.4513088E5,8.4469E5,1.418525E4,0E0,0E0,0E0,0E0,0E0],"parents":[2147483647,0,0,1,1,2,2,3,3],"right_children":[2,4,6,8,-1,-1,-1,-1,-1],"split_conditions":[2.925E2,1.335E1,5.12E2,2E0,-2.422224E0,2.9092736E0,3.0422993E1,-1.3410789E1,-6.568653E0],"split_indices":[14,12,2,3,0,0,0,0,0],"split_type":[0,0,0,0,0,0,0,0,0],"sum_hessian":[3.7E1,2.6E1,1.1E1,2E1,6E0,5E0,6E0,1.4E1,6E0],"tree_param":{"num_deleted":"0","num_feature":"23","num_nodes":"9","size_leaf_vector":"1"}},{"base_weights":[-9.6667984E1,-1.3279338E1,1.9633809E2,-4.883194E0,2.6246397E1],"categories":[],"categories_nodes":[],"categories_segments":[],"categories_sizes":[],"default_left":[0,0,0,0,0],"id":41,"left_children":[1,-1,3,-1,-1],"loss_changes":[2.3302392E6,0E0,1.7677195E6,0E0,0E0],"parents":[2147483647,0,0,2,2],"right_children":[2,-1,4,-1,-1],"split_conditions":[1E1,-1.3279338E1,6.363E2,-4.883194E0,2.6246397E1],"split_indices":[19,0,14,0,0],"split_type":[0,0,0,0,0],"sum_hessian":[4.4E1,2.8E1,1.6E1,9E0,7E0],"tree_param":{"num_deleted":"0","num_feature":"23","num_nodes":"5","size_leaf_vector":"1"}},{"base_weights":[9.658477E1,-1.3168132E2,4.912188E1,-2.2530087E2,7.059643E0,-1.4223033E1,-6.9359813E0],"categories":[],"categories_nodes":[],"categories_segments":[],"categories_sizes":[],"default_left":[0,0,0,0,0,0,0],"id":42,"left_children":[1,3,-1,5,-1,-1,-1],"loss_changes":[9.395041E6,1.0057467E6,0E0,8.657875E4,0E0,0E0,0E0],"parents":[2147483647,0,0,1,1,3,3],"right_children":[2,4,-1,6,-1,-1,-1],"split_conditions":[6.363E2,9.09E1,4.912188E1,1.75E1,7.059643E0,-1.4223033E1,-6.9359813E0],"split_indices":[14,14,0,14,0,0,0],"split_type":[0,0,0,0,0,0,0],"sum_hessian":[4.4E1,3.6E1,8E0,2.7E1,9E0,1.4E1,1.3E1],"tree_param":{"num_deleted":"0","num_feature":"23","num_nodes":"7","size_leaf_vector":"1"}},{"base_weights":[4.9930683E1,-1.6635092E2,5.4857067E1,-2.163009E2,3.2842255E0,-1.3228261E1,-1.5308054E2,-9.044338E0,-2.9962971E0],"categories":[],"categories_nodes":[],"categories_segments":[],"categories_sizes":[],"default_left":[0,0,0,0,0,0,1,0,0],"id":43,"left_children":[1,3,-1,5,-1,-1,7,-1,-1],"loss_changes":[1.1259112E7,5.0237875E5,0E0,4.4310875E4,0E0,0E0,3.154E4,0E0,0E0],"parents":[2147483647,0,0,1,1,3,3,6,6],"right_children":[2,4,-1,6,-1,-1,8,-1,-1],"split_conditions":[6.825E2,1.869E2,5.4857067E1,1.75E1,3.2842255E0,-1.3228261E1,4E0,-9.044338E0,-2.9962971E0],"split_indices":[14,14,0,14,0,0,6,0,0],"split_type":[0,0,0,0,0,0,0,0,0],"sum_hessian":[4.7E1,4E1,7E0,3.3E1,7E0,1.6E1,1.7E1,1.2E1,5E0],"tree_param":{"num_deleted":"0","num_feature":"23","num_nodes":"9","size_leaf_vector":"1"}},{"base_weights":[-9.6259605E1,-2.2823537E2,1.9301437E2,-3.7168848E2,-9.008567E1,-6.0163856E0,2.3391012E1,-2.5150808E1,-1.0280525E1,-1.048736E1,4.769546E0],"categories":[],"categories_nodes":[],"categories_segments":[],"categories_sizes":[],"default_left":[0,0,0,1,0,0,0,0,0,0,0],"id":44,"left_children":[1,3,5,7,9,-1,-1,-1,-1,-1,-1],"loss_changes":[1.6122714E6,5.143565E5,1.2470726E6,1.3895112E5,3.9627694E5,0E0,0E0,0E0,0E0,0E0,0E0],"parents":[2147483647,0,0,1,1,2,2,3,3,4,4],"right_children":[2,4,6,8,10,-1,-1,-1,-1,-1,-1],"split_conditions":[3E0,2E0,3.636E1,4E1,4.8E1,-6.0163856E0,2.3391012E1,-2.5150808E1,-1.0280525E1,-1.048736E1,4.769546E0],"split_indices":[16,16,12,4,4,0,0,0,0,0,0],"split_type":[0,0,0,0,0,0,0,0,0,0,0],"sum_hessian":[3.9E1,2.7E1,1.2E1,1.2E1,1.5E1,6E0,6E0,5E0,7E0,9E0,6E0],"tree_param":{"num_deleted":"0","num_feature":"23","num_nodes":"11","size_leaf_vector":"1"}},{"base_weights":[-5.476364E1,-2.0906258E2,1.9799802E2,-1.2009795E1,-6.854027E0,2.0167109E1,-3.3193147E0],"categories":[],"categories_nodes":[],"categories_segments":[],"categories_sizes":[],"default_left":[0,0,1,0,0,0,0],"id":45,"left_children":[1,3,5,-1,-1,-1,-1],"loss_changes":[1.6806319E6,9.809625E3,9.3611425E5,0E0,0E0,0E0,0E0],"parents":[2147483647,0,0,1,1,2,2],"right_children":[2,4,6,-1,-1,-1,-1],"split_conditions":[9.09E1,2.01E1,3E-1,-1.2009795E1,-6.854027E0,2.0167109E1,-3.3193147E0],"split_indices":[14,14,5,0,0,0,0],"split_type":[0,0,0,0,0,0,0],"sum_hessian":[4E1,2.5E1,1.5E1,1.5E1,1E1,8E0,7E0],"tree_param":{"num_deleted":"0","num_feature":"23","num_nodes":"7","size_leaf_vector":"1"}},{"base_weights":[2.246599E1,-1.464607E2,3.9184937E1,-7.086767E1,-2.2233582E1,-1.8189267E2,1.3732727E1,-1.1461623E1,-5.715277E0],"categories":[],"categories_nodes":[],"categories_segments":[],"categories_sizes":[],"default_left":[0,0,0,0,0,0,0,0,0],"id":46,"left_children":[1,3,-1,5,-1,7,-1,-1,-1],"loss_changes":[6.023449E6,8.2036556E5,0E0,1.3216421E6,0E0,4.211325E4,0E0,0E0,0E0],"parents":[2147483647,0,0,1,1,3,3,5,5],"right_children":[2,4,-1,6,-1,8,-1,-1,-1],"split_conditions":[3.6946E3,2.4375E1,3.9184937E1,9.09E1,-2.2233582E1,1.75E1,1.3732727E1,-1.1461623E1,-5.715277E0],"split_indices":[14,10,0,14,0,14,0,0,0],"split_type":[0,0,0,0,0,0,0,0,0],"sum_hessian":[4.4E1,3.7E1,7E0,3.1E1,6E0,2.4E1,7E0,1.2E1,1.2E1],"tree_param":{"num_deleted":"0","num_feature":"23","num_nodes":"9","size_leaf_vector":"1"}},{"base_weights":[1.03485275E2,-1.16272644E2,4.1950077E1,-2.0230374E2,8.114025E0,-2.5879987E2,-7.443204E-1,-1.7448774E1,-8.319223E0],"categories":[],"categories_nodes":[],"categories_segments":[],"categories_sizes":[],"default_left":[0,0,0,0,0,0,0,0,0],"id":47,"left_children":[1,3,-1,5,-1,7,-1,-1,-1],"loss_changes":[6.6929295E6,8.2810244E5,0E0,2.6408712E5,0E0,7.515175E4,0E0,0E0,0E0],"parents":[2147483647,0,0,1,1,3,3,5,5],"right_children":[2,4,-1,6,-1,8,-1,-1,-1],"split_conditions":[9E-1,1E1,4.1950077E1,6E-1,8.114025E0,4.4E1,-7.443204E-1,-1.7448774E1,-8.319223E0],"split_indices":[5,19,0,5,0,4,0,0,0],"split_type":[0,0,0,0,0,0,0,0,0],"sum_hessian":[3.9E1,3.1E1,8E0,2.4E1,7E0,1.8E1,6E0,7E0,1.1E1],"tree_param":{"num_deleted":"0","num_feature":"23","num_nodes":"9","size_leaf_vector":"1"}},{"base_weights":[9.507762E1,-8.979708E1,4.8792618E1,-1.6675128E2,1.2052136E1,-1.0572371E1,-2.5680702E0],"categories":[],"categories_nodes":[],"categories_segments":[],"categories_sizes":[],"default_left":[0,1,0,0,0,0,0],"id":48,"left_children":[1,3,-1,5,-1,-1,-1],"loss_changes":[7.0522875E6,9.8952625E5,0E0,1.4088144E5,0E0,0E0,0E0],"parents":[2147483647,0,0,1,1,3,3],"right_children":[2,4,-1,6,-1,-1,-1],"split_conditions":[5.278E2,3.636E1,4.8792618E1,8E0,1.2052136E1,-1.0572371E1,-2.5680702E0],"split_indices":[0,12,0,1,0,0,0],"split_type":[0,0,0,0,0,0,0],"sum_hessian":[4.1E1,3.5E1,6E0,2.9E1,6E0,2E1,9E0],"tree_param":{"num_deleted":"0","num_feature":"23","num_nodes":"7","size_leaf_vector":"1"}},{"base_weights":[8.622207E1,-9.185058E1,6.153614E1,-2.2000487E2,7.620357E1,-1.4014437E1,-1.4939993E2,1.6624865E1,-1.4541345E2,-9.017998E0,-4.218262E0,-2.8385315E0,-1.002112E1],"categories":[],"categories_nodes":[],"categories_segments":[],"categories_sizes":[],"default_left":[0,0,0,0,0,0,0,0,0,0,0,0,0],"id":49,"left_children":[1,3,-1,5,7,-1,9,-1,11,-1,-1,-1,-1],"loss_changes":[9.850835E6,9.40536E5,0E0,4.125275E4,1.1801995E6,0E0,6.238875E3,0E0,3.8879953E4,0E0,0E0,0E0,0E0],"parents":[2147483647,0,0,1,1,3,3,4,4,6,6,8,8],"right_children":[2,4,-1,6,8,-1,10,-1,12,-1,-1,-1,-1],"split_conditions":[1.5834E3,1E1,6.153614E1,4E0,2E0,-1.4014437E1,1.75E1,1.6624865E1,2.727E2,-9.017998E0,-4.218262E0,-2.8385315E0,-1.002112E1],"split_indices":[14,19,0,1,3,0,14,0,14,0,0,0,0],"split_type":[0,0,0,0,0,0,0,0,0,0,0,0,0],"sum_hessian":[4.6E1,4.1E1,5E0,2.3E1,1.8E1,1E1,1.3E1,8E0,1E1,7E0,6E0,5E0,5E0],"tree_param":{"num_deleted":"0","num_feature":"23","num_nodes":"13","size_leaf_vector":"1"}},{"base_weights":[3.3290554E1,-1.09743095E2,4.567539E1,-2.1870535E2,1.0822211E2,-1.5575429E2,-2.124023E1,-5.77259E0,1.9989391E1,-9.638175E0,-4.1147447E0],"categories":[],"categories_nodes":[],"categories_segments":[],"categories_sizes":[],"default_left":[1,0,0,0,0,0,0,0,0,0,0],"id":50,"left_children":[1,3,-1,5,7,9,-1,-1,-1,-1,-1],"loss_changes":[6.7605645E6,1.1399325E6,0E0,3.0914825E5,1.1454348E6,4.8112125E4,0E0,0E0,0E0,0E0,0E0],"parents":[2147483647,0,0,1,1,3,3,4,4,5,5],"right_children":[2,4,-1,6,8,10,-1,-1,-1,-1,-1],"split_conditions":[9E-1,1E1,4.567539E1,2.67E1,2.727E2,1.75E1,-2.124023E1,-5.77259E0,1.9989391E1,-9.638175E0,-4.1147447E0],"split_indices":[5,19,0,0,14,14,0,0,0,0,0],"split_type":[0,0,0,0,0,0,0,0,0,0,0],"sum_hessian":[5.1E1,4.5E1,6E0,3E1,1.5E1,2.5E1,5E0,9E0,6E0,1.5E1,1E1],"tree_param":{"num_deleted":"0","num_feature":"23","num_nodes":"11","size_leaf_vector":"1"}},{"base_weights":[5.1464565E1,-7.966874E1,4.8888626E1,-1.804503E2,8.746958E1,-1.3444159E2,-1.2801524E1,-7.5670304E0,1.2630794E1,-8.58021E0,-3.9849823E0],"categories":[],"categories_nodes":[],"categories_segments":[],"categories_sizes":[],"default_left":[1,0,0,0,0,0,0,0,0,0,0],"id":51,"left_children":[1,3,-1,5,7,9,-1,-1,-1,-1,-1],"loss_changes":[6.3729915E6,8.0698975E5,0E0,5.075475E4,7.8701156E5,2.3097719E4,0E0,0E0,0E0,0E0,0E0],"parents":[2147483647,0,0,1,1,3,3,4,4,5,5],"right_children":[2,4,-1,6,8,10,-1,-1,-1,-1,-1],"split_conditions":[9E-1,1E1,4.8888626E1,3.3375E0,1.869E2,2.01E1,-1.2801524E1,-7.5670304E0,1.2630794E1,-8.58021E0,-3.9849823E0],"split_indices":[5,19,0,10,14,14,0,0,0,0,0],"split_type":[0,0,0,0,0,0,0,0,0,0,0],"sum_hessian":[5E1,4.5E1,5E0,2.8E1,1.7E1,2E1,8E0,7E0,1E1,1E1,1E1],"tree_param":{"num_deleted":"0","num_feature":"23","num_nodes":"11","size_leaf_vector":"1"}},{"base_weights":[1.036545E2,-5.447976E1,5.2039043E1,-1.3174336E2,1.5073015E1,-2.3197256E2,-4.1914253E1,-1.5038617E1,-6.1088815E0,-1.0542867E2,5.468368E0,-6.5061545E0,-2.2465112E0],"categories":[],"categories_nodes":[],"categories_segments":[],"categories_sizes":[],"default_left":[0,0,0,0,0,1,0,0,0,0,0,0,0],"id":52,"left_children":[1,3,-1,5,-1,7,9,-1,-1,11,-1,-1,-1],"loss_changes":[6.6800805E6,1.145786E6,0E0,2.868958E5,0E0,6.1752E4,2.046607E5,0E0,0E0,1.2805406E4,0E0,0E0,0E0],"parents":[2147483647,0,0,1,1,3,3,5,5,6,6,9,9],"right_children":[2,4,-1,6,-1,8,10,-1,-1,12,-1,-1,-1],"split_conditions":[3.6946E3,6.363E2,5.2039043E1,4E0,1.5073015E1,3E0,2.125E0,-1.5038617E1,-6.1088815E0,8.375E-1,5.468368E0,-6.5061545E0,-2.2465112E0],"split_indices":[14,14,0,1,0,6,10,0,0,10,0,0,0],"split_type":[0,0,0,0,0,0,0,0,0,0,0,0,0],"sum_hessian":[4.3E1,3.8E1,5E0,3.2E1,6E0,1.4E1,1.8E1,7E0,7E0,1.3E1,5E0,8E0,5E0],"tree_param":{"num_deleted":"0","num_feature":"23","num_nodes":"13","size_leaf_vector":"1"}},{"base_weights":[7.625404E1,-7.2606606E1,4.7022346E1,-1.8855565E2,9.910324E1,-1.1599563E1,-6.8781023E0,-5.396765E0,1.3437652E1],"categories":[],"categories_nodes":[],"categories_segments":[],"categories_sizes":[],"default_left":[0,0,0,0,0,0,0,0,0],"id":53,"left_children":[1,3,-1,5,7,-1,-1,-1,-1],"loss_changes":[5.6988855E6,7.945937E5,0E0,3.9965625E3,6.23139E5,0E0,0E0,0E0,0E0],"parents":[2147483647,0,0,1,1,3,3,4,4],"right_children":[2,4,-1,6,8,-1,-1,-1,-1],"split_conditions":[6.75584E4,1E1,4.7022346E1,4.096E3,2.727E2,-1.1599563E1,-6.8781023E0,-5.396765E0,1.3437652E1],"split_indices":[11,19,0,2,14,0,0,0,0],"split_type":[0,0,0,0,0,0,0,0,0],"sum_hessian":[4.2E1,3.7E1,5E0,2.2E1,1.5E1,9E0,1.3E1,7E0,8E0],"tree_param":{"num_deleted":"0","num_feature":"23","num_nodes":"9","size_leaf_vector":"1"}},{"base_weights":[6.452235E1,-9.138886E1,4.6260544E1,-1.0031653E1,-1.0016934E1,1.2252858E2,-1.3079677E2,-4.976182E0,1.5819095E1,-3.4953983E0,-8.539615E0],"categories":[],"categories_nodes":[],"categories_segments":[],"categories_sizes":[],"default_left":[0,0,0,0,0,0,0,0,0,0,0],"id":54,"left_children":[1,3,-1,-1,5,7,9,-1,-1,-1,-1],"loss_changes":[5.696174E6,3.213436E5,0E0,0E0,3.8424222E5,5.423635E5,1.2411031E4,0E0,0E0,0E0,0E0],"parents":[2147483647,0,0,1,1,4,4,5,5,6,6],"right_children":[2,4,-1,-1,6,8,10,-1,-1,-1,-1],"split_conditions":[1.56E3,4E0,4.6260544E1,-1.0031653E1,2E0,4.02E0,3.35E0,-4.976182E0,1.5819095E1,-3.4953983E0,-8.539615E0],"split_indices":[14,1,0,0,3,12,10,0,0,0,0],"split_type":[0,0,0,0,0,0,0,0,0,0,0],"sum_hessian":[4E1,3.5E1,5E0,1.4E1,2.1E1,1E1,1.1E1,5E0,5E0,6E0,5E0],"tree_param":{"num_deleted":"0","num_feature":"23","num_nodes":"11","size_leaf_vector":"1"}},{"base_weights":[1.5265454E2,-6.509958E1,4.2531536E1,-1.7869717E2,1.5572629E2,-1.4161888E1,-8.5239296E1,-5.8122987E-1,1.4360863E1,-6.6568513E0,-1.4281382E-1],"categories":[],"categories_nodes":[],"categories_segments":[],"categories_sizes":[],"default_left":[0,0,0,0,0,0,0,0,0,0,0],"id":55,"left_children":[1,3,-1,5,7,-1,9,-1,-1,-1,-1],"loss_changes":[6.08695E6,8.319399E5,0E0,1.7365931E5,2.58205E5,0E0,5.263203E4,0E0,0E0,0E0,0E0],"parents":[2147483647,0,0,1,1,3,3,4,4,6,6],"right_children":[2,4,-1,6,8,-1,10,-1,-1,-1,-1],"split_conditions":[9E-1,1E1,4.2531536E1,4E0,9.09E1,-1.4161888E1,6.7E0,-5.8122987E-1,1.4360863E1,-6.6568513E0,-1.4281382E-1],"split_indices":[5,19,0,1,0,0,0,0,0,0,0],"split_type":[0,0,0,0,0,0,0,0,0,0,0],"sum_hessian":[3.8E1,3E1,8E0,2E1,1E1,8E0,1.2E1,5E0,5E0,7E0,5E0],"tree_param":{"num_deleted":"0","num_feature":"23","num_nodes":"11","size_leaf_vector":"1"}},{"base_weights":[-1.3787735E0,-2.1636392E2,5.315469E2,-1.1974505E2,-2.3144056E1,5.316099E1,-6.135689E0,-2.9078455E0,-7.094936E0],"categories":[],"categories_nodes":[],"categories_segments":[],"categories_sizes":[],"default_left":[0,0,1,0,0,0,0,0,0],"id":56,"left_children":[1,3,5,7,-1,-1,-1,-1,-1],"loss_changes":[4.5833415E6,5.953861E5,4.196484E6,1.8220469E4,0E0,0E0,0E0,0E0,0E0],"parents":[2147483647,0,0,1,1,2,2,3,3],"right_children":[2,4,6,8,-1,-1,-1,-1,-1],"split_conditions":[3E0,9.75E1,4E1,1.024E3,-2.3144056E1,5.316099E1,-6.135689E0,-2.9078455E0,-7.094936E0],"split_indices":[16,0,4,2,0,0,0,0,0],"split_type":[0,0,0,0,0,0,0,0,0],"sum_hessian":[3.7E1,2.7E1,1E1,2.1E1,6E0,5E0,5E0,7E0,1.4E1],"tree_param":{"num_deleted":"0","num_feature":"23","num_nodes":"9","size_leaf_vector":"1"}},{"base_weights":[-8.009095E1,-1.3842361E1,-1.6444998E1,-1.03527885E2,1.5517717E1,-6.2469983E0,-1.3000672E0],"categories":[],"categories_nodes":[],"categories_segments":[],"categories_sizes":[],"default_left":[0,0,0,0,0,0,0],"id":57,"left_children":[1,3,-1,5,-1,-1,-1],"loss_changes":[7.429871E5,1.1384329E6,0E0,4.568172E4,0E0,0E0,0E0],"parents":[2147483647,0,0,1,1,3,3],"right_children":[2,4,-1,6,-1,-1,-1],"split_conditions":[4.875E1,2.727E2,-1.6444998E1,5.95E1,1.5517717E1,-6.2469983E0,-1.3000672E0],"split_indices":[10,14,0,14,0,0,0],"split_type":[0,0,0,0,0,0,0],"sum_hessian":[4.4E1,3.6E1,8E0,2.9E1,7E0,2.2E1,7E0],"tree_param":{"num_deleted":"0","num_feature":"23","num_nodes":"7","size_leaf_vector":"1"}},{"base_weights":[-1.03788666E2,-1.6348082E2,6.780328E0,-1.0204863E2,-1.7027548E1,-1.2002498E2,-1.3821607E0,-6.911161E0,-3.9716594E0],"categories":[],"categories_nodes":[],"categories_segments":[],"categories_sizes":[],"default_left":[0,0,0,0,0,0,0,0,0],"id":58,"left_children":[1,3,-1,5,-1,7,-1,-1,-1],"loss_changes":[6.548834E5,3.338117E5,0E0,3.3069156E4,0E0,4.265625E1,0E0,0E0,0E0],"parents":[2147483647,0,0,1,1,3,3,5,5],"right_children":[2,4,-1,6,-1,8,-1,-1,-1],"split_conditions":[9E-1,2.925E2,6.780328E0,5.95E1,-1.7027548E1,9.9E0,-1.3821607E0,-6.911161E0,-3.9716594E0],"split_indices":[5,14,0,14,0,14,0,0,0],"split_type":[0,0,0,0,0,0,0,0,0],"sum_hessian":[4.2E1,3.4E1,8E0,2.7E1,7E0,2.1E1,6E0,1.2E1,9E0],"tree_param":{"num_deleted":"0","num_feature":"23","num_nodes":"9","size_leaf_vector":"1"}},{"base_weights":[-6.7467964E1,3.1116247E0,-1.2908767E1,-9.15412E1,2.0146238E1,-6.1427712E0,-2.9733036E0],"categories":[],"categories_nodes":[],"categories_segments":[],"categories_sizes":[],"default_left":[0,0,0,0,0,0,0],"id":59,"left_children":[1,3,-1,5,-1,-1,-1],"loss_changes":[5.733845E5,1.2853939E6,0E0,1.6571469E4,0E0,0E0,0E0],"parents":[2147483647,0,0,1,1,3,3],"right_children":[2,4,-1,6,-1,-1,-1],"split_conditions":[2.4375E1,9.09E1,-1.2908767E1,1.75E1,2.0146238E1,-6.1427712E0,-2.9733036E0],"split_indices":[10,0,0,14,0,0,0],"split_type":[0,0,0,0,0,0,0],"sum_hessian":[4.1E1,3.1E1,1E1,2.6E1,5E0,1.1E1,1.5E1],"tree_param":{"num_deleted":"0","num_feature":"23","num_nodes":"7","size_leaf_vector":"1"}},{"base_weights":[-5.075019E1,-1.7911874E2,1.23339264E2,-5.965974E0,-1.5855227E1,1.9207432E1,-9.217284E0],"categories":[],"categories_nodes":[],"categories_segments":[],"categories_sizes":[],"default_left":[0,0,0,0,0,0,0],"id":60,"left_children":[1,3,5,-1,-1,-1,-1],"loss_changes":[9.605924E5,1.4518719E5,1.5908956E6,0E0,0E0,0E0,0E0],"parents":[2147483647,0,0,1,1,2,2],"right_children":[2,4,6,-1,-1,-1,-1],"split_conditions":[1E1,2.125E0,2E0,-5.965974E0,-1.5855227E1,1.9207432E1,-9.217284E0],"split_indices":[19,10,3,0,0,0,0],"split_type":[0,0,0,0,0,0,0],"sum_hessian":[4E1,2.3E1,1.7E1,1.8E1,5E0,9E0,8E0],"tree_param":{"num_deleted":"0","num_feature":"23","num_nodes":"7","size_leaf_vector":"1"}},{"base_weights":[-8.178073E1,-2.1640088E2,2.1889605E1,-9.586247E1,-1.9501158E1,-8.011669E1,1.48197775E1,-5.8161597E0,-2.3453555E0,-1.3002316E2,1.6162924E0,-3.2367866E0,-7.705546E0],"categories":[],"categories_nodes":[],"categories_segments":[],"categories_sizes":[],"default_left":[0,0,0,0,0,0,0,0,0,0,0,0,0],"id":61,"left_children":[1,3,5,7,-1,9,-1,-1,-1,11,-1,-1,-1],"loss_changes":[6.282499E5,3.517732E5,7.7776275E5,5.2562344E3,0E0,1.2139153E5,0E0,0E0,0E0,7.7289375E3,0E0,0E0,0E0],"parents":[2147483647,0,0,1,1,2,2,3,3,5,5,9,9],"right_children":[2,4,6,8,-1,10,-1,-1,-1,12,-1,-1,-1],"split_conditions":[4E0,9.75E1,6E-1,8.5E0,-1.9501158E1,1E1,1.48197775E1,-5.8161597E0,-2.3453555E0,3E0,1.6162924E0,-3.2367866E0,-7.705546E0],"split_indices":[1,0,5,0,0,19,0,0,0,6,0,0,0],"split_type":[0,0,0,0,0,0,0,0,0,0,0,0,0],"sum_hessian":[4.3E1,1.8E1,2.5E1,1.2E1,6E0,1.9E1,6E0,7E0,5E0,1.3E1,6E0,5E0,8E0],"tree_param":{"num_deleted":"0","num_feature":"23","num_nodes":"13","size_leaf_vector":"1"}},{"base_weights":[-1.1789134E2,-5.277752E1,-2.4315022E1,2.2507065E1,-1.7155756E2,-8.496239E1,1.08488E1,-3.306963E0,-1.3535461E1,-5.167928E0,-2.3592763E0],"categories":[],"categories_nodes":[],"categories_segments":[],"categories_sizes":[],"default_left":[0,0,0,0,0,0,0,0,0,0,0],"id":62,"left_children":[1,3,-1,5,7,9,-1,-1,-1,-1,-1],"loss_changes":[1.0287211E6,3.590875E5,0E0,5.606547E5,1.34987E5,4.770797E3,0E0,0E0,0E0,0E0,0E0],"parents":[2147483647,0,0,1,1,3,3,4,4,5,5],"right_children":[2,4,-1,6,8,10,-1,-1,-1,-1,-1],"split_conditions":[2.639E2,4E0,-2.4315022E1,9.09E1,3.35E0,2E0,1.08488E1,-3.306963E0,-1.3535461E1,-5.167928E0,-2.3592763E0],"split_indices":[10,3,0,0,10,16,0,0,0,0,0],"split_type":[0,0,0,0,0,0,0,0,0,0,0],"sum_hessian":[4.3E1,3.8E1,5E0,2.4E1,1.4E1,1.6E1,8E0,8E0,6E0,9E0,7E0],"tree_param":{"num_deleted":"0","num_feature":"23","num_nodes":"11","size_leaf_vector":"1"}},{"base_weights":[6.7686035E1,-1.0272098E2,4.417648E1,-1.2995702E1,-4.489938E1,-8.1702194E1,3.7211132E0,-4.593036E0,-2.1473165E0],"categories":[],"categories_nodes":[],"categories_segments":[],"categories_sizes":[],"default_left":[0,1,0,0,0,0,0,0,0],"id":63,"left_children":[1,3,-1,-1,5,7,-1,-1,-1],"loss_changes":[6.0451085E6,3.1409678E5,0E0,0E0,1.3427845E5,2.8732812E3,0E0,0E0,0E0],"parents":[2147483647,0,0,1,1,4,4,5,5],"right_children":[2,4,-1,-1,6,8,-1,-1,-1],"split_conditions":[6.825E2,2.2E1,4.417648E1,-1.2995702E1,8.01E1,1E2,3.7211132E0,-4.593036E0,-2.1473165E0],"split_indices":[14,4,0,0,14,4,0,0,0],"split_type":[0,0,0,0,0,0,0,0,0],"sum_hessian":[4.1E1,3.5E1,6E0,8E0,2.7E1,2.1E1,6E0,1.5E1,6E0],"tree_param":{"num_deleted":"0","num_feature":"23","num_nodes":"9","size_leaf_vector":"1"}},{"base_weights":[2.6069159E1,-9.400554E1,3.564344E1,-3.6994347E1,-1.2807235E1,6.689659E0,-8.0060776E1,-4.7131143E0,-2.3805883E0],"categories":[],"categories_nodes":[],"categories_segments":[],"categories_sizes":[],"default_left":[1,0,0,0,0,0,0,0,0],"id":64,"left_children":[1,3,-1,5,-1,-1,7,-1,-1],"loss_changes":[3.6056882E6,3.3228006E5,0E0,2.3301916E5,0E0,0E0,4.487297E3,0E0,0E0],"parents":[2147483647,0,0,1,1,3,3,6,6],"right_children":[2,4,-1,6,-1,-1,8,-1,-1],"split_conditions":[9E-1,9.75E1,3.564344E1,6.2383246E0,-1.2807235E1,6.689659E0,3E-1,-4.7131143E0,-2.3805883E0],"split_indices":[5,0,0,21,0,0,5,0,0],"split_type":[0,0,0,0,0,0,0,0,0],"sum_hessian":[4.1E1,3.6E1,5E0,2.8E1,8E0,5E0,2.3E1,1.4E1,9E0],"tree_param":{"num_deleted":"0","num_feature":"23","num_nodes":"9","size_leaf_vector":"1"}},{"base_weights":[4.72366E1,-1.1974029E2,4.5863377E1,-8.473889E1,-1.3890383E1,-9.601814E1,-6.9581956E-1,-5.8327656E0,-3.4561608E0],"categories":[],"categories_nodes":[],"categories_segments":[],"categories_sizes":[],"default_left":[0,0,0,0,0,0,0,0,0],"id":65,"left_children":[1,3,-1,5,-1,7,-1,-1,-1],"loss_changes":[6.775165E6,1.8304388E5,0E0,2.550014E4,0E0,4.1852812E3,0E0,0E0,0E0],"parents":[2147483647,0,0,1,1,3,3,5,5],"right_children":[2,4,-1,6,-1,8,-1,-1,-1],"split_conditions":[6.363E2,9.75E1,4.5863377E1,9.09E1,-1.3890383E1,4.4E1,-6.9581956E-1,-5.8327656E0,-3.4561608E0],"split_indices":[14,0,0,14,0,4,0,0,0],"split_type":[0,0,0,0,0,0,0,0,0],"sum_hessian":[4.4E1,3.8E1,6E0,3.3E1,5E0,2.8E1,5E0,1.3E1,1.5E1],"tree_param":{"num_deleted":"0","num_feature":"23","num_nodes":"9","size_leaf_vector":"1"}},{"base_weights":[6.540891E1,3.0426197E1,-1.2476554E2,-4.9358406E1,-1.7303787E1,4.960182E0,-9.510793E1,-1.1608384E2,-2.3709219E0,-3.1129045E0,-6.9724693E0],"categories":[],"categories_nodes":[],"categories_segments":[],"categories_sizes":[],"default_left":[1,0,0,0,0,0,0,0,0,0,0],"id":66,"left_children":[1,-1,3,5,-1,-1,7,9,-1,-1,-1],"loss_changes":[4.1939465E6,0E0,4.831748E5,1.8066828E5,0E0,0E0,1.1167922E4,2.5972188E3,0E0,0E0,0E0],"parents":[2147483647,0,0,2,2,3,3,6,6,7,7],"right_children":[2,-1,4,6,-1,-1,8,10,-1,-1,-1],"split_conditions":[2.4E1,3.0426197E1,9.75E1,5.12E2,-1.7303787E1,4.960182E0,5.6E1,2E0,-2.3709219E0,-3.1129045E0,-6.9724693E0],"split_indices":[13,0,0,2,0,0,4,3,0,0,0],"split_type":[0,0,0,0,0,0,0,0,0,0,0],"sum_hessian":[3.8E1,9E0,2.9E1,2.3E1,6E0,5E0,1.8E1,1.1E1,7E0,5E0,6E0],"tree_param":{"num_deleted":"0","num_feature":"23","num_nodes":"11","size_leaf_vector":"1"}},{"base_weights":[6.326793E1,-5.418034E1,3.993033E1,9.128067E1,-1.8312169E2,-4.8837414E1,2.022103E1,-8.032011E1,-2.087797E1,-3.8376846E0,-1.2265757E0,-5.182512E0,-1.8633797E0],"categories":[],"categories_nodes":[],"categories_segments":[],"categories_sizes":[],"default_left":[0,0,0,0,0,0,0,0,0,0,0,0,0],"id":67,"left_children":[1,3,-1,5,7,9,-1,11,-1,-1,-1,-1,-1],"loss_changes":[4.0812132E6,8.0349056E5,0E0,9.2927356E5,4.9170612E5,7.642246E3,0E0,1.1712703E4,0E0,0E0,0E0,0E0,0E0],"parents":[2147483647,0,0,1,1,3,3,4,4,5,5,7,7],"right_children":[2,4,-1,6,8,10,-1,12,-1,-1,-1,-1,-1],"split_conditions":[3.6946E3,2E0,3.993033E1,2.727E2,2.925E2,1.75E1,2.022103E1,1.7E1,-2.087797E1,-3.8376846E0,-1.2265757E0,-5.182512E0,-1.8633797E0],"split_indices":[14,3,0,14,14,14,0,15,0,0,0,0,0],"split_type":[0,0,0,0,0,0,0,0,0,0,0,0,0],"sum_hessian":[4.5E1,4E1,5E0,1.9E1,2.1E1,1.4E1,5E0,1.6E1,5E0,5E0,9E0,9E0,7E0],"tree_param":{"num_deleted":"0","num_feature":"23","num_nodes":"13","size_leaf_vector":"1"}},{"base_weights":[3.666172E1,-1.6525223E2,3.6660132E2,-4.365588E1,-2.1354925E1,-4.9956937E0,5.2692818E1,4.686381E0,-4.548534E0,3.4248078E0,-5.0012245E0],"categories":[],"categories_nodes":[],"categories_segments":[],"categories_sizes":[],"default_left":[0,0,0,0,0,0,0,0,0,0,0],"id":68,"left_children":[1,3,5,7,-1,9,-1,-1,-1,-1,-1],"loss_changes":[3.2553948E6,9.429027E5,4.732987E6,1.5904444E5,0E0,1.0457457E5,0E0,0E0,0E0,0E0,0E0],"parents":[2147483647,0,0,1,1,2,2,3,3,5,5],"right_children":[2,4,6,8,-1,10,-1,-1,-1,-1,-1],"split_conditions":[3E0,9.75E1,9.75E1,5.12E2,-2.1354925E1,2E0,5.2692818E1,4.686381E0,-4.548534E0,3.4248078E0,-5.0012245E0],"split_indices":[16,0,0,2,0,3,0,0,0,0,0],"split_type":[0,0,0,0,0,0,0,0,0,0,0],"sum_hessian":[4.6E1,2.9E1,1.7E1,2.1E1,8E0,1.2E1,5E0,5E0,1.6E1,7E0,5E0],"tree_param":{"num_deleted":"0","num_feature":"23","num_nodes":"11","size_leaf_vector":"1"}},{"base_weights":[9.537814E1,-6.8723366E1,4.1561806E1,-1.4522995E2,6.638649E1,-4.1989126E0,-1.3827342E1,-1.9103483E0,7.888466E0],"categories":[],"categories_nodes":[],"categories_segments":[],"categories_sizes":[],"default_left":[0,0,0,0,0,0,0,0,0],"id":69,"left_children":[1,3,-1,5,7,-1,-1,-1,-1],"loss_changes":[4.976663E6,3.7112072E5,0E0,1.4595997E5,1.3813523E5,0E0,0E0,0E0,0E0],"parents":[2147483647,0,0,1,1,3,3,4,4],"right_children":[2,4,-1,6,8,-1,-1,-1,-1],"split_conditions":[9E-1,4.8E1,4.1561806E1,9.09E1,2.67E1,-4.1989126E0,-1.3827342E1,-1.9103483E0,7.888466E0],"split_indices":[5,4,0,0,0,0,0,0,0],"split_type":[0,0,0,0,0,0,0,0,0],"sum_hessian":[3.9E1,3.3E1,6E0,2.1E1,1.2E1,1.6E1,5E0,6E0,6E0],"tree_param":{"num_deleted":"0","num_feature":"23","num_nodes":"9","size_leaf_vector":"1"}},{"base_weights":[-2.0292733E0,-1.3779195E2,2.5992651E1,-7.804216E1,-1.7657469E1,-5.4725395E1,-1.0938394E2,-3.869518E0,-8.1048006E-1,-2.8237245E0,-6.848701E0],"categories":[],"categories_nodes":[],"categories_segments":[],"categories_sizes":[],"default_left":[0,0,0,0,0,0,0,0,0,0,0],"id":70,"left_children":[1,3,-1,5,-1,7,9,-1,-1,-1,-1],"loss_changes":[3.2601762E6,4.2810956E5,0E0,1.3227891E4,0E0,1.5967152E4,5.0873906E3,0E0,0E0,0E0,0E0],"parents":[2147483647,0,0,1,1,3,3,5,5,6,6],"right_children":[2,4,-1,6,-1,8,10,-1,-1,-1,-1],"split_conditions":[9E-1,9.75E1,2.5992651E1,4E0,-1.7657469E1,5.8176E3,5.8176E3,-3.869518E0,-8.1048006E-1,-2.8237245E0,-6.848701E0],"split_indices":[5,0,0,3,0,11,11,0,0,0,0],"split_type":[0,0,0,0,0,0,0,0,0,0,0],"sum_hessian":[4.3E1,3.5E1,8E0,2.9E1,6E0,1.9E1,1E1,1.1E1,8E0,5E0,5E0],"tree_param":{"num_deleted":"0","num_feature":"23","num_nodes":"11","size_leaf_vector":"1"}},{"base_weights":[-2.991119E1,-1.0449421E2,8.9825935E1,-1.6328337E2,-5.042718E1,1.0086246E1,-3.2097511E0,-1.2318964E1,-2.9271798E0,-2.8639834E0,-1.3294796E0],"categories":[],"categories_nodes":[],"categories_segments":[],"categories_sizes":[],"default_left":[0,0,0,0,0,0,0,0,0,0,0],"id":71,"left_children":[1,3,5,7,9,-1,-1,-1,-1,-1,-1],"loss_changes":[4.0255725E5,7.495253E4,3.211022E5,8.700472E4,3.6871875E2,0E0,0E0,0E0,0E0,0E0,0E0],"parents":[2147483647,0,0,1,1,2,2,3,3,4,4],"right_children":[2,4,6,8,10,-1,-1,-1,-1,-1,-1],"split_conditions":[1E1,4.4E1,2E0,9.010913E0,2.01E1,1.0086246E1,-3.2097511E0,-1.2318964E1,-2.9271798E0,-2.8639834E0,-1.3294796E0],"split_indices":[19,4,3,21,14,0,0,0,0,0,0],"split_type":[0,0,0,0,0,0,0,0,0,0,0],"sum_hessian":[4.2E1,2.6E1,1.6E1,1.1E1,1.5E1,9E0,7E0,5E0,6E0,1E1,5E0],"tree_param":{"num_deleted":"0","num_feature":"23","num_nodes":"11","size_leaf_vector":"1"}},{"base_weights":[4.403118E0,-1.7101907E2,3.850717E2,-4.4758602E1,-2.5235382E1,-3.5921724E0,4.820425E1,4.216221E0,-9.348751E1,-6.768663E0,-3.144788E0],"categories":[],"categories_nodes":[],"categories_segments":[],"categories_sizes":[],"default_left":[0,0,0,0,0,0,0,0,1,0,0],"id":72,"left_children":[1,3,5,7,-1,-1,-1,-1,9,-1,-1],"loss_changes":[3.0704972E6,1.292988E6,3.9404595E6,1.6593631E5,0E0,0E0,0E0,0E0,1.0834391E4,0E0,0E0],"parents":[2147483647,0,0,1,1,2,2,3,3,8,8],"right_children":[2,4,6,8,-1,-1,-1,-1,10,-1,-1],"split_conditions":[8E0,5.278E2,9.75E1,1E-1,-2.5235382E1,-3.5921724E0,4.820425E1,4.216221E0,2.55E0,-6.768663E0,-3.144788E0],"split_indices":[1,0,0,8,0,0,0,0,12,0,0],"split_type":[0,0,0,0,0,0,0,0,0,0,0],"sum_hessian":[4.3E1,3E1,1.3E1,2.3E1,7E0,8E0,5E0,6E0,1.7E1,5E0,1.2E1],"tree_param":{"num_deleted":"0","num_feature":"23","num_nodes":"11","size_leaf_vector":"1"}},{"base_weights":[4.9924145E1,-5.8879498E1,2.9201208E1,-1.09055244E2,5.308677E0,-1.7045013E2,9.230243E0,-3.836568E0,-1.5249361E1,3.1062248E0,-2.285857E0],"categories":[],"categories_nodes":[],"categories_segments":[],"categories_sizes":[],"default_left":[1,1,0,0,0,0,1,0,0,0,0],"id":73,"left_children":[1,3,-1,5,-1,7,9,-1,-1,-1,-1],"loss_changes":[2.5797165E6,3.2793188E5,0E0,2.1667319E5,0E0,2.1057475E5,3.7692043E4,0E0,0E0,0E0,0E0],"parents":[2147483647,0,0,1,1,3,3,5,5,6,6],"right_children":[2,4,-1,6,-1,8,10,-1,-1,-1,-1],"split_conditions":[9E-1,4E0,2.9201208E1,8E0,5.308677E0,9.09E1,3E-1,-3.836568E0,-1.5249361E1,3.1062248E0,-2.285857E0],"split_indices":[5,6,0,1,0,0,5,0,0,0,0],"split_type":[0,0,0,0,0,0,0,0,0,0,0],"sum_hessian":[4.2E1,3.6E1,6E0,2.8E1,8E0,1.8E1,1E1,1.2E1,6E0,5E0,5E0],"tree_param":{"num_deleted":"0","num_feature":"23","num_nodes":"11","size_leaf_vector":"1"}},{"base_weights":[4.5487743E1,-9.6112724E1,3.8242725E1,-2.1938742E1,-1.9954016E1,5.103296E0,-6.1833263E1,-7.744115E1,-1.120063E0,-4.558985E0,-2.2242038E0],"categories":[],"categories_nodes":[],"categories_segments":[],"categories_sizes":[],"default_left":[0,0,0,0,0,0,0,0,0,0,0],"id":74,"left_children":[1,3,-1,5,-1,-1,7,9,-1,-1,-1],"loss_changes":[4.0323155E6,7.394789E5,0E0,1.5043903E5,0E0,0E0,1.1195531E4,8.662422E2,0E0,0E0,0E0],"parents":[2147483647,0,0,1,1,3,3,6,6,7,7],"right_children":[2,4,-1,6,-1,-1,8,10,-1,-1,-1],"split_conditions":[9E-1,9.75E1,3.8242725E1,1.024E3,-1.9954016E1,5.103296E0,2.828427E0,9.5E-1,-1.120063E0,-4.558985E0,-2.2242038E0],"split_indices":[5,0,0,2,0,0,17,7,0,0,0],"split_type":[0,0,0,0,0,0,0,0,0,0,0],"sum_hessian":[3.7E1,3.2E1,5E0,2.7E1,5E0,6E0,2.1E1,1.4E1,7E0,8E0,6E0],"tree_param":{"num_deleted":"0","num_feature":"23","num_nodes":"11","size_leaf_vector":"1"}},{"base_weights":[6.524328E1,-4.5239872E1,3.0233854E1,-1.10141335E2,6.906673E1,-1.0279956E1,-6.2484837E1,-2.052337E0,1.0707012E1,-3.8987179E0,-7.9088926E-1],"categories":[],"categories_nodes":[],"categories_segments":[],"categories_sizes":[],"default_left":[0,0,0,0,0,0,0,0,0,0,0],"id":75,"left_children":[1,3,-1,5,7,-1,9,-1,-1,-1,-1],"loss_changes":[2.633841E6,2.896312E5,0E0,9.205069E4,2.4490212E5,0E0,1.1475758E4,0E0,0E0,0E0,0E0],"parents":[2147483647,0,0,1,1,3,3,4,4,6,6],"right_children":[2,4,-1,6,8,-1,10,-1,-1,-1,-1],"split_conditions":[9E-1,4.8E1,3.0233854E1,2.048E3,3.3375E0,-1.0279956E1,1.65E0,-2.052337E0,1.0707012E1,-3.8987179E0,-7.9088926E-1],"split_indices":[5,4,0,2,10,0,10,0,0,0,0],"split_type":[0,0,0,0,0,0,0,0,0,0,0],"sum_hessian":[4.2E1,3.6E1,6E0,2.3E1,1.3E1,6E0,1.7E1,8E0,5E0,1.2E1,5E0],"tree_param":{"num_deleted":"0","num_feature":"23","num_nodes":"11","size_leaf_vector":"1"}},{"base_weights":[-1.3029332E2,-1.6964453E1,-3.2389847E2,-6.744858E1,7.6929727E0,-2.0772123E1,-7.765114E0,-4.0878615E0,-1.5539097E0],"categories":[],"categories_nodes":[],"categories_segments":[],"categories_sizes":[],"default_left":[0,0,0,0,0,0,0,0,0],"id":76,"left_children":[1,3,5,7,-1,-1,-1,-1,-1],"loss_changes":[8.58259E5,2.4405642E5,1.26728375E5,7.321133E3,0E0,0E0,0E0,0E0,0E0],"parents":[2147483647,0,0,1,1,2,2,3,3],"right_children":[2,4,6,8,-1,-1,-1,-1,-1],"split_conditions":[1.335E1,1.335E1,9E-1,4.8E1,7.6929727E0,-2.0772123E1,-7.765114E0,-4.0878615E0,-1.5539097E0],"split_indices":[10,12,9,4,0,0,0,0,0],"split_type":[0,0,0,0,0,0,0,0,0],"sum_hessian":[3.8E1,2.5E1,1.3E1,2E1,5E0,7E0,6E0,1.3E1,7E0],"tree_param":{"num_deleted":"0","num_feature":"23","num_nodes":"9","size_leaf_vector":"1"}},{"base_weights":[2.6987166E0,-1.07945885E2,3.1173243E1,-1.4070959E1,-1.6917017E1,-5.4828903E1,6.5092235E0,-4.0435615E0,-2.8444622E1,-1.8791357E0,-4.9268705E-1],"categories":[],"categories_nodes":[],"categories_segments":[],"categories_sizes":[],"default_left":[0,0,0,0,0,0,0,0,0,0,0],"id":77,"left_children":[1,3,-1,5,-1,7,-1,-1,9,-1,-1],"loss_changes":[2.9516118E6,7.821142E5,0E0,1.7235688E5,0E0,1.1954742E4,0E0,0E0,1.7142354E3,0E0,0E0],"parents":[2147483647,0,0,1,1,3,3,5,5,8,8],"right_children":[2,4,-1,6,-1,8,-1,-1,10,-1,-1],"split_conditions":[3.6946E3,2.925E2,3.1173243E1,5.95E1,-1.6917017E1,4E0,6.5092235E0,-4.0435615E0,2.31E1,-1.8791357E0,-4.9268705E-1],"split_indices":[14,14,0,14,0,1,0,0,14,0,0],"split_type":[0,0,0,0,0,0,0,0,0,0,0],"sum_hessian":[4E1,3.5E1,5E0,2.6E1,9E0,2.1E1,5E0,9E0,1.2E1,7E0,5E0],"tree_param":{"num_deleted":"0","num_feature":"23","num_nodes":"11","size_leaf_vector":"1"}},{"base_weights":[5.244251E1,-8.140076E1,3.0899275E1,-8.7689E0,-1.5952617E1,-5.3610138E1,8.109737E0,-3.3047788E0,-6.012018E-1],"categories":[],"categories_nodes":[],"categories_segments":[],"categories_sizes":[],"default_left":[1,0,0,0,0,0,0,0,0],"id":78,"left_children":[1,3,-1,5,-1,7,-1,-1,-1],"loss_changes":[3.368419E6,6.2566875E5,0E0,2.3914219E5,0E0,1.1489742E4,0E0,0E0,0E0],"parents":[2147483647,0,0,1,1,3,3,5,5],"right_children":[2,4,-1,6,-1,8,-1,-1,-1],"split_conditions":[8E-1,9.75E1,3.0899275E1,9.09E1,-1.5952617E1,8E0,8.109737E0,-3.3047788E0,-6.012018E-1],"split_indices":[5,0,0,0,0,1,0,0,0],"split_type":[0,0,0,0,0,0,0,0,0],"sum_hessian":[4.2E1,3.5E1,7E0,2.8E1,7E0,2.3E1,5E0,1.7E1,6E0],"tree_param":{"num_deleted":"0","num_feature":"23","num_nodes":"9","size_leaf_vector":"1"}},{"base_weights":[-1.0504872E2,-3.802961E1,-1.6467405E1,-7.775574E1,6.817969E0,-1.1293875E2,4.3483973E-1,-3.3735464E0,-9.515677E0],"categories":[],"categories_nodes":[],"categories_segments":[],"categories_sizes":[],"default_left":[1,1,0,0,0,0,0,0,0],"id":79,"left_children":[1,3,-1,5,-1,7,-1,-1,-1],"loss_changes":[6.800329E5,2.7566725E5,0E0,9.733775E4,0E0,5.9766594E4,0E0,0E0,0E0],"parents":[2147483647,0,0,1,1,3,3,5,5],"right_children":[2,4,-1,6,-1,8,-1,-1,-1],"split_conditions":[7E-1,3.636E1,-1.6467405E1,8E0,6.817969E0,4.69E1,4.3483973E-1,-3.3735464E0,-9.515677E0],"split_indices":[9,12,0,1,0,14,0,0,0],"split_type":[0,0,0,0,0,0,0,0,0],"sum_hessian":[4.5E1,3.6E1,9E0,3E1,6E0,2.1E1,9E0,1.5E1,6E0],"tree_param":{"num_deleted":"0","num_feature":"23","num_nodes":"9","size_leaf_vector":"1"}},{"base_weights":[5.37966E1,-5.598147E1,3.7117485E1,-2.507919E0,-1.1782714E1,-5.3514317E1,9.247523E0,-6.269388E1,-1.30849E0,-4.000787E0,-1.5886829E0],"categories":[],"categories_nodes":[],"categories_segments":[],"categories_sizes":[],"default_left":[0,0,0,0,0,0,0,0,0,0,0],"id":80,"left_children":[1,3,-1,5,-1,7,-1,9,-1,-1,-1],"loss_changes":[3.5775232E6,3.9771575E5,0E0,3.350933E5,0E0,4.397336E3,0E0,6.574625E3,0E0,0E0,0E0],"parents":[2147483647,0,0,1,1,3,3,5,5,7,7],"right_children":[2,4,-1,6,-1,8,-1,10,-1,-1,-1],"split_conditions":[1.56E3,2.4375E1,3.7117485E1,9.09E1,-1.1782714E1,2.828427E0,9.247523E0,4.4E1,-1.30849E0,-4.000787E0,-1.5886829E0],"split_indices":[14,10,0,0,0,17,0,4,0,0,0],"split_type":[0,0,0,0,0,0,0,0,0,0,0],"sum_hessian":[4.5E1,4E1,5E0,3.2E1,8E0,2.6E1,6E0,1.8E1,8E0,1E1,8E0],"tree_param":{"num_deleted":"0","num_feature":"23","num_nodes":"11","size_leaf_vector":"1"}},{"base_weights":[-7.692512E1,-5.206253E0,-2.3691063E2,-5.5329678E1,9.242251E0,-1.5109598E1,-6.6442347E0,-3.4250317E0,-1.3967489E0],"categories":[],"categories_nodes":[],"categories_segments":[],"categories_sizes":[],"default_left":[0,0,0,0,0,0,0,0,0],"id":81,"left_children":[1,3,5,7,-1,-1,-1,-1,-1],"loss_changes":[4.6272506E5,2.96294E5,2.4434375E4,5.9213906E3,0E0,0E0,0E0,0E0,0E0],"parents":[2147483647,0,0,1,1,2,2,3,3],"right_children":[2,4,6,8,-1,-1,-1,-1,-1],"split_conditions":[9.75E1,9.09E1,3.6E3,4.8E1,9.242251E0,-1.5109598E1,-6.6442347E0,-3.4250317E0,-1.3967489E0],"split_indices":[0,14,12,4,0,0,0,0,0],"split_type":[0,0,0,0,0,0,0,0,0],"sum_hessian":[3.9E1,2.8E1,1.1E1,2.3E1,5E0,5E0,6E0,1.4E1,9E0],"tree_param":{"num_deleted":"0","num_feature":"23","num_nodes":"9","size_leaf_vector":"1"}},{"base_weights":[1.5907401E1,-9.536768E1,3.0146366E1,-2.0472551E2,-2.337292E1,-2.114379E0,-1.46377945E1,-6.2718876E1,4.3937664E0,-4.019331E0,-1.4883579E0],"categories":[],"categories_nodes":[],"categories_segments":[],"categories_sizes":[],"default_left":[0,0,0,0,0,0,0,0,0,0,0],"id":82,"left_children":[1,3,-1,5,7,-1,-1,9,-1,-1,-1],"loss_changes":[2.6666705E6,2.643335E5,0E0,1.743055E5,1.06740875E5,0E0,0E0,6.543797E3,0E0,0E0,0E0],"parents":[2147483647,0,0,1,1,3,3,4,4,7,7],"right_children":[2,4,-1,6,8,-1,-1,10,-1,-1,-1],"split_conditions":[3.6946E3,1.024E3,3.0146366E1,2E0,5.95E1,-2.114379E0,-1.46377945E1,4.4E1,4.3937664E0,-4.019331E0,-1.4883579E0],"split_indices":[14,2,0,3,14,0,0,4,0,0,0],"split_type":[0,0,0,0,0,0,0,0,0,0,0],"sum_hessian":[3.8E1,3.3E1,5E0,1.2E1,2.1E1,5E0,7E0,1.6E1,5E0,9E0,7E0],"tree_param":{"num_deleted":"0","num_feature":"23","num_nodes":"11","size_leaf_vector":"1"}},{"base_weights":[4.6999435E1,-1.4560744E2,3.5667352E2,-2.2014795E1,-2.435986E1,-1.5401386E0,4.397679E1,-6.5836174E1,3.086046E0,-1.5756319E0,-4.424137E0],"categories":[],"categories_nodes":[],"categories_segments":[],"categories_sizes":[],"default_left":[0,0,0,1,0,0,0,0,0,0,0],"id":83,"left_children":[1,3,5,7,-1,-1,-1,9,-1,-1,-1],"loss_changes":[2.7322252E6,1.1868695E6,3.5865055E6,8.865909E4,0E0,0E0,0E0,7.805828E3,0E0,0E0,0E0],"parents":[2147483647,0,0,1,1,2,2,3,3,7,7],"right_children":[2,4,6,8,-1,-1,-1,10,-1,-1,-1],"split_conditions":[8E0,6.5975E1,3.35E0,9.5E-1,-2.435986E1,-1.5401386E0,4.397679E1,4E0,3.086046E0,-1.5756319E0,-4.424137E0],"split_indices":[1,10,10,7,0,0,0,1,0,0,0],"split_type":[0,0,0,0,0,0,0,0,0,0,0],"sum_hessian":[4.3E1,2.7E1,1.6E1,2.1E1,6E0,1E1,6E0,1.4E1,7E0,7E0,7E0],"tree_param":{"num_deleted":"0","num_feature":"23","num_nodes":"11","size_leaf_vector":"1"}},{"base_weights":[2.3299698E1,-7.767226E1,3.3910053E1,-2.8897505E1,-1.705319E1,-5.7314148E1,2.6156993E0,-3.9303547E1,-5.456307E0,-2.858375E0,-1.9493233E-1],"categories":[],"categories_nodes":[],"categories_segments":[],"categories_sizes":[],"default_left":[0,0,0,0,0,0,0,0,0,0,0],"id":84,"left_children":[1,3,-1,5,-1,7,-1,9,-1,-1,-1],"loss_changes":[3.2203335E6,5.3102256E5,0E0,9.104092E4,0E0,2.0087422E4,0E0,1.449823E4,0E0,0E0,0E0],"parents":[2147483647,0,0,1,1,3,3,5,5,7,7],"right_children":[2,4,-1,6,-1,8,-1,10,-1,-1,-1],"split_conditions":[1.5834E3,4.875E1,3.3910053E1,1.21875E1,-1.705319E1,3.35E0,2.6156993E0,2.31E1,-5.456307E0,-2.858375E0,-1.9493233E-1],"split_indices":[14,10,0,10,0,10,0,14,0,0,0],"split_type":[0,0,0,0,0,0,0,0,0,0,0],"sum_hessian":[4.6E1,4.1E1,5E0,3.6E1,5E0,2.7E1,9E0,2.2E1,5E0,1.4E1,8E0],"tree_param":{"num_deleted":"0","num_feature":"23","num_nodes":"11","size_leaf_vector":"1"}},{"base_weights":[1.3429495E1,-1.1477491E2,3.059909E1,-8.516343E0,-2.194323E1,-4.7818035E1,5.563856E0,-2.8856876E0,-1.5521775E0],"categories":[],"categories_nodes":[],"categories_segments":[],"categories_sizes":[],"default_left":[0,0,0,0,0,0,0,0,0],"id":85,"left_children":[1,3,-1,5,-1,7,-1,-1,-1],"loss_changes":[2.829774E6,1.0445078E6,0E0,1.2329795E5,0E0,5.0507422E2,0E0,0E0,0E0],"parents":[2147483647,0,0,1,1,3,3,5,5],"right_children":[2,4,-1,6,-1,8,-1,-1,-1],"split_conditions":[3.6946E3,7E-1,3.059909E1,3.3375E0,-2.194323E1,9.5E-1,5.563856E0,-2.8856876E0,-1.5521775E0],"split_indices":[14,9,0,10,0,7,0,0,0],"split_type":[0,0,0,0,0,0,0,0,0],"sum_hessian":[3.4E1,2.9E1,5E0,2.3E1,6E0,1.8E1,5E0,9E0,9E0],"tree_param":{"num_deleted":"0","num_feature":"23","num_nodes":"9","size_leaf_vector":"1"}},{"base_weights":[-6.2524914E1,-1.6918371E1,-1.5419517E1,7.556363E1,-9.653554E1,-3.3169357E1,1.5874457E1,-5.1554897E1,-1.0110151E1,-3.5599675E0,1.0194794E-1,-5.005421E0,-8.899481E0,-1.727568E0,9.364602E-1],"categories":[],"categories_nodes":[],"categories_segments":[],"categories_sizes":[],"default_left":[0,0,0,0,0,0,0,0,0,0,0,0,0,0,0],"id":86,"left_children":[1,3,-1,5,7,9,-1,11,-1,-1,-1,-1,13,-1,-1],"loss_changes":[5.3584506E5,3.238864E5,0E0,5.551969E5,9.593158E4,2.100641E4,0E0,3.6923938E4,0E0,0E0,0E0,0E0,9.128959E3,0E0,0E0],"parents":[2147483647,0,0,1,1,3,3,4,4,5,5,7,7,12,12],"right_children":[2,4,-1,6,8,10,-1,12,-1,-1,-1,-1,14,-1,-1],"split_conditions":[5.278E2,2E0,-1.5419517E1,9.09E1,1.869E2,4E0,1.5874457E1,4.4E1,-1.0110151E1,-3.5599675E0,1.0194794E-1,-5.005421E0,1.75E1,-1.727568E0,9.364602E-1],"split_indices":[0,3,0,14,14,1,0,4,0,0,0,0,14,0,0],"split_type":[0,0,0,0,0,0,0,0,0,0,0,0,0,0,0],"sum_hessian":[4.7E1,4.1E1,6E0,1.9E1,2.2E1,1.4E1,5E0,1.7E1,5E0,6E0,8E0,7E0,1E1,5E0,5E0],"tree_param":{"num_deleted":"0","num_feature":"23","num_nodes":"15","size_leaf_vector":"1"}},{"base_weights":[4.065449E1,-8.150055E1,3.0060034E1,-1.6806849E1,-1.7704948E1,-4.318143E1,5.1318564E0,-3.1590395E0,-2.5166336E1,-1.854448E0,-2.9692256E-1],"categories":[],"categories_nodes":[],"categories_segments":[],"categories_sizes":[],"default_left":[0,0,0,0,0,0,0,0,0,0,0],"id":87,"left_children":[1,3,-1,5,-1,7,-1,-1,9,-1,-1],"loss_changes":[3.2577765E6,6.87486E5,0E0,1.1215284E5,0E0,7.8390547E3,0E0,0E0,3.6599297E3,0E0,0E0],"parents":[2147483647,0,0,1,1,3,3,5,5,8,8],"right_children":[2,4,-1,6,-1,8,-1,-1,10,-1,-1],"split_conditions":[9E-1,2.925E2,3.0060034E1,1.13625E1,-1.7704948E1,2.4414062E-3,5.1318564E0,-3.1590395E0,8E0,-1.854448E0,-2.9692256E-1],"split_indices":[5,14,0,10,0,18,0,0,1,0,0],"split_type":[0,0,0,0,0,0,0,0,0,0,0],"sum_hessian":[4.5E1,3.8E1,7E0,3.2E1,6E0,2.7E1,5E0,1.1E1,1.6E1,9E0,7E0],"tree_param":{"num_deleted":"0","num_feature":"23","num_nodes":"11","size_leaf_vector":"1"}},{"base_weights":[6.993002E1,-5.134692E1,2.5606693E1,2.2433788E1,-1.2843394E1,-3.07279E1,1.0067745E1,-4.5820675E1,1.0789831E-1,-2.839078E0,-1.4939934E0],"categories":[],"categories_nodes":[],"categories_segments":[],"categories_sizes":[],"default_left":[1,0,0,0,0,0,0,0,0,0,0],"id":88,"left_children":[1,3,-1,5,-1,7,-1,9,-1,-1,-1],"loss_changes":[2.3725422E6,5.4706456E5,0E0,2.7093922E5,0E0,1.1337777E4,0E0,1.1997461E2,0E0,0E0,0E0],"parents":[2147483647,0,0,1,1,3,3,5,5,7,7],"right_children":[2,4,-1,6,-1,8,-1,10,-1,-1,-1],"split_conditions":[8E-1,2.4375E1,2.5606693E1,3.636E1,-1.2843394E1,1.675E0,1.0067745E1,2E-1,1.0789831E-1,-2.839078E0,-1.4939934E0],"split_indices":[5,10,0,12,0,10,0,5,0,0,0],"split_type":[0,0,0,0,0,0,0,0,0,0,0],"sum_hessian":[4.2E1,3.4E1,8E0,2.6E1,8E0,2.1E1,5E0,1.4E1,7E0,6E0,8E0],"tree_param":{"num_deleted":"0","num_feature":"23","num_nodes":"11","size_leaf_vector":"1"}},{"base_weights":[3.471963E1,-1.2794869E2,2.873939E2,-1.9508034E1,-1.6514118E1,3.9913784E1,-1.2711915E1,-3.1395772E0,2.3763978E0,-2.9300804E0,1.4767436E0],"categories":[],"categories_nodes":[],"categories_segments":[],"categories_sizes":[],"default_left":[0,0,1,0,0,0,0,0,0,0,0],"id":89,"left_children":[1,3,5,7,-1,-1,9,-1,-1,-1,-1],"loss_changes":[1.8431784E6,5.935433E5,2.6986898E6,6.1064438E4,0E0,0E0,2.6844371E4,0E0,0E0,0E0,0E0],"parents":[2147483647,0,0,1,1,2,2,3,3,6,6],"right_children":[2,4,6,8,-1,-1,10,-1,-1,-1,-1],"split_conditions":[8E0,7E-1,2E0,4E0,-1.6514118E1,3.9913784E1,9.5E-1,-3.1395772E0,2.3763978E0,-2.9300804E0,1.4767436E0],"split_indices":[1,9,6,6,0,0,7,0,0,0,0],"split_type":[0,0,0,0,0,0,0,0,0,0,0],"sum_hessian":[4.2E1,2.6E1,1.6E1,1.8E1,8E0,5E0,1.1E1,1.1E1,7E0,5E0,6E0],"tree_param":{"num_deleted":"0","num_feature":"23","num_nodes":"11","size_leaf_vector":"1"}},{"base_weights":[-8.503377E1,7.0428486E0,-2.9217053E2,-4.121414E1,7.845309E0,-1.7468267E1,-7.9337816E0,-3.0453694E0,-2.2655499E1,-1.5790958E0,-3.970562E-1],"categories":[],"categories_nodes":[],"categories_segments":[],"categories_sizes":[],"default_left":[0,0,0,0,0,0,0,0,0,0,0],"id":90,"left_children":[1,3,5,7,-1,-1,-1,-1,9,-1,-1],"loss_changes":[7.7566344E5,2.231006E5,1.20325E4,6.477168E3,0E0,0E0,0E0,0E0,1.5085718E3,0E0,0E0],"parents":[2147483647,0,0,1,1,2,2,3,3,8,8],"right_children":[2,4,6,8,-1,-1,-1,-1,10,-1,-1],"split_conditions":[9.75E1,4.25E0,4E0,4.4E1,7.845309E0,-1.7468267E1,-7.9337816E0,-3.0453694E0,4.096E3,-1.5790958E0,-3.970562E-1],"split_indices":[0,10,1,4,0,0,0,0,2,0,0],"split_type":[0,0,0,0,0,0,0,0,0,0,0],"sum_hessian":[3.9E1,2.8E1,1.1E1,2.2E1,6E0,6E0,5E0,9E0,1.3E1,7E0,6E0],"tree_param":{"num_deleted":"0","num_feature":"23","num_nodes":"11","size_leaf_vector":"1"}},{"base_weights":[4.070256E1,-6.497949E1,2.8756498E1,-2.3521257E1,-1.3178833E1,-5.911666E1,5.5816407E0,-4.2170006E1,-4.790354E0,-2.6277127E0,-1.3120923E0],"categories":[],"categories_nodes":[],"categories_segments":[],"categories_sizes":[],"default_left":[0,0,0,0,0,0,0,0,0,0,0],"id":91,"left_children":[1,3,-1,5,-1,7,-1,9,-1,-1,-1],"loss_changes":[2.569645E6,3.0754625E5,0E0,1.7103672E5,0E0,1.096968E4,0E0,1.4480625E3,0E0,0E0,0E0],"parents":[2147483647,0,0,1,1,3,3,5,5,7,7],"right_children":[2,4,-1,6,-1,8,-1,10,-1,-1,-1],"split_conditions":[6.825E2,9.75E1,2.8756498E1,9.75E1,-1.3178833E1,4E0,5.5816407E0,9.9E0,-4.790354E0,-2.6277127E0,-1.3120923E0],"split_indices":[14,0,0,14,0,3,0,14,0,0,0],"split_type":[0,0,0,0,0,0,0,0,0,0,0],"sum_hessian":[4.3E1,3.7E1,6E0,3.2E1,5E0,2.6E1,6E0,2E1,6E0,1E1,1E1],"tree_param":{"num_deleted":"0","num_feature":"23","num_nodes":"11","size_leaf_vector":"1"}},{"base_weights":[-1.0578977E2,-4.612363E-1,-2.1333876E1,-4.038699E1,8.731368E0,1.5901078E0,-8.724192E1,-3.5495508E0,4.245029E1,-6.738712E0,-2.4373053E-1,3.7732854E0,-1.422084E-2],"categories":[],"categories_nodes":[],"categories_segments":[],"categories_sizes":[],"default_left":[0,1,0,0,0,0,1,0,1,0,0,0,0],"id":92,"left_children":[1,3,-1,5,-1,7,9,-1,11,-1,-1,-1,-1],"loss_changes":[1.4359331E6,2.446951E5,0E0,5.630568E4,0E0,5.34398E4,5.1798688E4,0E0,1.6295186E4,0E0,0E0,0E0,0E0],"parents":[2147483647,0,0,1,1,3,3,5,5,6,6,8,8],"right_children":[2,4,-1,6,-1,8,10,-1,12,-1,-1,-1,-1],"split_conditions":[4.875E1,3.636E1,-2.1333876E1,2E0,8.731368E0,4E0,4.4E1,-3.5495508E0,4E1,-6.738712E0,-2.4373053E-1,3.7732854E0,-1.422084E-2],"split_indices":[10,12,0,3,0,1,4,0,4,0,0,0,0],"split_type":[0,0,0,0,0,0,0,0,0,0,0,0,0],"sum_hessian":[4.1E1,3.2E1,9E0,2.7E1,5E0,1.5E1,1.2E1,5E0,1E1,7E0,5E0,5E0,5E0],"tree_param":{"num_deleted":"0","num_feature":"23","num_nodes":"13","size_leaf_vector":"1"}},{"base_weights":[4.5694016E1,-1.02213104E2,2.9561869E1,-5.5045002E1,-1.499379E1,4.8575196E0,-1.2168132E2,-1.837676E0,3.387814E0,-6.339193E-1,-1.2641804E1],"categories":[],"categories_nodes":[],"categories_segments":[],"categories_sizes":[],"default_left":[1,0,0,0,0,0,0,0,0,0,0],"id":93,"left_children":[1,3,-1,5,-1,7,9,-1,-1,-1,-1],"loss_changes":[3.6008968E6,3.0604234E5,0E0,1.2269137E5,0E0,4.9553375E4,2.0235455E5,0E0,0E0,0E0,0E0],"parents":[2147483647,0,0,1,1,3,3,5,5,6,6],"right_children":[2,4,-1,6,-1,8,10,-1,-1,-1,-1],"split_conditions":[8E-1,4.875E1,2.9561869E1,4E0,-1.499379E1,4E0,3.35E0,-1.837676E0,3.387814E0,-6.339193E-1,-1.2641804E1],"split_indices":[5,10,0,3,0,1,10,0,0,0,0],"split_type":[0,0,0,0,0,0,0,0,0,0,0],"sum_hessian":[4.2E1,3.4E1,8E0,2.9E1,5E0,1.6E1,1.3E1,1E1,6E0,8E0,5E0],"tree_param":{"num_deleted":"0","num_feature":"23","num_nodes":"11","size_leaf_vector":"1"}},{"base_weights":[4.9668648E1,-3.8912354E1,2.9510569E1,-9.310182E1,6.7851715E1,-5.2320423E1,-9.566074E0,9.074486E0,-2.216606E0,-1.008381E1,-6.4539337E0,-2.7516015E0,3.2387478E0],"categories":[],"categories_nodes":[],"categories_segments":[],"categories_sizes":[],"default_left":[0,1,0,0,0,0,0,0,0,0,0,0,0],"id":94,"left_children":[1,3,-1,5,7,9,-1,-1,-1,11,-1,-1,-1],"loss_changes":[2.2133482E6,2.438006E5,0E0,9.5015375E4,1.9698834E5,6.768119E4,0E0,0E0,0E0,5.7496082E4,0E0,0E0,0E0],"parents":[2147483647,0,0,1,1,3,3,4,4,5,5,9,9],"right_children":[2,4,-1,6,8,10,-1,-1,-1,12,-1,-1,-1],"split_conditions":[1.5834E3,9.5E-1,2.9510569E1,2.2725E1,2E0,4E0,-9.566074E0,9.074486E0,-2.216606E0,1.0429688E-1,-6.4539337E0,-2.7516015E0,3.2387478E0],"split_indices":[14,7,0,10,3,3,0,0,0,18,0,0,0],"split_type":[0,0,0,0,0,0,0,0,0,0,0,0,0],"sum_hessian":[4.4E1,3.9E1,5E0,2.6E1,1.3E1,2E1,6E0,6E0,7E0,1.4E1,6E0,9E0,5E0],"tree_param":{"num_deleted":"0","num_feature":"23","num_nodes":"13","size_leaf_vector":"1"}},{"base_weights":[2.3117845E0,-8.834374E1,3.1124846E1,-3.284065E1,-1.4379541E1,1.3111954E1,-1.1262419E2,-4.5862522E1,6.6137466E0,-1.1102185E0,-9.022626E0,-6.695073E-1,-2.8602326E0],"categories":[],"categories_nodes":[],"categories_segments":[],"categories_sizes":[],"default_left":[0,0,0,0,0,0,0,0,0,0,0,0,0],"id":95,"left_children":[1,3,-1,5,-1,7,9,11,-1,-1,-1,-1,-1],"loss_changes":[2.8658065E6,4.7779066E5,0E0,1.3608338E5,0E0,1.8131847E5,7.668425E4,5.26109E3,0E0,0E0,0E0,0E0,0E0],"parents":[2147483647,0,0,1,1,3,3,5,5,6,6,7,7],"right_children":[2,4,-1,6,-1,8,10,12,-1,-1,-1,-1,-1],"split_conditions":[6.75584E4,4.875E1,3.1124846E1,4E0,-1.4379541E1,6.675E0,5.8176E3,6.5E-1,6.6137466E0,-1.1102185E0,-9.022626E0,-6.695073E-1,-2.8602326E0],"split_indices":[11,10,0,3,0,10,11,10,0,0,0,0,0],"split_type":[0,0,0,0,0,0,0,0,0,0,0,0,0],"sum_hessian":[4.8E1,4.3E1,5E0,3.5E1,8E0,2.3E1,1.2E1,1.6E1,7E0,6E0,6E0,5E0,1.1E1],"tree_param":{"num_deleted":"0","num_feature":"23","num_nodes":"13","size_leaf_vector":"1"}},{"base_weights":[5.7400007E0,-1.3676251E2,2.4023819E2,-4.060339E1,-1.8921041E1,-3.594279E1,3.792411E1,-5.8864044E1,1.0331162E0,1.30639E0,-5.4447227E0,-1.4053978E0,-3.9117105E0],"categories":[],"categories_nodes":[],"categories_segments":[],"categories_sizes":[],"default_left":[0,0,1,0,0,0,0,0,0,0,0,0,0],"id":96,"left_children":[1,3,5,7,-1,9,-1,11,-1,-1,-1,-1,-1],"loss_changes":[1.6366228E6,6.8549094E5,2.6891432E6,2.8134172E4,0E0,6.5439203E4,0E0,7.669711E3,0E0,0E0,0E0,0E0,0E0],"parents":[2147483647,0,0,1,1,2,2,3,3,5,5,7,7],"right_children":[2,4,6,8,-1,10,-1,12,-1,-1,-1,-1,-1],"split_conditions":[8E0,6.5975E1,3.636E1,1E4,-1.8921041E1,2E0,3.792411E1,1.65E0,1.0331162E0,1.30639E0,-5.4447227E0,-1.4053978E0,-3.9117105E0],"split_indices":[1,10,12,13,0,3,0,10,0,0,0,0,0],"split_type":[0,0,0,0,0,0,0,0,0,0,0,0,0],"sum_hessian":[4.6E1,2.9E1,1.7E1,2.2E1,7E0,1.2E1,5E0,1.7E1,5E0,7E0,5E0,8E0,9E0],"tree_param":{"num_deleted":"0","num_feature":"23","num_nodes":"13","size_leaf_vector":"1"}},{"base_weights":[9.32826E0,9.651107E1,-1.9870138E1,-3.6691372E1,3.3612324E1,5.943808E-1,-5.021531E1,-5.204969E0,-2.6802946E1,-1.8250035E0,1.2146683E-1],"categories":[],"categories_nodes":[],"categories_segments":[],"categories_sizes":[],"default_left":[0,1,0,0,0,0,1,0,0,0,0],"id":97,"left_children":[1,3,-1,5,-1,-1,7,-1,9,-1,-1],"loss_changes":[1.7062679E6,3.0665458E6,0E0,2.2923375E4,0E0,0E0,2.9180453E4,0E0,5.961157E3,0E0,0E0],"parents":[2147483647,0,0,1,1,3,3,6,6,8,8],"right_children":[2,4,-1,6,-1,-1,8,-1,10,-1,-1],"split_conditions":[1.3195E2,3.636E1,-1.9870138E1,6.931472E0,3.3612324E1,5.943808E-1,2.2E1,-5.204969E0,8E0,-1.8250035E0,1.2146683E-1],"split_indices":[10,12,0,21,0,0,4,0,3,0,0],"split_type":[0,0,0,0,0,0,0,0,0,0,0],"sum_hessian":[4.5E1,3.8E1,7E0,3.2E1,6E0,7E0,2.5E1,6E0,1.9E1,1.4E1,5E0],"tree_param":{"num_deleted":"0","num_feature":"23","num_nodes":"11","size_leaf_vector":"1"}},{"base_weights":[3.4443306E1,-4.9719505E1,2.0738512E1,-5.858093E0,-2.2708883E1,-5.9967205E1,5.2846885E0,-1.9293716E1,-6.598282E0,-3.1215784E-1,-1.2284385E0],"categories":[],"categories_nodes":[],"categories_segments":[],"categories_sizes":[],"default_left":[0,0,0,0,0,0,0,0,0,0,0],"id":98,"left_children":[1,3,-1,-1,5,7,-1,9,-1,-1,-1],"loss_changes":[1.3274959E6,5.87864E4,0E0,0E0,1.3626217E5,5.90664E4,0E0,8.215718E2,0E0,0E0,0E0],"parents":[2147483647,0,0,1,1,4,4,5,5,7,7],"right_children":[2,4,-1,-1,6,8,-1,10,-1,-1,-1],"split_conditions":[6.75584E4,8E-1,2.0738512E1,-5.858093E0,2.2725E1,2.67E1,5.2846885E0,1.12E2,-6.598282E0,-3.1215784E-1,-1.2284385E0],"split_indices":[11,7,0,0,10,0,0,13,0,0,0],"split_type":[0,0,0,0,0,0,0,0,0,0,0],"sum_hessian":[3.9E1,3.3E1,6E0,8E0,2.5E1,2E1,5E0,1.4E1,6E0,5E0,9E0],"tree_param":{"num_deleted":"0","num_feature":"23","num_nodes":"11","size_leaf_vector":"1"}},{"base_weights":[5.7414913E1,-8.528628E1,2.8331635E1,-1.2794775E1,-1.9278091E1,-5.9691475E1,3.3107876E1,-1.6985718E0,-4.0132613E0,-7.145722E-1,3.381619E0],"categories":[],"categories_nodes":[],"categories_segments":[],"categories_sizes":[],"default_left":[0,0,0,0,0,0,0,0,0,0,0],"id":99,"left_children":[1,3,-1,-1,5,7,9,-1,-1,-1,-1],"loss_changes":[3.161034E6,3.8098803E5,0E0,0E0,5.908068E4,4.0547344E3,2.1931988E4,0E0,0E0,0E0,0E0],"parents":[2147483647,0,0,1,1,4,4,5,5,6,6],"right_children":[2,4,-1,-1,6,8,10,-1,-1,-1,-1],"split_conditions":[9E-1,5.12E2,2.8331635E1,-1.2794775E1,4.4E1,8.192E3,8E0,-1.6985718E0,-4.0132613E0,-7.145722E-1,3.381619E0],"split_indices":[5,2,0,0,4,2,1,0,0,0,0],"split_type":[0,0,0,0,0,0,0,0,0,0,0],"sum_hessian":[4.1E1,3.3E1,8E0,8E0,2.5E1,1.4E1,1.1E1,8E0,6E0,5E0,6E0],"tree_param":{"num_deleted":"0","num_feature":"23","num_nodes":"11","size_leaf_vector":"1"}},{"base_weights":[2.315647E1,9.781311E1,-1.773457E1,-4.5517532E1,2.9745743E1,-3.962336E0,-2.0369272E1,-1.5544089E0,-1.0596104E1,-1.3664798E-1,-7.612471E-1],"categories":[],"categories_nodes":[],"categories_segments":[],"categories_sizes":[],"default_left":[0,1,0,1,0,0,0,0,0,0,0],"id":100,"left_children":[1,3,-1,5,-1,-1,7,-1,9,-1,-1],"loss_changes":[1.2789969E6,2.712765E6,0E0,2.3399918E4,0E0,0E0,1.527812E3,0E0,3.8357263E2,0E0,0E0],"parents":[2147483647,0,0,1,1,3,3,6,6,8,8],"right_children":[2,4,-1,6,-1,-1,8,-1,10,-1,-1],"split_conditions":[1.3195E2,3.636E1,-1.773457E1,2.2E1,2.9745743E1,-3.962336E0,9.9E0,-1.5544089E0,3.3792E3,-1.3664798E-1,-7.612471E-1],"split_indices":[10,12,0,4,0,0,14,0,11,0,0],"split_type":[0,0,0,0,0,0,0,0,0,0,0],"sum_hessian":[4.2E1,3.6E1,6E0,2.9E1,7E0,1.1E1,1.8E1,7E0,1.1E1,5E0,6E0],"tree_param":{"num_deleted":"0","num_feature":"23","num_nodes":"11","size_leaf_vector":"1"}},{"base_weights":[3.1223589E1,2.0419323E1,-7.854478E1,-1.1239275E1,-1.8404972E1,-1.5795479E0,-1.183475E0,6.104968E-1,-9.2508745E-1],"categories":[],"categories_nodes":[],"categories_segments":[],"categories_sizes":[],"default_left":[0,0,1,0,0,0,0,0,0],"id":101,"left_children":[1,-1,3,-1,5,-1,7,-1,-1],"loss_changes":[1.932005E6,0E0,3.1468606E5,0E0,6.172299E3,0E0,3.4733389E3,0E0,0E0],"parents":[2147483647,0,0,2,2,4,4,6,6],"right_children":[2,-1,4,-1,6,-1,8,-1,-1],"split_conditions":[2E0,2.0419323E1,2.2E1,-1.1239275E1,1.75E1,-1.5795479E0,9.5E-1,6.104968E-1,-9.2508745E-1],"split_indices":[6,0,4,0,14,0,7,0,0],"split_type":[0,0,0,0,0,0,0,0,0],"sum_hessian":[4.4E1,9E0,3.5E1,9E0,2.6E1,1.4E1,1.2E1,7E0,5E0],"tree_param":{"num_deleted":"0","num_feature":"23","num_nodes":"9","size_leaf_vector":"1"}},{"base_weights":[4.112388E1,-4.7597775E1,2.9908216E1,-9.939704E0,3.431701E0,-2.354631E1,5.842722E0,-8.592848E0,-2.7698247E0,-1.3741689E0,1.4790374E0],"categories":[],"categories_nodes":[],"categories_segments":[],"categories_sizes":[],"default_left":[1,0,0,0,1,0,0,0,0,0,0],"id":102,"left_children":[1,3,-1,-1,5,7,-1,9,-1,-1,-1],"loss_changes":[2.3410842E6,3.2131294E5,0E0,0E0,1.0362128E5,1.2351422E4,0E0,1.6001368E4,0E0,0E0,0E0],"parents":[2147483647,0,0,1,1,4,4,5,5,7,7],"right_children":[2,4,-1,-1,6,8,-1,10,-1,-1,-1],"split_conditions":[9E-1,1.6E1,2.9908216E1,-9.939704E0,3.636E1,4E0,5.842722E0,2E0,-2.7698247E0,-1.3741689E0,1.4790374E0],"split_indices":[5,4,0,0,12,3,0,3,0,0,0],"split_type":[0,0,0,0,0,0,0,0,0,0,0],"sum_hessian":[4.5E1,4E1,5E0,9E0,3.1E1,2.6E1,5E0,1.9E1,7E0,1.3E1,6E0],"tree_param":{"num_deleted":"0","num_feature":"23","num_nodes":"11","size_leaf_vector":"1"}},{"base_weights":[-1.3614285E2,-5.8072186E1,-2.0987455E1,-1.5423217E1,-7.46214E0,-8.9023895E1,6.58763E1,-7.5571365E0,-1.2876166E0,-9.52967E-1,7.437683E0],"categories":[],"categories_nodes":[],"categories_segments":[],"categories_sizes":[],"default_left":[0,0,0,0,0,0,0,0,0,0,0],"id":103,"left_children":[1,3,-1,5,-1,7,9,-1,-1,-1,-1],"loss_changes":[8.5992125E5,1.267241E5,0E0,1.5540906E5,0E0,4.713293E4,9.2308086E4,0E0,0E0,0E0,0E0],"parents":[2147483647,0,0,1,1,3,3,5,5,6,6],"right_children":[2,4,-1,6,-1,8,10,-1,-1,-1,-1],"split_conditions":[5.278E2,4E0,-2.0987455E1,4E0,-7.46214E0,2E0,8.5E0,-7.5571365E0,-1.2876166E0,-9.52967E-1,7.437683E0],"split_indices":[0,3,0,1,0,3,0,0,0,0,0],"split_type":[0,0,0,0,0,0,0,0,0,0,0],"sum_hessian":[3.9E1,3.2E1,7E0,2.3E1,9E0,1.2E1,1.1E1,5E0,7E0,6E0,5E0],"tree_param":{"num_deleted":"0","num_feature":"23","num_nodes":"11","size_leaf_vector":"1"}},{"base_weights":[-9.864126E1,-3.260156E-1,-3.4238394E2,-3.249969E1,4.809686E0,-2.0812334E1,-8.903456E0,-1.5324898E1,-3.9544747E0,-1.4663762E0,-4.9751613E-1,-8.8628066E-1,8.384234E-1],"categories":[],"categories_nodes":[],"categories_segments":[],"categories_sizes":[],"default_left":[0,0,0,0,0,0,0,0,0,0,0,0,0],"id":104,"left_children":[1,3,5,7,-1,-1,-1,9,-1,-1,11,-1,-1],"loss_changes":[1.04207875E6,1.05582875E5,4.023125E4,1.8539074E4,0E0,0E0,0E0,4.219457E3,0E0,0E0,3.867116E3,0E0,0E0],"parents":[2147483647,0,0,1,1,2,2,3,3,7,7,10,10],"right_children":[2,4,6,8,-1,-1,-1,10,-1,-1,12,-1,-1],"split_conditions":[2.925E2,8.01E1,3.6E3,5E-1,4.809686E0,-2.0812334E1,-8.903456E0,2E0,-3.9544747E0,-1.4663762E0,9.1E0,-8.8628066E-1,8.384234E-1],"split_indices":[14,14,12,5,0,0,0,3,0,0,14,0,0],"split_type":[0,0,0,0,0,0,0,0,0,0,0,0,0],"sum_hessian":[4.2E1,3.1E1,1.1E1,2.4E1,7E0,6E0,5E0,1.9E1,5E0,9E0,1E1,5E0,5E0],"tree_param":{"num_deleted":"0","num_feature":"23","num_nodes":"13","size_leaf_vector":"1"}},{"base_weights":[-1.0976722E2,-1.4729487E1,-3.588593E2,8.486477E0,-5.838603E0,-5.4119134E0,-2.8257343E1,-3.3682117E1,5.9335217E0,-5.574032E-1,-2.3714554E0],"categories":[],"categories_nodes":[],"categories_segments":[],"categories_sizes":[],"default_left":[0,0,0,0,0,0,0,0,0,0,0],"id":105,"left_children":[1,3,5,7,-1,-1,-1,9,-1,-1,-1],"loss_changes":[1.0690128E6,8.327169E4,5.541574E5,1.4310402E5,0E0,0E0,0E0,6.147547E3,0E0,0E0,0E0],"parents":[2147483647,0,0,1,1,2,2,3,3,7,7],"right_children":[2,4,6,8,-1,-1,-1,10,-1,-1,-1],"split_conditions":[3.6946E2,8E0,2E0,6.675E0,-5.838603E0,-5.4119134E0,-2.8257343E1,8.375E-1,5.9335217E0,-5.574032E-1,-2.3714554E0],"split_indices":[12,3,3,10,0,0,0,10,0,0,0],"split_type":[0,0,0,0,0,0,0,0,0,0,0],"sum_hessian":[4.4E1,3.3E1,1.1E1,2.8E1,5E0,6E0,5E0,2.1E1,7E0,9E0,1.2E1],"tree_param":{"num_deleted":"0","num_feature":"23","num_nodes":"11","size_leaf_vector":"1"}},{"base_weights":[-9.716326E1,-2.3694841E1,-1.9052542E2,-3.652808E1,-3.2637534E0,-5.6667976E0,-1.2285225E1,-2.575706E0,-1.0992547E0,-4.067056E-1,1.1414279E-1],"categories":[],"categories_nodes":[],"categories_segments":[],"categories_sizes":[],"default_left":[0,0,0,0,0,0,0,0,0,0,0],"id":106,"left_children":[1,3,5,7,9,-1,-1,-1,-1,-1,-1],"loss_changes":[2.8463594E5,6.487301E3,3.6845812E4,1.6425332E3,3.4143982E2,0E0,0E0,0E0,0E0,0E0,0E0],"parents":[2147483647,0,0,1,1,2,2,3,3,4,4],"right_children":[2,4,6,8,10,-1,-1,-1,-1,-1,-1],"split_conditions":[1.21875E1,3E0,1.95E2,4E1,5.8176E3,-5.6667976E0,-1.2285225E1,-2.575706E0,-1.0992547E0,-4.067056E-1,1.1414279E-1],"split_indices":[10,16,10,4,11,0,0,0,0,0,0],"split_type":[0,0,0,0,0,0,0,0,0,0,0],"sum_hessian":[4.1E1,2.4E1,1.7E1,1.4E1,1E1,9E0,8E0,5E0,9E0,5E0,5E0],"tree_param":{"num_deleted":"0","num_feature":"23","num_nodes":"11","size_leaf_vector":"1"}},{"base_weights":[-6.1258705E1,1.2151194E1,-2.0946568E2,-1.61456E1,5.586389E0,-1.29539E1,-5.8946776E0,-2.5766048E0,-2.22554E0,-1.2250541E0,9.093316E0,-1.2982732E-1,1.0280043E0],"categories":[],"categories_nodes":[],"categories_segments":[],"categories_sizes":[],"default_left":[0,0,0,0,0,0,0,0,0,0,0,0,0],"id":107,"left_children":[1,3,5,7,-1,-1,-1,9,-1,-1,11,-1,-1],"loss_changes":[4.445508E5,8.3058055E4,1.5328E4,8.849277E3,0E0,0E0,0E0,4.819394E3,0E0,0E0,1.7646216E3,0E0,0E0],"parents":[2147483647,0,0,1,1,2,2,3,3,7,7,10,10],"right_children":[2,4,6,8,-1,-1,-1,10,-1,-1,12,-1,-1],"split_conditions":[9.75E1,9.09E1,9E-1,3.35E0,5.586389E0,-1.29539E1,-5.8946776E0,2.4414062E-3,-2.22554E0,-1.2250541E0,4E0,-1.2982732E-1,1.0280043E0],"split_indices":[0,0,9,10,0,0,0,18,0,0,3,0,0],"split_type":[0,0,0,0,0,0,0,0,0,0,0,0,0],"sum_hessian":[3.9E1,2.7E1,1.2E1,2.2E1,5E0,6E0,6E0,1.6E1,6E0,5E0,1.1E1,6E0,5E0],"tree_param":{"num_deleted":"0","num_feature":"23","num_nodes":"13","size_leaf_vector":"1"}},{"base_weights":[6.624571E1,-5.2898857E1,3.32544E1,-1.659811E1,-9.988966E0,-2.5606916E0,3.2922614E0,-1.0591839E1,1.6790829E0,-7.538695E-1,-7.574205E-2],"categories":[],"categories_nodes":[],"categories_segments":[],"categories_sizes":[],"default_left":[0,1,0,0,0,0,0,0,0,0,0],"id":108,"left_children":[1,3,-1,5,-1,-1,7,9,-1,-1,-1],"loss_changes":[2.8000085E6,1.735355E5,0E0,1.9899682E4,0E0,0E0,8.745581E3,5.478163E2,0E0,0E0,0E0],"parents":[2147483647,0,0,1,1,3,3,6,6,7,7],"right_children":[2,4,-1,6,-1,-1,8,10,-1,-1,-1],"split_conditions":[1.5834E3,3.636E1,3.32544E1,4E0,-9.988966E0,-2.5606916E0,2.125E0,4.8E1,1.6790829E0,-7.538695E-1,-7.574205E-2],"split_indices":[14,12,0,1,0,0,10,4,0,0,0],"split_type":[0,0,0,0,0,0,0,0,0,0,0],"sum_hessian":[3.7E1,3.2E1,5E0,2.7E1,5E0,9E0,1.8E1,1.3E1,5E0,8E0,5E0],"tree_param":{"num_deleted":"0","num_feature":"23","num_nodes":"11","size_leaf_vector":"1"}},{"base_weights":[4.4476566E1,2.3475742E2,-1.5720409E2,1.9876892E1,3.960444E1,-2.2716568E1,-1.8732267E1,1.0200716E2,-7.7605705E0,-3.6146175E-2,-2.032129E0,-1.5703282E0,1.2650404E1],"categories":[],"categories_nodes":[],"categories_segments":[],"categories_sizes":[],"default_left":[0,1,0,0,0,0,0,0,0,0,0,0,0],"id":109,"left_children":[1,3,5,7,-1,9,-1,11,-1,-1,-1,-1,-1],"loss_changes":[1.7631264E6,2.7903292E6,6.450058E5,2.897533E5,0E0,6.0462495E3,0E0,2.8399547E5,0E0,0E0,0E0,0E0,0E0],"parents":[2147483647,0,0,1,1,2,2,3,3,5,5,7,7],"right_children":[2,4,6,8,-1,10,-1,12,-1,-1,-1,-1,-1],"split_conditions":[2E0,8E-1,3.636E1,2.4375E1,3.960444E1,4.096E3,-1.8732267E1,9.5E-1,-7.7605705E0,-3.6146175E-2,-2.032129E0,-1.5703282E0,1.2650404E1],"split_indices":[3,5,12,10,0,2,0,7,0,0,0,0,0],"split_type":[0,0,0,0,0,0,0,0,0,0,0,0,0],"sum_hessian":[4.3E1,2.2E1,2.1E1,1.7E1,5E0,1.4E1,7E0,1.2E1,5E0,7E0,7E0,7E0,5E0],"tree_param":{"num_deleted":"0","num_feature":"23","num_nodes":"13","size_leaf_vector":"1"}},{"base_weights":[-9.534832E1,-2.454422E1,-1.9125221E1,-5.7229313E1,3.8666916E0,-8.18085E0,-2.412872E1,-1.047129E1,-2.8677387E0,-1.2719785E0,8.251719E-1],"categories":[],"categories_nodes":[],"categories_segments":[],"categories_sizes":[],"default_left":[0,0,0,1,0,0,0,0,0,0,0],"id":110,"left_children":[1,3,-1,5,-1,-1,7,9,-1,-1,-1],"loss_changes":[8.701486E5,1.281697E5,0E0,9.434695E4,0E0,0E0,9.729109E3,8.1038857E3,0E0,0E0,0E0],"parents":[2147483647,0,0,1,1,3,3,6,6,7,7],"right_children":[2,4,-1,6,-1,-1,8,10,-1,-1,-1],"split_conditions":[5.278E2,1.869E2,-1.9125221E1,2E0,3.8666916E0,-8.18085E0,4.69E1,9.9E0,-2.8677387E0,-1.2719785E0,8.251719E-1],"split_indices":[0,14,0,6,0,0,14,14,0,0,0],"split_type":[0,0,0,0,0,0,0,0,0,0,0],"sum_hessian":[4.2E1,3.5E1,7E0,2.7E1,8E0,5E0,2.2E1,1.7E1,5E0,1.1E1,6E0],"tree_param":{"num_deleted":"0","num_feature":"23","num_nodes":"11","size_leaf_vector":"1"}},{"base_weights":[-8.531569E1,-2.86684E1,-1.2204298E1,-4.9454193E0,-1.8464205E0,-2.2613098E1,3.3596268E0,-1.7096297E0,-8.040589E0,-4.293477E-2,-6.6450197E-1],"categories":[],"categories_nodes":[],"categories_segments":[],"categories_sizes":[],"default_left":[0,1,0,0,0,0,0,0,0,0,0],"id":111,"left_children":[1,3,-1,-1,5,7,-1,-1,9,-1,-1],"loss_changes":[3.8959606E5,6.4672832E4,0E0,0E0,4.0250164E4,3.1944502E3,0E0,0E0,4.0936884E2,0E0,0E0],"parents":[2147483647,0,0,1,1,4,4,5,5,8,8],"right_children":[2,4,-1,-1,6,8,-1,-1,10,-1,-1],"split_conditions":[6.363E2,8E-1,-1.2204298E1,-4.9454193E0,9.09E1,2E0,3.3596268E0,-1.7096297E0,3.3792E3,-4.293477E-2,-6.6450197E-1],"split_indices":[14,7,0,0,14,3,0,0,11,0,0],"split_type":[0,0,0,0,0,0,0,0,0,0,0],"sum_hessian":[4.3E1,3.3E1,1E1,8E0,2.5E1,2E1,5E0,1E1,1E1,5E0,5E0],"tree_param":{"num_deleted":"0","num_feature":"23","num_nodes":"11","size_leaf_vector":"1"}},{"base_weights":[9.142905E1,-1.558492E1,3.6859314E1,5.103482E1,-1.5453197E2,-2.6049595E1,1.0468469E1,-1.2513204E0,-1.4407363E1,-2.3186312E0,-1.0322178E1,-9.218856E-1,1.2977812E-1],"categories":[],"categories_nodes":[],"categories_segments":[],"categories_sizes":[],"default_left":[0,0,0,0,0,0,0,0,0,0,0,0,0],"id":112,"left_children":[1,3,-1,5,7,9,-1,-1,-1,-1,11,-1,-1],"loss_changes":[3.161874E6,3.8677447E5,0E0,3.5611875E5,2.2262944E5,5.806043E3,0E0,0E0,0E0,0E0,1.4949692E3,0E0,0E0],"parents":[2147483647,0,0,1,1,3,3,4,4,5,5,10,10],"right_children":[2,4,-1,6,8,10,-1,-1,-1,-1,12,-1,-1],"split_conditions":[3.6946E3,4E0,3.6859314E1,9.09E1,2.67E1,2.4414062E-3,1.0468469E1,-1.2513204E0,-1.4407363E1,-2.3186312E0,1.75E1,-9.218856E-1,1.2977812E-1],"split_indices":[14,3,0,0,0,18,0,0,0,0,14,0,0],"split_type":[0,0,0,0,0,0,0,0,0,0,0,0,0],"sum_hessian":[4.4E1,3.9E1,5E0,2.7E1,1.2E1,1.9E1,8E0,7E0,5E0,7E0,1.2E1,7E0,5E0],"tree_param":{"num_deleted":"0","num_feature":"23","num_nodes":"13","size_leaf_vector":"1"}},{"base_weights":[-9.039153E1,-1.6130999E1,-1.5717865E1,-3.259245E1,1.226793E0,-3.8955133E0,-1.4953759E1,1.01140775E-1,-2.1051489E1,-5.7329774E-1,-1.2867761E0],"categories":[],"categories_nodes":[],"categories_segments":[],"categories_sizes":[],"default_left":[0,0,0,1,0,0,0,0,0,0,0],"id":113,"left_children":[1,3,-1,5,-1,-1,7,-1,9,-1,-1],"loss_changes":[6.990806E5,2.362964E4,0E0,1.7789992E4,0E0,0E0,2.0920015E3,0E0,1.8981055E2,0E0,0E0],"parents":[2147483647,0,0,1,1,3,3,6,6,8,8],"right_children":[2,4,-1,6,-1,-1,8,-1,10,-1,-1],"split_conditions":[4.875E1,3E0,-1.5717865E1,2.2E1,1.226793E0,-3.8955133E0,6.931472E0,1.01140775E-1,2E0,-5.7329774E-1,-1.2867761E0],"split_indices":[10,16,0,4,0,0,21,0,3,0,0],"split_type":[0,0,0,0,0,0,0,0,0,0,0],"sum_hessian":[4.1E1,3.2E1,9E0,2.3E1,9E0,5E0,1.8E1,5E0,1.3E1,6E0,7E0],"tree_param":{"num_deleted":"0","num_feature":"23","num_nodes":"11","size_leaf_vector":"1"}},{"base_weights":[7.006904E1,-3.1592068E1,3.3588146E1,2.9951632E1,-1.6816064E2,-5.107151E1,1.5642995E2,4.9771672E-1,-1.6747427E1,-5.1624784E0,-1.0118548E0,1.8164898E0,1.2017699E1],"categories":[],"categories_nodes":[],"categories_segments":[],"categories_sizes":[],"default_left":[0,0,0,0,0,0,0,0,0,0,0,0,0],"id":114,"left_children":[1,3,-1,5,7,9,11,-1,-1,-1,-1,-1,-1],"loss_changes":[2.754168E6,3.3961906E5,0E0,3.04095E5,3.7650672E5,2.6568328E4,1.0267544E5,0E0,0E0,0E0,0E0,0E0,0E0],"parents":[2147483647,0,0,1,1,3,3,4,4,5,5,6,6],"right_children":[2,4,-1,6,8,10,12,-1,-1,-1,-1,-1,-1],"split_conditions":[3.6946E3,4E0,3.3588146E1,1E1,2.67E1,1.6E1,1.869E2,4.9771672E-1,-1.6747427E1,-5.1624784E0,-1.0118548E0,1.8164898E0,1.2017699E1],"split_indices":[14,3,0,19,0,4,14,0,0,0,0,0,0],"split_type":[0,0,0,0,0,0,0,0,0,0,0,0,0],"sum_hessian":[4.3E1,3.8E1,5E0,2.7E1,1.1E1,1.7E1,1E1,6E0,5E0,5E0,1.2E1,5E0,5E0],"tree_param":{"num_deleted":"0","num_feature":"23","num_nodes":"13","size_leaf_vector":"1"}},{"base_weights":[1.4186763E1,-6.877401E1,2.1310997E1,-1.1066148E1,-1.1853022E1,-3.8451958E1,3.8444645E0,-8.474277E0,-4.4899735E0,-7.96078E-1,1.7900555E-1],"categories":[],"categories_nodes":[],"categories_segments":[],"categories_sizes":[],"default_left":[0,0,0,0,0,0,0,0,0,0,0],"id":115,"left_children":[1,3,-1,5,-1,7,-1,9,-1,-1,-1],"loss_changes":[1.5310908E6,3.6012025E5,0E0,7.547316E4,0E0,3.4982453E4,0E0,1.5729176E3,0E0,0E0,0E0],"parents":[2147483647,0,0,1,1,3,3,5,5,7,7],"right_children":[2,4,-1,6,-1,8,-1,10,-1,-1,-1],"split_conditions":[3.6946E3,9.75E1,2.1310997E1,9.75E1,-1.1853022E1,5.8176E3,3.8444645E0,1.75E1,-4.4899735E0,-7.96078E-1,1.7900555E-1],"split_indices":[14,0,0,14,0,11,0,14,0,0,0],"split_type":[0,0,0,0,0,0,0,0,0,0,0],"sum_hessian":[4.2E1,3.6E1,6E0,2.8E1,8E0,2.2E1,6E0,1.5E1,7E0,9E0,6E0],"tree_param":{"num_deleted":"0","num_feature":"23","num_nodes":"11","size_leaf_vector":"1"}},{"base_weights":[3.9634007E1,-4.6795254E1,1.878105E1,-7.2109494E0,-1.1236762E1,-1.9712858E1,2.65195E0,-3.2612972E0,-6.932296E0,-7.4066335E-1,3.197398E-1],"categories":[],"categories_nodes":[],"categories_segments":[],"categories_sizes":[],"default_left":[0,0,0,0,0,0,0,0,0,0,0],"id":116,"left_children":[1,3,-1,5,-1,7,-1,-1,9,-1,-1],"loss_changes":[1.4930051E6,2.8976388E5,0E0,2.829166E4,0E0,1.7027E4,0E0,0E0,2.8245767E3,0E0,0E0],"parents":[2147483647,0,0,1,1,3,3,5,5,8,8],"right_children":[2,4,-1,6,-1,8,-1,-1,10,-1,-1],"split_conditions":[9E-1,9.75E1,1.878105E1,1.13625E1,-1.1236762E1,1.2E1,2.65195E0,-3.2612972E0,1.75E1,-7.4066335E-1,3.197398E-1],"split_indices":[5,0,0,10,0,4,0,0,14,0,0],"split_type":[0,0,0,0,0,0,0,0,0,0,0],"sum_hessian":[4.9E1,4E1,9E0,3.4E1,6E0,2.9E1,5E0,5E0,2.4E1,1.5E1,9E0],"tree_param":{"num_deleted":"0","num_feature":"23","num_nodes":"11","size_leaf_vector":"1"}},{"base_weights":[1.1140577E1,-5.615984E1,1.862007E1,-1.9011015E1,-1.078729E1,-3.0228648E0,1.5868912E0,2.7795029E1,-2.6296127E0,4.429277E0,-7.716456E-1],"categories":[],"categories_nodes":[],"categories_segments":[],"categories_sizes":[],"default_left":[1,0,0,1,0,0,0,0,0,0,0],"id":117,"left_children":[1,3,-1,5,-1,-1,7,9,-1,-1,-1],"loss_changes":[1.1620838E6,2.3383172E5,0E0,2.9626219E4,0E0,0E0,3.69687E4,4.807462E4,0E0,0E0,0E0],"parents":[2147483647,0,0,1,1,3,3,6,6,7,7],"right_children":[2,4,-1,6,-1,-1,8,10,-1,-1,-1],"split_conditions":[9E-1,5.278E2,1.862007E1,2.2E1,-1.078729E1,-3.0228648E0,2.828427E0,1.024E3,-2.6296127E0,4.429277E0,-7.716456E-1],"split_indices":[5,0,0,4,0,0,17,2,0,0,0],"split_type":[0,0,0,0,0,0,0,0,0,0,0],